  -0.0328084    0.0781944   -0.0275614    0.0520184   -0.0512077    0.0530337    0.0349668  -0.00789309    0.0720778   0.00109087   -0.0273373    0.0186644   -0.0710318    0.0817607    -0.032769   -0.0862495    0.0038559    0.0709852  -0.00996912   -0.0633328  -0.00205229   -0.0341277    0.0856661   -0.0407177   0.00417917    0.0582628   -0.0302841  -0.00123472    0.0496084  -0.00504164   0.00481121   -0.0446589    0.0306692   -0.0203313  -0.00143337   -0.0778782   -0.0379571    0.0471505    0.0855517  -0.00805743   0.00290332   -0.0626235    0.0488607   -0.0296809    0.0658755    0.0683072   -0.0518975   0.00267543    0.0149036   -0.0373007    0.0604944    0.0131436   -0.0618833    0.0340417    0.0550402   -0.0557727     0.065058    0.0737274   -0.0716265    0.0817614   -0.0582949    0.0187552   0.00739491   -0.0599412   -0.0187773     0.046575    -0.014314    0.0446934   -0.0395659   -0.0153066   -0.0516088   0.00137221   -0.0749888    0.0821685    0.0751178   -0.0400982    0.0675593    0.0443414   -0.0377235    0.0531962    -0.014089   -0.0728938   -0.0506767   -0.0506715    0.0260481    0.0821352    0.0814899    0.0300489   -0.0142186   -0.0664918    0.0228466  -0.00979342    0.0456153    0.0694868    0.0629806    0.0566757    0.0312468   -0.0765932  -0.00527145    0.0834316   -0.0125161   0.00875815   0.00463864   -0.0610993    0.0570612  0.000218327    0.0584882   -0.0778043    0.0356118    0.0316312   -0.0622869   -0.0381285   -0.0274101    0.0315104    0.0701042   -0.0299923    0.0353131    0.0743689    0.0790811   -0.0812057    0.0442579   -0.0830987     0.046932   -0.0393238   -0.0172091    0.0720109   -0.0505587    -0.086734    0.0684464   -0.0671451   0.00807342  -0.00385519    0.0292886   -0.0832481    0.0341633   -0.0438292   0.00976427     0.049197    0.0799571   -0.0596133    0.0264195    0.0706419     0.010308    0.0342633     0.076801   -0.0404349   -0.0666305    0.0568642    0.0713184    0.0242858    0.0469168   -0.0167589    0.0134156   -0.0448764   -0.0523562   -0.0434732   -0.0551358  0.000558658    0.0213203    0.0514373   -0.0711324    0.0720567   -0.0592445    0.0188712    0.0481333   -0.0756618    0.0385938   -0.0323431    0.0385357   -0.0649141   -0.0572567      0.06605    0.0140905   -0.0569949    0.0804816    -0.078848   -0.0861915   -0.0692705    0.0494686    0.0715344    0.0809631   -0.0432654    0.0102416    0.0806171    0.0762541    0.0663487     0.032494    0.0275135    0.0431478   -0.0194654   -0.0336513   -0.0776316   -0.0853007   -0.0312542    0.0116478   -0.0209619    0.0490742    0.0273188   -0.0080383   -0.0437264   -0.0784846   -0.0155566    0.0187099   -0.0623606   -0.0725942   -0.0306748   -0.0334783    0.0305275    -0.065556    -0.022374   -0.0180708   -0.0554148    0.0550581    -0.011807   -0.0718611    0.0850571    0.0202437    0.0296497    0.0544645   -0.0273336   -0.0675491    0.0010474    0.0210878   -0.0313592    0.0399368   -0.0307734    0.0765908    0.0665251    0.0414684    0.0717639    0.0568812   -0.0351439   -0.0368658   -0.0660743   -0.0109331      0.08462    -0.010352    0.0790095   -0.0687146   -0.0854964    0.0824995    -0.033558  -0.00508153   -0.0250995   -0.0755739   0.00399178   0.00980717    0.0500833   0.00349188    0.0396915   -0.0523692    0.0663794     0.048767   -0.0348365   -0.0538478   -0.0486309    0.0412244   -0.0705397    0.0602706    0.0289076   -0.0861531    0.0805001   -0.0420969    -0.042666   -0.0689065    0.0415018   -0.0851912  -0.00574798    0.0313056    0.0209991    0.0352685   -0.0299978    0.0192233   -0.0315143   -0.0138307     0.038828  -0.00174093     0.076379   -0.0824461    0.0740717   -0.0187637    0.0315466   -0.0152111    0.0203266   -0.0527542   -0.0342749   0.00822106   -0.0824402   -0.0556466    0.0280284     0.074804   -0.0690643   -0.0580735   -0.0393147    0.0329978    0.0824387    -0.058903  0.000251461    0.0486277  -0.00436929   -0.0858362   -0.0267446    0.0478117   0.00134898    0.0152809    0.0826445   -0.0778773    -0.031607    -0.017656    0.0175805    -0.059127    0.0375386     0.079559   -0.0308886   -0.0129768   -0.0575793   -0.0786401  -0.00986739   -0.0312482    0.0848404    0.0106024   -0.0840803   -0.0596893    0.0317624    -0.021382    0.0397114  -0.00446097    0.0714323    0.0458011    0.0292628    0.0192069   -0.0861084   -0.0804213   -0.0742345     0.066655   -0.0719073   -0.0270037   -0.0720886   -0.0234355    0.0239616    -0.069999   -0.0782465    0.0770468    0.0140293    0.0600112    0.0322016   -0.0397831   -0.0282469    0.0309361    0.0788968    0.0639006    0.0461578    0.0530493   -0.0261559    0.0758105    0.0315019    -0.081492    0.0777795    0.0671333   -0.0347124   -0.0483874    -0.046468   -0.0133103    0.0374032   -0.0547112   -0.0581667   -0.0552965   0.00395222    0.0830818    0.0394045   -0.0362288    0.0645294    0.0770375    0.0275041   -0.0530698   0.00767037   -0.0154408   -0.0446486    0.0119352  -0.00380494   -0.0788947   -0.0182561   0.00221495    0.0487546   -0.0285142   -0.0575985   -0.0396233   -0.0477795   -0.0152092    -0.075517   0.00297455    0.0280207   -0.0858976   -0.0351061    0.0738345    0.0821453   -0.0173609    0.0369364    0.0309131   -0.0817335    0.0635131    0.0574623   -0.0654215    0.0534758   -0.0804845   -0.0479221    0.0447094     0.039441   -0.0107281    0.0160312    -0.085802    0.0108172   -0.0799328    0.0839459    0.0484122   -0.0307873   -0.0494445    0.0852806   -0.0546582    0.0519105   0.00591275   -0.0708784   -0.0668884    0.0225146    0.0735703    0.0641949    0.0766312    0.0442592  -0.00918373    0.0537445    0.0121344    -0.075533     -0.04587    0.0362934    0.0772661   -0.0744894   -0.0502546   -0.0567266   -0.0659991   -0.0721561    -0.059187     0.027743    0.0166795    0.0747298    -0.077504   -0.0267195   -0.0401096   -0.0111395   -0.0273925     0.011531   -0.0565453   -0.0531865   -0.0847261   -0.0187077    -0.046569  -0.00785152    0.0412613     -0.06671    0.0518784  -0.00331307   -0.0726868   0.00434539   -0.0701596   -0.0227104   -0.0561287   -0.0387168   -0.0748482   -0.0634763 -0.000332495    0.0725976  -0.00925341     0.029293   -0.0291712   -0.0206429   -0.0735551   -0.0750128    0.0519861    0.0615922    0.0863103   -0.0847069   -0.0529035   -0.0729814    0.0312873    0.0567402   -0.0594767   -0.0727694   -0.0672339    0.0461565    0.0134768   -0.0378944    0.0433938    0.0140715    0.0129303    0.0772305    0.0278229     0.022101    -0.014105    0.0478625    0.0155558   -0.0580865    0.0797195   0.00289688     0.038658    0.0830571    0.0679313    0.0310791    0.0669805   -0.0241504   -0.0152595    0.0452539   -0.0672832   -0.0458812    0.0423825    0.0635524   -0.0486919   -0.0196389    0.0333292   -0.0676967    0.0156849    0.0282986    -0.085308  -0.00992504   -0.0571157    0.0646321    0.0439415   -0.0003234    0.0286723    0.0519039   -0.0596517   -0.0229371    0.0867715    0.0150009    0.0239749    0.0354749    0.0566736    0.0604935    0.0647565    0.0581898    -0.069323   -0.0363424   -0.0805689   -0.0112928   -0.0815959    0.0387327     -0.04272     0.062867    -0.077245   -0.0365919   -0.0643966   -0.0316581   -0.0450175   -0.0199481     0.044417     0.076862    0.0633568    0.0153325    0.0835879   -0.0745597   0.00329688   -0.0618064    0.0357707    0.0462625   -0.0793173   -0.0623349   -0.0575921    0.0413185   -0.0853346       0.0825    -0.052003   -0.0543223  -0.00551035    0.0565847    0.0710159  -0.00225322   -0.0617007   0.00403793    0.0630105    0.0259761   0.00589125   -0.0342134    0.0564185    -0.052227   -0.0605387   -0.0596012   0.00659193   -0.0840318    0.0486457   -0.0752117    -0.054834    0.0332168    0.0215123   -0.0645164   -0.0484227   0.00106296   -0.0520617   -0.0180767   -0.0817132  -0.00472615    0.0716885    0.0261385   -0.0497681    0.0144374    0.0363752    0.0570471   -0.0352066    0.0289396    0.0384734   -0.0801954    0.0524204    0.0551423    0.0190411    0.0412232    0.0791682   -0.0628309    0.0649867     0.039307    0.0715254   -0.0276594   -0.0299771  -0.00419885   -0.0143774   -0.0594579    0.0227892    0.0783764    0.0282873 -0.000929443   -0.0602501 -0.000888274   0.00596621      0.04758    0.0463332    0.0704278   -0.0493454    0.0813817   -0.0431188    -0.044809   -0.0373776   -0.0832584    0.0447055    0.0330889   -0.0849178   -0.0111111   -0.0281202   -0.0745183    0.0580235    0.0431079   -0.0735493   -0.0126503   -0.0808199   -0.0470903   -0.0562642   -0.0745895    0.0599326  -0.00605587    0.0324677    0.0734776    -0.036444   -0.0400563   -0.0625581   -0.0492801    0.0593089    0.0313652   -0.0460243    0.0117169    0.0864328    0.0809314   0.00677011   -0.0121355   0.00488752   0.00830687   -0.0237306    0.0728692   -0.0293054   -0.0346877    -0.074604   -0.0329214   -0.0540741    0.0156553   -0.0656929    0.0553262   -0.0688769    0.0786733   -0.0795825    0.0844641    -0.054988   0.00843129    0.0116769   -0.0484869     0.046606    0.0570307   -0.0149316    -0.077373    0.0665646   -0.0127908    0.0622699   -0.0288954    0.0753803   -0.0487495   -0.0654342   -0.0276956   -0.0423024   0.00398502   -0.0693907   -0.0303561    0.0742651    0.0582848   0.00630798    0.0669192    0.0454006   0.00563984   -0.0419676    0.0588527  -0.00193076  0.000619286   -0.0638276    -0.025622    -0.058726    0.0823761    0.0329272   0.00594704    0.0484594    -0.065755   -0.0392349    0.0279459   -0.0334123   -0.0253964   -0.0159405   -0.0440769   -0.0534596   -0.0435256   -0.0516157   -0.0242737    0.0032313    0.0524206    -0.011554   -0.0299049     0.065498   -0.0593461   0.00352295    0.0288269    0.0226363   -0.0519181    0.0228124    0.0737992   -0.0283469   -0.0500987   -0.0832837   -0.0560019   -0.0330103   -0.0791336 -0.000561309   -0.0387748    0.0130424   -0.0487472   -0.0349124    -0.024804   -0.0132553   -0.0456862  -0.00870666  -0.00461438    0.0645335  -0.00701637   -0.0861935   -0.0531607    0.0484396   -0.0574343   -0.0669542   -0.0726118     0.081906  -0.00630673    0.0237441     -0.01087   -0.0435386   -0.0605566    0.0135753    0.0778658    0.0276314    0.0174422   -0.0433137    0.0849281   -0.0399794   -0.0617509    0.0529283   -0.0665041
   0.0662301    0.0542166   -0.0716815   -0.0188437    -0.066638    0.0407874   -0.0677872   -0.0706537     0.048617   -0.0608386   0.00303958    0.0757907   -0.0159376    0.0727763   -0.0868714   0.00719362    0.0514552    -0.012587    0.0466974  -0.00746397   -0.0152425   -0.0621569 -0.000476044    0.0281781   -0.0450779   -0.0834433   -0.0780883   -0.0776559   -0.0136526   -0.0704736    -0.034657    -0.063364    -0.049716    0.0328443    0.0654216   -0.0574009    0.0150321   -0.0170434   -0.0247666    -0.018222    0.0245567   0.00572478    0.0200928    0.0371585   -0.0020732   -0.0282411    0.0160637   -0.0172649   -0.0244531  -0.00999691    0.0474644   0.00372841   -0.0326208    0.0370803   -0.0612136    0.0614956    0.0292677    0.0309586     0.034611   -0.0339581    -0.028927     0.070753  0.000961031   -0.0802773   -0.0068696   -0.0607216    0.0207187   -0.0177279    0.0634129    0.0623931   -0.0443481   -0.0417075    -0.010268   -0.0596125   -0.0363441 -0.000691467    0.0603203   -0.0315732   -0.0480097     0.055733    0.0417398   0.00224689    0.0736311   -0.0532538   -0.0141654    0.0753251   -0.0705797    0.0284902    0.0230892    0.0599884   -0.0388145     0.085283    0.0327599    0.0711852    0.0653618    0.0539238    0.0535988   -0.0463983   -0.0293951    0.0236235   -0.0631058    0.0656496   -0.0437523   0.00414817   -0.0457611    0.0864031    0.0512809    0.0511024   -0.0448521   0.00767937   -0.0147417    0.0162709   -0.0248254    0.0742707    0.0456853    0.0593626    0.0480627    0.0820047   -0.0115744    0.0255195    0.0119562     0.062963  -0.00160341   -0.0678985    0.0598699     0.044264    0.0633804    0.0395249    0.0129331     -0.06885    0.0600661  -0.00210437    0.0441302    0.0219926    0.0699968   0.00995494    0.0291488    0.0610973    0.0591995   -0.0574089    0.0704968    0.0489377    0.0387997   -0.0807761   -0.0556951   -0.0810102   -0.0203431  -0.00747572   -0.0546671    0.0619705    0.0436274   -0.0272209    -0.058996    -0.051833   -0.0749701   -0.0266272   -0.0453214    -0.022842 -0.000715772     0.064288   0.00159578   0.00863638     -0.01916   -0.0729195   0.00938498    0.0128253   -0.0693782    0.0741109   -0.0474328   -0.0675712   -0.0704656   0.00136025    0.0403499    0.0406218   -0.0724481  9.53234e-05   -0.0817558   -0.0736634    0.0137881   -0.0562819   -0.0569902   -0.0395755    0.0847924   -0.0734522    0.0026286    0.0831448   -0.0631685    0.0772168    0.0394491   -0.0624246   -0.0797617   -0.0758397    0.0576754   -0.0310398   -0.0845649    0.0827023   -0.0378268   -0.0132137    0.0432872   -0.0653469    0.0290365    0.0747459   -0.0505225   -0.0577557  -0.00572029 -9.69047e-05   -0.0758947   -0.0124251    0.0208709   0.00620935   -0.0754815   -0.0510202    0.0628735   -0.0359417   -0.0308049     0.033903    0.0369542    0.0746539    0.0832826     0.048919   -0.0779316   -0.0178617    0.0206696    0.0166027    0.0360852    0.0774922   -0.0191124    0.0116907   -0.0274692   -0.0108189   -0.0775489   -0.0566209    0.0311119    0.0406333   -0.0726317    0.0820746   -0.0799532   -0.0540343    0.0238646   -0.0449639    0.0585402    0.0780685      0.06785    0.0713166    0.0786675   -0.0467766     0.021603    0.0100642   -0.0832825   -0.0143145    0.0223467  -0.00549116    0.0651224    0.0710663   -0.0450544    0.0508307     0.060131   -0.0190398    0.0166804   -0.0621229   -0.0537523   0.00295983   0.00782507   -0.0805566    0.0778618   0.00686507   -0.0542436   -0.0817812   0.00994552   -0.0230342   -0.0197282    0.0263806   -0.0378322    0.0523254    0.0830423    0.0865291    0.0350304    0.0216109   -0.0144934  -0.00810569    0.0444073   -0.0455658   -0.0485703    0.0536161   0.00460282   -0.0800272   -0.0824358    0.0497459    -0.015241    0.0315282   -0.0273082   -0.0354975    0.0388685  -0.00796753    0.0527531   -0.0353708   -0.0698969   -0.0730916   -0.0688688    0.0686141   -0.0724684   -0.0515763   -0.0567494   -0.0145692   -0.0470619   -0.0234259    -0.070946   -0.0210054   -0.0196233     0.086145     0.061432    0.0831118    0.0652364    -0.016856    -0.040631   0.00919544      0.06119    0.0191836     0.061013   -0.0236174    -0.072315   -0.0753828     0.047669    0.0812475   -0.0779938    0.0520553   -0.0496459  -0.00184045   0.00530527   -0.0488889    0.0214151   -0.0429412   -0.0444501   -0.0818968   -0.0664614   -0.0578644   -0.0211384  0.000156661   -0.0189994   -0.0866134    0.0770884   -0.0708418   -0.0418884   -0.0277682   -0.0068196    0.0600337   -0.0234847  -0.00376736   0.00110878    0.0550577    0.0512401   -0.0167977  -0.00812864   -0.0160166   -0.0862716   -0.0503566   -0.0536374  -0.00187816  -0.00955408   -0.0531705    -0.045651   -0.0728173   -0.0120541   -0.0237665   -0.0555058    0.0542772   0.00520972  -0.00612692    0.0799368     0.030285    0.0343629    0.0501977    0.0635296    0.0261754  -0.00447857   -0.0630056    -0.064599    0.0680409   0.00939013    0.0469925     0.037262    0.0793713   0.00565758   -0.0713278   -0.0324821    0.0686311    0.0759033    0.0538678    0.0161393    0.0825549   -0.0300648  -0.00957055    0.0436271   -0.0556285    0.0773019    -0.041728  -0.00253452    0.0146131    0.0813195    0.0612574   -0.0231855    0.0284547    0.0103763    -0.081904  -0.00815134    -0.059909    0.0127342    0.0530625   -0.0150677     0.046506    0.0781665   -0.0805904    0.0587629   -0.0337949    0.0532668    0.0798336   -0.0758627    0.0795266     0.065945    0.0252373   -0.0392535   -0.0189738   -0.0720635   0.00216714   -0.0796223  -0.00434197    0.0543909   0.00686436    0.0266667   -0.0080732    0.0422978  -0.00169792     0.070942   -0.0590018   -0.0487764    0.0082831   -0.0391114    0.0412296   -0.0328071    0.0460745    0.0616138     0.057296    0.0265862   -0.0280596    0.0315668   -0.0355115    0.0787485   -0.0103505   -0.0518829    0.0163174   -0.0381283   -0.0153271   -0.0496552   -0.0629409    0.0804049     0.086348    0.0239908   -0.0865411    -0.047714   -0.0831825     0.042202   -0.0862003   0.00203287   -0.0392724   -0.0852688   -0.0724223   -0.0743605  0.000493122     0.016478   -0.0853993    0.0278398   -0.0763462   -0.0567695    0.0703741    0.0786533  -0.00657828    0.0624245    0.0547584    0.0602924    0.0563428   -0.0184965   -0.0475004   -0.0350018   -0.0355533   -0.0378979  -0.00731927   -0.0665499    0.0746414    0.0236919    0.0256763   -0.0629366    0.0250621  0.000242771    0.0463963    0.0596343    0.0138001    -0.078704   0.00660754     0.079466   -0.0251059  -0.00130195    0.0706958   -0.0241532    -0.024477   -0.0506959   -0.0490023    -0.051432    0.0491346   -0.0293196   -0.0150489   0.00700233   -0.0203417  -0.00143396    -0.062578   -0.0656585    0.0201106    -0.029668    -0.031225   -0.0751872   -0.0533961    0.0761297     0.079878    0.0750898   -0.0864621   -0.0736739    0.0278255   -0.0780919  -0.00282409    0.0397036   -0.0193648    0.0569407   -0.0225734    0.0795718    0.0675767    0.0838799    0.0803458  -0.00202822   -0.0576572    0.0144995   -0.0522897   -0.0126695   -0.0472138   -0.0855919   -0.0714973    0.0564765     0.061095  -0.00344494    0.0546267   -0.0830074    0.0222059   -0.0400623   -0.0233555    0.0453968    0.0192236    0.0030505    0.0363106   -0.0651931   -0.0146937    0.0805167    -0.046247    0.0395467   -0.0535825   -0.0488455    0.0677199    0.0714109   -0.0757249    -0.071043    0.0641279    0.0131624    0.0710412     -0.04702     0.061671    0.0601945   -0.0386249    0.0632431   -0.0817515    0.0818345    0.0730914   -0.0736203    0.0687409   0.00709833   -0.0665961   -0.0714752    0.0120933    0.0749134   -0.0371166    0.0205305   0.00525213    0.0670054   0.00915979   -0.0245859    -0.057864     0.024475    0.0250689    -0.071231   -0.0148858   -0.0864251    0.0674393    0.0286686   0.00911044    0.0840655   0.00311039   -0.0749211   -0.0286633    0.0309618    0.0446581   -0.0635982   -0.0338078   -0.0250521   -0.0547325   0.00129122   -0.0830431    0.0786034    0.0432445    0.0106421    0.0679806    0.0574432   -0.0736391    0.0347826    0.0316042      0.04643   -0.0803562   -0.0207599    0.0755468   -0.0663085  -0.00679688    0.0233125    -0.031541    0.0018867   -0.0841573   -0.0531921    0.0127774    0.0594787   -0.0373884  -0.00376507    0.0362244 -9.66451e-05   -0.0437825    0.0478143    0.0587476   -0.0152681   -0.0773995   -0.0448084  0.000472554    0.0411472    0.0208727    0.0556706    -0.066672   -0.0516062    0.0153774    0.0176087    -0.069384   -0.0100877   -0.0721851    0.0517878    0.0429092    0.0182498    0.0501479   0.00278482    0.0314882    0.0867806   -0.0454623  -0.00218825  -0.00293605   0.00314211   -0.0422503    0.0604857  -0.00415412    0.0235892    0.0136163   -0.0225524   -0.0606923    0.0774064    0.0294859   -0.0661617    0.0403421   -0.0737492    0.0452532    -0.081535    0.0768715  -0.00178441    0.0784011   -0.0745507  -0.00674871    0.0378748   -0.0172059      0.05099    0.0216395     0.060163   -0.0428112    0.0170879   -0.0175869    0.0652531   -0.0375171   -0.0168336    0.0146939    0.0370666   -0.0601031   -0.0761401    0.0264497    0.0345125     0.068446    0.0488095   -0.0678567   -0.0675833   -0.0624791   0.00956578    0.0494456   -0.0378675   -0.0786343    0.0483207   -0.0135527    0.0306591    0.0474981    0.0860536   0.00186431    0.0748996    0.0829998  -0.00644003    0.0712331    0.0474069    0.0739174   -0.0319652    0.0403563    0.0614127    0.0530617   -0.0733725   -0.0458204   0.00423645   -0.0237678  -0.00018801   -0.0693683   -0.0519732    0.0078428   -0.0423241   0.00516264    0.0492384    0.0539276   0.00879888    0.0853528    0.0548603    0.0616521    0.0418928 -0.000396979   -0.0117214    0.0655894   -0.0662577    0.0726051    0.0625056    0.0207586    0.0396346    0.0741894    -0.037965   -0.0561775   0.00390435    0.0586964   -0.0626205   -0.0488241    0.0795068     -0.05643   0.00153374    -0.016495  -0.00902186   -0.0429499    0.0504223   -0.0319086    0.0153712     0.011762   -0.0275045   -0.0313902    0.0290221    0.0586339    -0.034076   -0.0811382    0.0770267   -0.0774707    0.0451047   -0.0786231    -0.060015    0.0398898    0.0773852   -0.0845455   -0.0848959    0.0198565
   0.0440821   -0.0445634     0.051301   -0.0531317   -0.0302235    0.0319172    0.0116668    -0.041397   -0.0151927    0.0620268   -0.0340342   -0.0100547    -0.048287    0.0307627   -0.0165561   -0.0685058   -0.0425818   -0.0703079   -0.0470652   -0.0143413    0.0681883   -0.0485151    0.0290693   -0.0729864   -0.0114328    0.0628489    0.0844929   -0.0102717   -0.0247873   -0.0479044   -0.0813091    0.0175721   -0.0414203   -0.0735546   -0.0741731    0.0112149    0.0311664    0.0159851   -0.0331453    0.0262675   -0.0549247 -0.000558025    -0.050898   -0.0212666   -0.0576673   -0.0662349     0.064302   -0.0568929   -0.0615445   -0.0562724     0.031764   -0.0493769    0.0295842    0.0148107   -0.0564008  -0.00053177    0.0770996    0.0516104   -0.0372469    0.0176766   -0.0777066     0.060796   -0.0160046   -0.0543496   -0.0318793   -0.0412734   -0.0260626    0.0303568    0.0526982    0.0199902   -0.0503489   -0.0421442    0.0682537   -0.0623857   -0.0144674    0.0504469   -0.0388207  -0.00381159 -0.000855361    0.0418994    0.0625578    0.0274383    0.0286338    0.0763402    0.0284088    0.0202096    0.0341182   -0.0191533    0.0693333   -0.0779523   -0.0707178     0.018319   -0.0534387   -0.0590016   -0.0237868  0.000103028   -0.0398742  -0.00985621    0.0423246    0.0575427    -0.062303    0.0820295   -0.0685187   -0.0424454    0.0813241    0.0738264   -0.0583014   -0.0250684    0.0865531    0.0708379    0.0419915   -0.0645466   0.00674944   -0.0339629    0.0448744    0.0206176   -0.0685513    0.0100472   -0.0243998   -0.0709531    0.0143919    0.0104242   -0.0716894  -0.00675354    0.0382866   -0.0593892    0.0714941   -0.0502766   -0.0799301    0.0751137    0.0552097    0.0612988    0.0297077    0.0187127   -0.0230721   -0.0602811      0.03681    -0.021578   -0.0822778   -0.0651376   -0.0677433   -0.0319747    0.0496376   -0.0768304   0.00703309   -0.0451405   -0.0739434     0.067998   -0.0536054    -0.023802   -0.0793992   -0.0806247   -0.0483541   -0.0693069    0.0291268   0.00683201    0.0758983    -0.050044     0.027373    0.0363989   -0.0487391 -0.000784313    0.0182154   -0.0212709   -0.0127436    0.0271339    0.0253842   -0.0650456   -0.0361692     0.025516   -0.0517284    0.0426915   -0.0436071   -0.0776801    0.0779858   -0.0425128   -0.0792825   -0.0348675   -0.0859192    0.0472412 -0.000230855  -0.00973731     0.012374  -0.00455872   -0.0410146    0.0232471    0.0093257   -0.0726389    0.0303945   -0.0515277    0.0345731   -0.0364303   0.00488946    0.0445885   -0.0748988    0.0335063    0.0161578   -0.0689422    0.0160024    0.0599501   0.00145476    0.0774305    0.0150937    0.0673037   0.00614848   -0.0625987    0.0253765   -0.0217957   -0.0218928   -0.0138279   -0.0780968    0.0220172    0.0128822    0.0307457    0.0406378  -0.00866419   -0.0580974    0.0276406   -0.0717389   -0.0163346    0.0524706  -0.00585227    0.0362896    0.0682486    0.0594853   -0.0101861   0.00291015    0.0225042  -0.00643509    0.0352015   -0.0282239    0.0266455  -0.00742161   -0.0180913   0.00283553   -0.0396958   0.00872594  -0.00170968   -0.0115936   -0.0689012  -0.00608003  -0.00278845    0.0437063    0.0859207    -0.050008   -0.0864019    0.0734361    0.0706403    -0.053299   -0.0842639    0.0739377   -0.0272779    0.0796984   -0.0375888    0.0576229     0.062506   -0.0424668   -0.0283442   -0.0583652   -0.0831731   -0.0739356  -0.00939644    0.0280661  -0.00515779      -0.0517    0.0736711      0.04057    0.0592841    0.0532084     0.075829    0.0275243   -0.0331914   -0.0854862    0.0620229     0.017728     0.084016   -0.0524281    0.0753386    0.0115801    0.0584714    0.0661527     0.072451  -0.00510744   -0.0636117   -0.0514129    0.0293547   -0.0108561    0.0261153   0.00378226    0.0670461   -0.0259709   -0.0743757    0.0441466    0.0750687   -0.0331043   -0.0371712    0.0381437    0.0807575    0.0755559   -0.0431291    0.0445143     0.055265    0.0389186    0.0443847   -0.0425317    0.0147084    0.0832482   -0.0225259    0.0571748    0.0492288    0.0654674   -0.0513061   -0.0125146   -0.0698142   -0.0126138  -0.00454844    0.0709567    0.0224646   -0.0833472    0.0132515   -0.0714154    0.0156591   -0.0604989    0.0711382   -0.0824045   -0.0367632    0.0170469    0.0177789    0.0593724   0.00219816    0.0521304    0.0478586   -0.0158076    0.0639278   -0.0179836   -0.0789792   -0.0842246   -0.0450676    0.0699213   -0.0216796  -0.00993547   0.00414825    -0.027019    -0.041762    -0.027392   -0.0813764   -0.0535251    0.0534943    0.0580265   -0.0585727   -0.0221441   -0.0529319   0.00289924   -0.0479604    0.0575339    0.0168493   -0.0596001   -0.0238098    0.0434621   -0.0696891   -0.0866408   -0.0599304   -0.0120334    0.0797643    -0.057579   -0.0826201    0.0477296    0.0350961   -0.0341697   -0.0691244    0.0570801    0.0785941   -0.0837729    0.0771167   -0.0703964   -0.0683685    0.0344273   -0.0603471    0.0240648   -0.0699816   -0.0553136    0.0827958    0.0836227    0.0205811    0.0698777   0.00897267    0.0710775   -0.0397939   -0.0705346   -0.0471573    0.0667283   -0.0603492   -0.0169137    0.0866546  -0.00582495   0.00648799    0.0703053    0.0281694   -0.0772962    -0.021835    0.0803509    -0.056829   -0.0392371   -0.0775382    0.0571965    0.0223141    0.0850492    0.0353964    0.0183748   -0.0217683    0.0567642   0.00445812    0.0495987    -0.027504     0.030966   -0.0448244   -0.0763079   -0.0725503    0.0403628  -0.00836163   -0.0247142   -0.0154442    0.0572145    0.0107922    0.0485645   -0.0672967    0.0711747   -0.0428269    -0.022517   -0.0480224    0.0493944   -0.0245662     0.031643   -0.0384711    0.0451745      0.08056   -0.0671524    0.0833468   -0.0829233   -0.0563809   -0.0106429    0.0307958    -0.075822    0.0481006   -0.0224336    0.0394611   -0.0630793   -0.0107206   0.00330414    0.0242905    0.0816697   -0.0300967    0.0198983   -0.0415807    0.0694983   -0.0484804   -0.0389205   -0.0371316  -0.00793833      0.03966    0.0346091    0.0570167    0.0121279    0.0256643   -0.0814954   0.00377245    0.0381581   -0.0611933    0.0806071    0.0507463   -0.0530119    0.0677374    -0.024806    0.0117532   0.00913913    0.0247618    0.0460711   -0.0866439    0.0090094     0.053625    0.0718252   -0.0649023   -0.0428946   -0.0671603   -0.0556936   -0.0388302    0.0249781    0.0316846     0.010678   -0.0790435   -0.0519625    0.0791378    0.0746792   0.00794318   0.00421948   -0.0104136    0.0482881    0.0809002  -0.00521957   -0.0726582    0.0702584   -0.0815015    0.0583117    0.0371258   -0.0404138   -0.0103509   -0.0344756   -0.0855217   -0.0251943   -0.0660588    0.0357631    0.0774078   -0.0678847    0.0384445   -0.0525268     0.031496   -0.0126299    0.0814735    0.0809111   -0.0846611   -0.0350089   -0.0615828   -0.0301855    0.0555256    0.0809709   -0.0227443    0.0111866    0.0436455    0.0129325   -0.0605335   -0.0425306   -0.0666496    0.0162162   -0.0801319   0.00224794   -0.0854458   -0.0271416   -0.0186619    0.0812748    0.0853483 -0.000487355   -0.0167512   -0.0489934     0.018842    0.0507304    0.0580142   0.00130726   -0.0262043   -0.0543482    0.0515777   -0.0725971    0.0314315     0.011161   -0.0296669    0.0227496   -0.0737848  -0.00509739  -0.00582713    0.0355063   0.00190659   -0.0197495     0.022078    0.0233983  -0.00117633   -0.0334092   -0.0794234  -0.00872358    0.0661175    0.0563525   0.00541385  -0.00494852    0.0274512    0.0722494   0.00692653    0.0357261    0.0415419    0.0449543    0.0576921   -0.0769932    0.0463925    0.0707527    0.0533068    0.0117339  -0.00731454    0.0134809    0.0275581    0.0689394   -0.0699798    0.0560497   -0.0730067    0.0515958     -0.07813   0.00955781    0.0216965    0.0851278   0.00171576    0.0654386    0.0721796   -0.0185857    0.0314024    0.0400243    -0.067488    0.0342223   -0.0608223    0.0753632   -0.0274183     0.030041    0.0144904    -0.006823    0.0284061    0.0419632  -0.00445678    0.0805845  -0.00477554   -0.0089981   -0.0201409    0.0299311    0.0844998     0.075672    0.0849652   -0.0254047   -0.0760535    0.0843136    0.0488159  -0.00954253   -0.0753234   -0.0615878    0.0397526    0.0155935    0.0761262   -0.0365287    0.0789781   -0.0294111    0.0208488     0.039045   -0.0429485    0.0439431    0.0784592   -0.0612118      0.01468   0.00906014   -0.0274462   -0.0422127    0.0742458   -0.0661211   -0.0224244  -0.00532242    0.0291373    0.0193821   -0.0599963    -0.035833   0.00478695    0.0672437     0.059746   -0.0288659   0.00550992    0.0358223   -0.0700494    0.0403947     -0.00851   -0.0800332    0.0804859   -0.0762475    0.0606158    0.0426327   -0.0594754   -0.0736294     0.073683     0.048254    0.0151575   0.00721326   -0.0461436   -0.0809719    0.0123142   0.00187665    0.0278962   -0.0501601   -0.0653973   -0.0384019    0.0726369   -0.0676844   -0.0737996   -0.0184982    0.0571045    0.0393851   0.00522979    0.0378047    0.0310232   -0.0688983   -0.0027861   -0.0791808     0.031599   -0.0631365    0.0648354     0.030119    0.0160869    0.0423808   -0.0250801   -0.0747089    0.0678458    0.0312819    0.0299852   -0.0280042    0.0822615   -0.0289761   -0.0392146    0.0152453    0.0711179   -0.0300228    0.0343184    0.0383179    0.0606391   -0.0550593   -0.0119112   -0.0646193    0.0196392   -0.0763939    0.0202313   -0.0436382    0.0176335    0.0672901    0.0759465   -0.0511779   -0.0532009  -0.00222551   -0.0547597   -0.0308763   -0.0144578    0.0100782    0.0460131    0.0049551    0.0509047   -0.0509597   -0.0813752    -0.062719   -0.0582002     0.076178    0.0370523    0.0787451  -0.00252181  0.000976057  -0.00476281  -0.00441207   -0.0542573   -0.0312675   0.00677604   -0.0389588   -0.0319523   -0.0145575    0.0291427      0.03059   -0.0493453  -0.00601193   -0.0605392     0.057143    0.0015213   -0.0376866   0.00836865     0.018277   -0.0488945    0.0383407    0.0306163   -0.0567873    0.0787537   0.00941652  -0.00459065    0.0738741   -0.0151688   -0.0434466    0.0611631   -0.0339304   -0.0493581    0.0279846    0.0252516   -0.0528338   -0.0502577    0.0316229   0.00897958   -0.0325169   -0.0171769   -0.0368485    0.0680021    0.0541538     0.040439
   -0.075924     0.010839    -0.026891    0.0128678   -0.0443834    0.0298552    0.0685412  -0.00532961    0.0645634   -0.0214309    0.0682742    0.0821348   0.00253514    0.0363768    0.0679797    0.0799375   -0.0279986   -0.0507919   -0.0443662    0.0494758   -0.0167793   -0.0160182    0.0456633   -0.0399016   0.00912061   -0.0556309    0.0674001   -0.0381771    0.0425519    0.0321757    0.0622902   -0.0811834    0.0361884    -0.053195   -0.0618388    0.0583271    0.0610293    0.0310594    0.0718154   -0.0696583   -0.0748458   -0.0467317     0.083491    0.0683087    0.0808189    0.0184606   -0.0771331   -0.0611788  -0.00588071    0.0231946    0.0524517   -0.0442971   -0.0668731   -0.0118159   -0.0455815   0.00705306    0.0271551    0.0682846    0.0517707     -0.01049   -0.0697834  -0.00103348   -0.0387265   -0.0341447    0.0866206    0.0718475    0.0704524    -0.062387    0.0217109   -0.0288128   -0.0764949    0.0714709    0.0382624   -0.0386735   -0.0697139   -0.0852519    0.0237659   -0.0344566    0.0417359   0.00848414    0.0472599  -0.00403532     0.037131    -0.064796   -0.0608978   -0.0461259   -0.0806309   -0.0025529    0.0186466   -0.0596192   -0.0409483  -0.00119919   -0.0750247   -0.0415689  -0.00599084  -0.00565091  -0.00587003    0.0436377   -0.0570011    0.0343475   -0.0503653   -0.0466026    0.0448346   -0.0504819    0.0670524    0.0339452   -0.0538426    0.0658436   0.00257627    0.0294188    0.0806746   -0.0624661   0.00420987     0.054515   -0.0573875   -0.0607652   -0.0713123    0.0271219 -0.000274349     0.079702    0.0474532   -0.0340791   -0.0785759    0.0621813    0.0373871   -0.0431671    0.0433586    0.0805655    0.0305282     0.073763   -0.0439345   -0.0561076     -0.03739   -0.0730359    0.0812233    0.0420428    0.0105674   -0.0214266    0.0462174   -0.0863762   -0.0249806    0.0556971     0.029684   -0.0511441   -0.0161274   -0.0182919     0.011035   -0.0859956    0.0107555    0.0333958    0.0630208    0.0230555   -0.0824732   -0.0645827   -0.0773582   -0.0542351    0.0315874    0.0551518   -0.0673831    0.0455485   0.00579472   -0.0637838     0.047277    0.0594021   -0.0681861   -0.0455337    0.0339749    0.0812605    0.0417504    0.0745174    0.0289288     0.039174   -0.0331239   -0.0355564  -0.00129317    0.0430457    -0.084118    0.0373345    0.0645044   -0.0476753    0.0830063    0.0722643    0.0836508    0.0386072    0.0392108   -0.0150261    0.0308525    0.0198721    0.0696106   -0.0852207    -0.068634   -0.0449113    0.0634688     0.049178    0.0737883    -0.053435    0.0355491   -0.0734474   -0.0704412   -0.0452172   -0.0117915   -0.0365439   -0.0698011     0.032211   -0.0719703   -0.0858333    0.0443541   -0.0586654    0.0354237   0.00878007    -0.076407    0.0738992   -0.0621213   -0.0505228    0.0561906   -0.0133997   0.00546558    -0.042847     0.040927   -0.0841588   -0.0174225   -0.0204216   -0.0283618   -0.0254345     0.047305    -0.016016   -0.0836308   -0.0797708  -0.00689954   0.00820206    0.0409943    -0.069451    0.0701662    -0.056594   -0.0589669     0.007228    0.0185588   -0.0747747   -0.0823141   0.00844706    0.0135069   -0.0650638    0.0671323    0.0118173  -0.00865514   -0.0705013   -0.0498388    0.0397012    0.0647022   -0.0149916    0.0101305   0.00080796   0.00131138    -0.059022   -0.0565106   -0.0486199   -0.0274522    -0.068467    0.0146496  -0.00947111    0.0651178   -0.0621671  -0.00538327    0.0445233   0.00955983    0.0787513  -0.00654452    0.0781924    0.0821822   -0.0534824   -0.0281931   -0.0479303    0.0561762    0.0446131   -0.0798544   -0.0239331    0.0324435   -0.0590852    0.0643911    0.0142641   -0.0181081    0.0477896   -0.0464235    0.0820925   0.00158267    0.0741522    0.0450756   -0.0121732    0.0821905    0.0850208   -0.0797308     -0.05541    0.0240123    0.0391061  -0.00415794    0.0262655  -0.00824298    0.0683012    0.0470281    0.0862863   -0.0727141   -0.0303569   -0.0226151   -0.0782339    0.0223775   -0.0473291   0.00586558    -0.035573   -0.0735332  -0.00523965    0.0219918   -0.0239844    0.0327834    0.0677293   -0.0652758   -0.0712852    0.0818152    0.0303228  -0.00743256    -0.069156   -0.0601974    0.0356108   -0.0757212    0.0856278   -0.0744148   -0.0612209   -0.0675099    0.0113692   -0.0677403   -0.0375003    0.0395832    0.0747754   -0.0535969   -0.0809776   0.00924363   -0.0282547   -0.0732076   -0.0454085    0.0381873   -0.0702442   -0.0277345    0.0338755   0.00448824   -0.0703543    0.0410037   -0.0858843    0.0136273   0.00479939    0.0450867    0.0428354    0.0166374    0.0283391    0.0528543   -0.0417819    0.0166452    0.0387268    0.0252107    0.0232924    0.0437946    -0.074016   -0.0621066    0.0104611   -0.0541756     0.036258  -0.00301931    0.0846293     0.048868    0.0470647    0.0255369    0.0448593   -0.0147501     0.059472    0.0669397    0.0635293   -0.0803602   -0.0492967   -0.0766408    0.0237839    0.0109564  -0.00295869    0.0304119  -0.00852059     0.045714   -0.0313491   -0.0213393     0.071252    0.0076704    0.0177165   0.00766837  -0.00843955    -0.023353    0.0435589    0.0266002    0.0755751   -0.0353338  -0.00978553   -0.0700907    0.0311888    -0.034872   -0.0617581   -0.0351468   -0.0788258    0.0800752   -0.0148703  -0.00831948  -0.00310814   -0.0366267    0.0232844   -0.0358102   -0.0719611   0.00749682    0.0100525    0.0355157   -0.0286656   -0.0146162   -0.0422164    -0.067681   -0.0452518   -0.0159901   -0.0408357   -0.0333245    0.0535942    0.0251396   -0.0309911   -0.0742796   -0.0110662   -0.0344446   -0.0741354    0.0195987   -0.0251581    0.0776667  0.000720005   -0.0628312    0.0858627   0.00450153   -0.0192105   -0.0864766    0.0753989   -0.0463094    -0.073943    0.0126154    0.0142794    0.0443168   -0.0493208   -0.0213829    0.0682863    0.0455522   -0.0391223   -0.0289882    0.0377815    0.0641366    0.0660323    0.0813582    0.0369378   -0.0129893    -0.029755   -0.0350446   -0.0568654    0.0754035     0.011428  -0.00454396    0.0280106    0.0673141    0.0609743   -0.0308635    0.0823698    0.0780831   -0.0159885    -0.073587   -0.0515295   -0.0216837   -0.0519505   -0.0842623    0.0311461  -0.00981527     0.046144   -0.0301176   -0.0526219   -0.0710815    0.0263485   -0.0479709    0.0562714    0.0530473    0.0188606   -0.0151942    0.0142799    -0.084751   -0.0472646   -0.0540738    0.0563908     0.046016    0.0370936   0.00596792    0.0187786   -0.0468863   -0.0687972   -0.0678869   -0.0542448    0.0242148   -0.0579432    0.0524358    0.0748829   -0.0347944    0.0441492   -0.0237301    0.0185782    0.0350341    0.0335052    0.0456622   0.00985238    0.0489582    0.0659215    0.0638632   -0.0762236     0.024668    0.0234573   -0.0574078  -0.00283879  -0.00424716    0.0599698    0.0813616   -0.0533117   -0.0155761   -0.0485645   -0.0528192    0.0291681    0.0396078  -0.00163642   -0.0819209    0.0490406    0.0614318   -0.0847075    0.0719308   -0.0172258   -0.0178026   -0.0220777   -0.0341697    0.0788884       0.0385    0.0445544    0.0262426    0.0641234   -0.0557682    0.0714564    0.0393472   -0.0206028   -0.0845396   -0.0175171    0.0562671   -0.0661925   -0.0793858    0.0442013   -0.0743472    0.0475821    0.0541078   -0.0709106   -0.0662589    0.0793992   -0.0764213    0.0439885   -0.0718723   -0.0275128    0.0342845   -0.0826544   -0.0367676   -0.0496329   -0.0349722   -0.0602505    -0.066983   -0.0164243    0.0288968    0.0614352    0.0845981     0.057157   -0.0800567   0.00363683   -0.0822699   -0.0577234  -0.00379754    0.0234563   -0.0742732   -0.0421894    0.0426898  -0.00524214    0.0267828   -0.0235919    0.0428438   -0.0151905     -0.01579   -0.0782727   -0.0867142   -0.0548662    0.0435147   -0.0684016   0.00476939    0.0426305    0.0552158    0.0655231   -0.0669166  -0.00136445    0.0394511   -0.0508241   -0.0672216   -0.0620823    0.0447266   -0.0185413    0.0272379     0.031445   0.00284881    0.0641384    0.0278434    0.0348478    -0.041832    0.0154758   -0.0579408   -0.0746168    0.0322841    0.0443355  0.000419207    0.0556977   -0.0292541   -0.0178817     0.070406   -0.0469423     0.029569    0.0416019   -0.0834019    0.0603698   -0.0819836    0.0719883   -0.0338447  -0.00364183   -0.0862374   -0.0231597    0.0855063   -0.0164929   -0.0318433    0.0154889    0.0569047    0.0246599    0.0708962   -0.0672863    -0.076808    0.0796826   -0.0267166   -0.0157105   -0.0591603    0.0182872    0.0700541    0.0767927  -0.00614347   0.00346843   0.00861205    0.0848947   0.00168073    0.0165575   -0.0618392    0.0558997    0.0857279   -0.0847379   -0.0849671   -0.0675426    0.0615031    0.0129343    0.0244585      0.07545    0.0226866 -0.000616078   -0.0546117     0.023943   -0.0362348  -0.00546251    0.0645443    0.0343687    0.0135435    0.0625175    0.0355324    0.0774003   -0.0497467    0.0187817     -0.01056   -0.0109661   -0.0747964   -0.0139112    0.0206796    0.0317585   -0.0788281     0.028006  -0.00083341   -0.0112166   0.00418914   -0.0133463    0.0645418    0.0665372   -0.0826931   -0.0406061   0.00716484   -0.0209741  -0.00365126    0.0629064   -0.0610907     0.066881    0.0448801   -0.0707897     0.037576   -0.0551109    0.0320904    0.0500067    0.0455899   -0.0567359   -0.0271022   -0.0761181    0.0110841    0.0580421   -0.0193337    0.0661504   -0.0864024   -0.0079041   0.00615478   -0.0401467    0.0489958   -0.0850645   -0.0669441    0.0408328    0.0138149    0.0349933   -0.0759716   -0.0597682    0.0480887    0.0237976   -0.0701669    0.0467615    0.0697412   0.00136939    -0.070063    0.0299144    0.0130482  -0.00150274    0.0284162    0.0399216    0.0374671    0.0509296    0.0103621   -0.0405546   -0.0381792  -0.00113087   -0.0419476   -0.0713146    0.0477405   -0.0386632     0.075068   -0.0664968   -0.0298081   -0.0827724    0.0366694   -0.0771615    0.0195851    -0.034543   -0.0621761    0.0857501    0.0568463  0.000170544   -0.0225922    0.0103704     0.061704    0.0784979   0.00521769    0.0730111   -0.0265113   -0.0552446     0.072742   -0.0620703    0.0101054    -0.055283    0.0398671   -0.0239278   -0.0565484   0.00206239  1.72509e-06    0.0293123   0.00742509   -0.0640429    0.0608751    0.0867869
  -0.0331765   -0.0622245    0.0221032    0.0184675    0.0856417    0.0728191    0.0228358   -0.0039586    -0.079861   -0.0139506    0.0358994   -0.0166359   -0.0511368     0.047816   0.00799866    0.0303599   -0.0738574    0.0354327  -0.00520249    0.0151305     -0.03044    0.0555488   -0.0844017    0.0705069   -0.0593982    0.0200439    0.0421399   -0.0476991    0.0378515    0.0256718    0.0478922  -0.00828676   -0.0164638    0.0465243    0.0186879    0.0318905    0.0129815   -0.0346752   -0.0608356    0.0621761   0.00100491   -0.0472847   -0.0383138    0.0675022   -0.0806663   -0.0507698   -0.0819742    0.0182182    0.0504364    0.0166149   -0.0231944   -0.0427437    0.0809775    0.0803309   -0.0629977    0.0419036   -0.0864927    0.0582745    0.0670884   -0.0541592    0.0181883   -0.0554911    0.0392699   -0.0659672   -0.0730148    0.0098097    0.0717513    0.0175621   -0.0704448   -0.0675235   -0.0600381    0.0481956    0.0589374   -0.0731549   -0.0248381   -0.0124224   0.00918416   -0.0214252   -0.0380548   -0.0766309    0.0710739    0.0258561   -0.0804951   -0.0420777    0.0671967   -0.0226011   -0.0269186   -0.0291311    0.0862518  -0.00217916   -0.0142568    0.0237948   -0.0777659    -0.050835    0.0492844    0.0153249    0.0672168   -0.0451315    0.0167945    0.0149239   -0.0063084   -0.0232305    0.0527192   -0.0680874   0.00214473    0.0588438    0.0845937    0.0768126   0.00496695    0.0831556    0.0818524   -0.0452879    0.0642595   -0.0206493    0.0868689   -0.0118129   -0.0303706  -0.00364365    0.0518984    0.0129087    0.0608203     0.065409   -0.0563939   -0.0358726    0.0268126    0.0631783   -0.0147966  -0.00397469     -0.06665    0.0559161   -0.0563389   -0.0419298    0.0812224   -0.0131514    0.0588886   -0.0634883   -0.0182218   -0.0174344   0.00469171   -0.0254332    0.0282911    0.0402894   -0.0326454    0.0692296   -0.0824168    0.0251147   -0.0432685    0.0668581   -0.0666092   -0.0690235   0.00217275  -0.00963222   -0.0227478   0.00383512     0.015837    0.0774219    0.0392851   -0.0529885   -0.0221615    0.0387479    0.0846328    0.0359973   -0.0648089    0.0588879   -0.0203667    0.0240817   -0.0175437   -0.0392514    0.0576443    0.0691667    0.0280018   -0.0183611   -0.0460255   -0.0603617  -0.00157195    0.0302271   -0.0181234  -0.00696299   -0.0734493    0.0252091    -0.035078    0.0617056   -0.0697806    0.0789287    0.0514298    -0.015323  -0.00675982   -0.0266797    0.0546489    0.0330818   0.00890661   -0.0428339    0.0747192   -0.0831501    0.0288673  -0.00138193    0.0340775   -0.0436132   0.00174743   -0.0154213    0.0504642   -0.0790577   -0.0563011   -0.0718686   -0.0358763   -0.0455977    0.0177455    0.0781477 -5.81703e-05    0.0491934   0.00142619   -0.0804544    0.0716553    0.0579027    0.0510883    0.0577692    0.0531534   -0.0298599   -0.0306304   -0.0496089    0.0414634    0.0125195   -0.0661013    0.0410027   -0.0513332    0.0593067    0.0797759   -0.0713312   -0.0151914   -0.0608477   -0.0427514    0.0500214  -0.00218514    0.0536876   -0.0241157    0.0572137    0.0847241    0.0509528   -0.0695223     0.032123    0.0827535    0.0768583   -0.0153496   -0.0237714   -0.0819491     0.077262   -0.0515602   -0.0506788    0.0454189    0.0550821   -0.0277819   -0.0101747   -0.0509596   -0.0771736    0.0286292  -0.00260263   -0.0120979    0.0709158    -0.042606     0.050666    0.0407415   -0.0693709    0.0686789     0.086612   -0.0619059    0.0152812   -0.0779054   -0.0648716   -0.0173716    0.0213809    0.0478272    0.0863482    0.0499606    -0.053452    0.0286297   -0.0682222     0.058489   -0.0554968   -0.0820633   -0.0124367    0.0675008   -0.0310825    0.0321776    0.0832078    0.0552511    0.0374636   -0.0311477    -0.080033      0.03063    0.0134217    0.0736046    0.0694531   -0.0419569    0.0195864   -0.0582726    0.0159453   -0.0863671   0.00182437   -0.0571193   0.00912495    -0.018259    0.0779523   -0.0533945    0.0287143    0.0630441    0.0119137   -0.0522729    0.0331688    0.0647645   -0.0222283   0.00758847   -0.0595861    0.0107049    0.0477925    -0.011522    0.0256101   -0.0248174   -0.0632787   0.00883654    -0.021394    0.0319774   -0.0263516   -0.0775043    0.0544239     0.023501    0.0156584   -0.0626434   -0.0773749    0.0504473    0.0181242    0.0778399   -0.0566276   -0.0733201    0.0713048     0.067886   -0.0618277  -0.00772584     0.071789   0.00943963   -0.0501598   -0.0856519   -0.0807036   -0.0567109   -0.0508982   -0.0521547    0.0553651   -0.0490974    0.0860314   -0.0346618   -0.0217596   -0.0211048    0.0430494   -0.0294853    0.0577852   -0.0721343   -0.0613152    0.0609454  -0.00213209    0.0836676   -0.0483162   -0.0293525   -0.0479147   -0.0603702   -0.0726152    0.0861598    0.0640133    0.0264033   -0.0624164    0.0207606    0.0746585   -0.0398306   -0.0501878    0.0713638    -0.037921    0.0504358    0.0183388    -0.083134   -0.0586899    0.0679127   -0.0553635    0.0713898    0.0164553   -0.0799569   -0.0549153    0.0081224    0.0488205    0.0630677   -0.0272483   -0.0561985    0.0250908    0.0255959   -0.0480741    0.0192834    0.0227005   -0.0486213    0.0819163    0.0609465   -0.0393603    0.0239957   -0.0777031    0.0106264    0.0166911    0.0147343   -0.0448026    0.0117297    0.0841539    0.0423324    0.0770036  -0.00506461    0.0341271   0.00622738   -0.0603826    0.0263775   -0.0742647    0.0492314   -0.0059581  -0.00548253   -0.0446218   -0.0505203    0.0560061  -0.00750244    0.0139465    0.0208006   0.00725402     0.013817    0.0319895    0.0209376   -0.0534631    0.0145433    0.0302786    0.0669528   -0.0362385    0.0332342    0.0183779   -0.0523548    0.0461568     0.021842    0.0474131    0.0612889   -0.0230998    0.0417809   -0.0700626   0.00762485     0.068736   -0.0699378   -0.0231401   -0.0114659   -0.0149949  -0.00625762   -0.0615273    0.0107324   -0.0495637    0.0363995    0.0633233  -0.00662374    -0.061612  -0.00865706  -0.00451644    0.0258556   -0.0246949   -0.0254949    0.0803576    0.0721306   -0.0712746    0.0556194   -0.0330046   0.00604554    0.0614428     0.023573    0.0797745    -0.018422   -0.0600467   0.00772074   0.00598653    0.0286313    0.0864636   -0.0620945     0.021951    0.0149182    0.0859904   -0.0140427  -0.00541998   -0.0742534    0.0696757    0.0836095   0.00233601   -0.0752727    0.0282991    0.0671341    0.0327609   0.00488243    0.0309898    0.0481005   -0.0777538   -0.0235912   -0.0140509    0.0507503   -0.0829615   -0.0194725    0.0173003    -0.059824 -4.60164e-05    0.0593122   -0.0361137    0.0186541    -0.070285     0.014537    0.0796801   -0.0734303  -0.00225326    0.0417388   -0.0802982   -0.0843033     -0.01487    0.0636157    -0.081958    0.0823791   -0.0126731   -0.0414851   -0.0300951    0.0323698    -0.067065   -0.0232844   -0.0778222    0.0390819   -0.0268056   -0.0708568   -0.0504769   -0.0345935    0.0758656   -0.0709339   -0.0451767     0.062664    0.0587833   -0.0537774   -0.0389414    0.0786204    0.0758563   0.00985336    0.0722325    0.0520249    0.0601339   -0.0184357    0.0459131   -0.0640823    0.0637997   -0.0825485   -0.0449361     0.039252   -0.0495241    0.0509955    0.0829669   0.00761762   -0.0158632    0.0437181    0.0270467    0.0419326  0.000331709    0.0766617    0.0671689    0.0630554   -0.0699326    0.0868198    0.0549169   -0.0171809   -0.0186053   -0.0175978    0.0654067   0.00368923    0.0510625   -0.0553856   -0.0113215     0.076076  -0.00149153   -0.0696212   -0.0406451   -0.0271632    0.0321947   -0.0116715   0.00238825  -0.00927376   -0.0624663    0.0321876   0.00332252    0.0634514   -0.0158037   -0.0174558     0.062558    0.0545291    0.0815391  -0.00750471   -0.0195043   -0.0850648  -0.00747745    0.0404219   -0.0634865    0.0705436   -0.0105759    0.0698782    0.0556078   -0.0147323    0.0727614    0.0453204    0.0557452   0.00284538    0.0757407   -0.0186164    0.0699902    0.0497781   -0.0208485    0.0681869    0.0535644    0.0793644    0.0231738  0.000965159    0.0348501   -0.0758145   -0.0552355    0.0809008   -0.0746458    0.0402602  -0.00723404    0.0816789   -0.0295211   -0.0860083   -0.0606043    0.0187497   -0.0706903    0.0847238   -0.0411399    0.0587743   -0.0394523    0.0637287    0.0838058   -0.0498629   -0.0450162      0.03339   -0.0755555    0.0561201    0.0851034    0.0193073    0.0632449   -0.0247558    0.0390479     0.077315    0.0835535   -0.0475764   -0.0664162    0.0524295    -0.033221    0.0653808     0.042426   -0.0215883    0.0107574    0.0755945    0.0483743   -0.0742585  -0.00835487    0.0259026 -1.23878e-05    0.0818498    0.0849197    0.0105379   0.00787883   -0.0304569   -0.0299582    0.0562474    0.0228803   -0.0866008   -0.0545412    -0.037743    0.0587162     0.067291   -0.0173143    0.0744812   -0.0460012     0.064885    0.0559852  0.000158858     0.036482   0.00964496   -0.0523392    0.0607198   -0.0114878   -0.0666873    0.0578523    0.0820909    0.0135377   -0.0749148    0.0522966   -0.0118153   -0.0744274    0.0156737   -0.0531864   0.00778203   0.00570585  -0.00835071    0.0403248    0.0818818   -0.0208553   -0.0765311    0.0555948   -0.0405702    0.0613756   -0.0164416    0.0753074    0.0603453    0.0550576   -0.0726117   -0.0460494    0.0476914    0.0361507     0.037894    0.0744624    0.0535478    0.0229981    0.0317243 -0.000977678   -0.0354708   -0.0125749   -0.0533072  -0.00817373    0.0408605   -0.0128049    0.0706489   -0.0714213   0.00292547   -0.0155681    0.0674664   -0.0135003  -0.00901971    0.0077885    0.0812696    0.0563493   -0.0589348    0.0157905     0.024221    0.0256154   0.00899188   -0.0416297   -0.0179496   -0.0602254   -0.0411951   -0.0300546   -0.0387976    0.0497725   -0.0247897   -0.0824282   -0.0143736    0.0742036    0.0828206   -0.0176905   0.00192197    0.0744753    0.0383318   -0.0187476    -0.016583   -0.0703839    0.0304165   -0.0688613    0.0379131   -0.0597605   -0.0742485   -0.0385647   -0.0437088    0.0419607   -0.0463292    0.0316364    0.0843699    0.0163268   -0.0207069    0.0534658   -0.0467771    0.0664695    0.0245282    0.0189575    0.0282997     0.048237    0.0365199     0.082627    0.0580959   -0.0437745   -0.0791424   -0.0767987
  -0.0315608    0.0692542  -0.00575051    0.0543771   0.00118924    0.0271759     0.073636    0.0170059  0.000204276    0.0799099   -0.0402644    0.0476133     0.021878   0.00734114    0.0809554   -0.0424616    0.0803326   -0.0759605   -0.0699272    0.0705072   -0.0286343   -0.0226695   -0.0301552   -0.0386542    0.0459201   -0.0242858   -0.0712686   -0.0190447    0.0388098    0.0717114    0.0128591   -0.0611263   -0.0434662   -0.0572417    0.0502099   -0.0630676   -0.0297946    0.0530626   -0.0699266    0.0166749    0.0376151   -0.0257175    0.0102305 -0.000988309   -0.0424202   -0.0580629    0.0674434   0.00899526   -0.0532617  0.000585791  -0.00633635    0.0593584   0.00940596    0.0359998   -0.0444094  -0.00876829  -0.00724709    0.0809362    0.0159987    0.0400456   -0.0816958   -0.0398156   -0.0601025   -0.0123338    0.0240158   -0.0436716    -0.053619   -0.0840238    0.0323506    0.0146406    0.0491224   -0.0858712    0.0664852    0.0320709    0.0678295     0.014763   -0.0161958     -0.01307    0.0400002   -0.0509531   -0.0119071    0.0542577    0.0239275    0.0083511   0.00042663   -0.0389452    0.0079888   -0.0399297   -0.0549708   -0.0728804    0.0292415    0.0461596   -0.0615198    0.0790016   -0.0662763    0.0437599    0.0125366    -0.035959    0.0858422   -0.0101065  -0.00900813     0.017576   0.00414092     0.016976    0.0397666    0.0307398    0.0327281   -0.0620698   0.00703508   -0.0243295   0.00198362   -0.0246034    0.0498395   -0.0714367   -0.0250064   -0.0785207    0.0309303   -0.0539354    0.0516117    -0.068595    0.0420053   -0.0302731    0.0111253   -0.0381841   -0.0379458    0.0746238    0.0779544    0.0675004    0.0191827   -0.0282476    0.0598622   -0.0541928   -0.0332465     0.038797    0.0227525    0.0752414    0.0483056   -0.0647852   0.00115264   -0.0278246    0.0108243  -0.00227365    0.0589933   -0.0290576   -0.0347174   -0.0364181   0.00507526   -0.0829357   -0.0610642     0.059028   -0.0150653   -0.0354592   -0.0384395   -0.0282594   -0.0396894    0.0188174   -0.0441666   -0.0652314   -0.0712702   -0.0706525   -0.0533495   -0.0269092    -0.078736    0.0296419     0.083391   -0.0135887    0.0785056   -0.0639314    0.0813958    -0.056185   -0.0544645   -0.0198173   -0.0400204    0.0144717    0.0567527   -0.0568507   0.00307014   -0.0458523   -0.0230646   -0.0285186   -0.0301573   -0.0560089   -0.0656412   -0.0572369   -0.0730376  -0.00459675    -0.057067    0.0267385    0.0193891    0.0774186    0.0251091    0.0511741   -0.0632763      0.01024    0.0507591   -0.0837381   -0.0325722    0.0805586   0.00276599    0.0826304    0.0280387   0.00695471    0.0760556    0.0599916   -0.0481872    0.0761226    0.0461904   -0.0503624    0.0516692    0.0221468    0.0557407    0.0666377   -0.0533427    0.0559735   -0.0614239    0.0139322   0.00930779    0.0674346   0.00146936    0.0121755   -0.0634973   -0.0387656   -0.0760655     0.063717    0.0511373   -0.0236895    0.0140825    0.0402803  -0.00634407   -0.0447854   -0.0492968   -0.0608453   -0.0520328  -0.00913505    0.0619566   -0.0175552    -0.026526   -0.0558718    0.0256045    0.0753145   -0.0400101    0.0345475   -0.0368559  -0.00831417   -0.0170981   -0.0122366    0.0391327    0.0529608    0.0580495    0.0504476   -0.0230345   -0.0855458   -0.0423477    0.0433738   -0.0128396   -0.0695562   -0.0089345    0.0815131    0.0162605    0.0334464    0.0847978    -0.040274   -0.0818941    0.0395456     0.034842   -0.0279637    0.0213644    0.0825857    -0.052596   -0.0151733    0.0571009   0.00943422    0.0561883    0.0099356    0.0542397   -0.0354942   -0.0716898   -0.0863962   -0.0831523    0.0399983   -0.0160004   -0.0214742    0.0445826    0.0356478    0.0440766    0.0467703   -0.0215985    0.0845485   -0.0329633    0.0464765   -0.0630131    0.0250462   -0.0586798   -0.0761067   0.00884271   -0.0736487   0.00740544   0.00288073   -0.0253241    0.0307942    0.0796995    0.0368962    0.0260247   -0.0621811    0.0531444   -0.0839657   -0.0823848   -0.0521451   -0.0582363   -0.0140455     0.033572    0.0424388     0.056115   -0.0753708    0.0366948   -0.0592553   -0.0324406   -0.0596566    0.0508227    0.0456521    0.0539554   -0.0724272   -0.0678173    0.0252482   -0.0777479   -0.0265364   -0.0403127   -0.0661361     0.018244   -0.0774909   0.00509315   -0.0292137    0.0863648    0.0251176    0.0407454    0.0530187   0.00740669    0.0515334    0.0414572  -0.00915271   -0.0162622    0.0487239   -0.0863755    0.0701837   -0.0751656   -0.0707928   -0.0658639    0.0290939    0.0228863   -0.0295495   -0.0353466    0.0394955    0.0815665    0.0515759    0.0500474   -0.0855093    0.0820273   -0.0161278    0.0516454    0.0811638   -0.0829403    0.0314013    0.0261418   -0.0456429  0.000383998    0.0696111   -0.0704235    0.0417476  -0.00923712   -0.0374992  -0.00684239  -0.00395335   -0.0813051    0.0836778    0.0254237    0.0234659   -0.0109185    0.0798073  -0.00762915  -0.00232044    0.0211209    0.0819334    0.0560685     0.044367    0.0022232   -0.0326144    0.0595496   -0.0172794   -0.0198429   -0.0805965  -0.00626879    0.0269853    0.0281983    0.0524014  -0.00393068   -0.0445159   -0.0443803    0.0509916    0.0478171   -0.0331665    0.0378796   -0.0176271    0.0316668    0.0540049   -0.0798525   -0.0837707   -0.0169853   0.00648935   -0.0217857    0.0224749   -0.0776456    0.0684629    0.0224029   0.00496397    0.0348001    0.0777583   -0.0354074   -0.0841223    0.0152299    0.0431856    0.0377414    0.0301683    0.0860928    0.0787073    0.0249944  -0.00180564    0.0835337    0.0544895   -0.0784208   -0.0643864      0.04499    0.0015056   -0.0749367    0.0189727   -0.0580842    -0.035969    0.0437342     0.072059    0.0698353   -0.0815648    0.0056927    0.0531267   -0.0826435    0.0398114   -0.0244978  -0.00228245   -0.0502133   -0.0241097    0.0753192   -0.0369836    0.0182171  -0.00105958    0.0670468    0.0383057   -0.0836867    0.0454477    0.0250791    0.0681503    0.0296091   -0.0342694   -0.0224901    0.0734624    0.0158013   -0.0329586    0.0824561   -0.0152741    -0.057292   -0.0621359   -0.0294094   -0.0779639  -0.00573819    0.0359776   -0.0351416    -0.041775   -0.0387347    0.0230139    0.0377583   -0.0560541  -0.00244584     0.082767   -0.0255606    0.0371997   -0.0232404   -0.0261683    0.0279277    0.0556233   -0.0679067    0.0525403   -0.0827722   -0.0571806    0.0473357    0.0111677   -0.0224649   -0.0169965    0.0259999     0.049573     0.066937   -0.0695683    0.0241966  0.000890552    0.0427736   -0.0257511   -0.0449168    0.0298973   -0.0061085    -0.055525   -0.0803153    0.0180638   -0.0653522   -0.0685443    0.0351292   -0.0635352    0.0531867    0.0633191  -0.00806508    0.0861236   -0.0110697   -0.0493291   -0.0382378    0.0748509   0.00359997   0.00327841   -0.0134946   -0.0688213    0.0364992    0.0635374   -0.0437584   -0.0595574    0.0333255   -0.0482292    0.0154438    0.0449027    0.0654542    0.0130387    0.0252098   -0.0346948    0.0591361    0.0584656    -0.040448    0.0246475   0.00802949    0.0408109    0.0053747   -0.0652958   -0.0477277    0.0615258     0.073689    0.0301989   -0.0415115    -0.015357    0.0708869   -0.0788695    0.0215572    -0.030632   -0.0291219   -0.0524116  -0.00888551     0.025105    0.0205153    0.0683727   -0.0305203    0.0295573   -0.0290685    0.0136098   -0.0452987   -0.0551554    0.0649671    0.0226091   0.00503601   0.00436019    0.0725881    0.0296771    0.0300146    0.0753625   -0.0237894   0.00557505   0.00872615   -0.0152251    0.0378356    0.0161253   -0.0341015   -0.0129172   -0.0470099   -0.0173247    0.0379232   -0.0747103    0.0415765    0.0711911 -0.000145079   -0.0433596   0.00484293   -0.0662678    0.0833513    0.0137702    0.0126954   -0.0405052    0.0416014    0.0827722    0.0153405   -0.0482485   -0.0240208     0.022875    0.0116555   -0.0648322    0.0180101   -0.0589971    0.0519602    0.0695768   -0.0587279   -0.0510309   -0.0233355   -0.0827078   -0.0431482   -0.0850646   -0.0533714   -0.0850832   -0.0146056    0.0608992   -0.0752733  -0.00499617    0.0845295    0.0799785    0.0528661   -0.0502743   -0.0438521   -0.0410193   -0.0112509  0.000790968    0.0100204   -0.0508133   -0.0257931    0.0163336     0.035988   -0.0757303    0.0045691   -0.0118973    0.0412618   -0.0437228    0.0491185    0.0585112    0.0776291   -0.0678248   -0.0708488    0.0571647    0.0120885    0.0251614   -0.0628127   -0.0117118    -0.043221   -0.0845865     0.045892    -0.032268   -0.0449828    0.0247489   -0.0741612    -0.018648   -0.0650948    0.0473527    0.0192477   -0.0226126    0.0338445   -0.0206249    0.0761463  -0.00497804   -0.0836916   -0.0492775    0.0231474    0.0557512  -0.00505812   -0.0839784    0.0511813   -0.0791485    0.0135409    0.0712806  -0.00205569     0.032043    0.0316234    0.0130663    0.0246148   -0.0634901   -0.0391191     0.062463   -0.0595802  -0.00711409   -0.0743733  -0.00756103   -0.0203447    0.0165316   0.00991318    0.0163272    0.0740948  0.000436003   -0.0560835    0.0270682    0.0571487    0.0599974   0.00912321    -0.077737    0.0286211    0.0838679    0.0256442   -0.0379005    0.0186128    0.0604223    0.0627787    -0.031123   -0.0596309  -0.00246709    -0.024559    0.0326448    0.0766065    0.0490965   -0.0335469   -0.0296267    0.0231308   0.00980701   -0.0832368     0.042876    0.0447903   -0.0168467    -0.019642    0.0210038   -0.0488574    0.0360684    0.0727332    0.0801408   -0.0488337   -0.0134702   -0.0815284   -0.0594117     0.049379    0.0511808    0.0146883    0.0748494   -0.0119705   -0.0506274    0.0539637   -0.0698334   -0.0218757    0.0363098   -0.0683992   0.00902762   -0.0449104   -0.0655969   0.00657872   0.00920739   -0.0477957    0.0534547   -0.0378711   -0.0842621   -0.0255635    0.0350573   -0.0700337   -0.0457638   -0.0176387  -0.00259444   -0.0861757   -0.0718898    0.0049264   -0.0727247    0.0124862   0.00539289  -0.00731714    0.0717551     0.043982    -0.066123    0.0397089   -0.0203538   -0.0319947   -0.0778615    0.0421529    0.0562631   -0.0557065    0.0172974    0.0728862    0.0786119    0.0608718    0.0377351   -0.0515802    0.0709191   -0.0610336    0.0403544   -0.0396758   -0.0573697
  -0.0110198    0.0372132   0.00840591   -0.0665186    -0.073582    -0.041983    0.0776453   -0.0833295    0.0503221   -0.0314845   -0.0129654  -0.00145668   -0.0545881    0.0119652  -0.00526001    0.0860524   -0.0162628    0.0359393    -0.017886   -0.0738406    0.0353068    0.0233137   -0.0193353    0.0489033  -0.00714652   0.00755238    0.0597001    0.0245252   -0.0834193    0.0739788    0.0205154   -0.0638381    0.0468921    0.0142817   -0.0709756    0.0295283    0.0282836   -0.0819607   -0.0687785    0.0386042   -0.0523893    0.0783626   -0.0025884    0.0776761   -0.0387201   0.00923993    0.0754944    0.0361534    0.0178055   -0.0832148    0.0647578     0.010589   -0.0746583   -0.0596222    0.0248547   -0.0710957    0.0116562   -0.0856406    0.0814578   -0.0546449    -0.024171  -0.00948474   -0.0639235    0.0145542   -0.0611981    0.0237973   -0.0339138     0.071476   -0.0698903  -0.00788029   -0.0403359   -0.0270048   -0.0240972   -0.0313518   -0.0356574    0.0514447   -0.0412225   -0.0317176   -0.0828585    0.0736971   -0.0640227   0.00729794    0.0335863    0.0763101    0.0656468   0.00218177    -0.050988   -0.0774483    0.0558935    0.0460113   0.00721745    0.0236742    0.0105201    0.0837484    0.0097834    0.0834316  -0.00796215   -0.0385072   -0.0714025    0.0575386    0.0647175   -0.0673459   -0.0710656   -0.0451127    0.0132652   -0.0771464   -0.0254908    0.0501928   -0.0789883    0.0089149    0.0624131    0.0126335    0.0649465   -0.0712069    0.0662528   -0.0789426    -0.074528   -0.0339968   -0.0164432    0.0553236   -0.0781422    0.0333495    0.0655984     0.060526 -0.000107262   -0.0658808    0.0799661    0.0567807   -0.0041448   -0.0820947    0.0716779    0.0276293    0.0749141   -0.0386055   -0.0868071   -0.0741957     0.074819   -0.0758702   -0.0514862    0.0539903   -0.0247433   -0.0100713     0.060377    0.0294327   -0.0703003  -0.00403984   -0.0125356   -0.0195292    0.0372315   -0.0443009   -0.0109284   -0.0601796   -0.0324553    0.0618373    0.0705823    0.0686033    0.0625978    0.0838532   -0.0332025   -0.0641571    0.0614963   -0.0019113    0.0158894   -0.0367507    0.0647776   -0.0749059   -0.0779792   0.00737856    0.0622188    0.0333812  -0.00339228    0.0749295  -0.00728752   -0.0628387   -0.0422645   -0.0820537     0.046529    0.0786913    0.0574013   -0.0403436    0.0715769    0.0286109  -0.00607756    0.0243526    0.0845669    0.0823921     -0.08622  -0.00958643    0.0820396    0.0127566    0.0192975  -0.00472713    -0.085274   0.00601065   -0.0416921    0.0150481   -0.0399842     0.025243   -0.0299598    -0.080557    0.0731077   -0.0640463    0.0306869   -0.0591194   -0.0204382   -0.0750843  -0.00131203   -0.0225609   -0.0695142   0.00420788   -0.0442215    0.0117151  -0.00233622    0.0754159    0.0155462   -0.0380212   -0.0769818   -0.0749627    0.0198078    0.0504503  -0.00011868    0.0265909   -0.0163364    0.0183085    0.0539196   -0.0250924    -0.042167    0.0607815   -0.0311368   -0.0531871   -0.0719782   0.00790569   -0.0547875    0.0774365     0.066467   -0.0118577    0.0334781    0.0779084   -0.0512717    0.0467554    0.0244734   -0.0122653   0.00452789   -0.0363322    0.0358248    0.0277036  -0.00306152   -0.0582928   -0.0402857    -0.027106   -0.0683419   -0.0564033   -0.0859756   -0.0523092    0.0691326    0.0611658   -0.0293167    0.0483098    0.0583648    0.0209741   -0.0571965    0.0634672   -0.0368094   -0.0713817    0.0511512   -0.0639321    0.0756991     -0.08148   -0.0120186    0.0529658   -0.0574727    0.0816093    -0.068188    0.0735691   -0.0254444  -0.00348767   -0.0268575   -0.0109499    0.0670687    0.0114321   -0.0328718   -0.0178655    -0.033044    0.0729881   -0.0840541   -0.0204572    0.0823817   -0.0221042    0.0867429    0.0154992    0.0431277    0.0845016    0.0711412   -0.0777131  -0.00889856    0.0598535   -0.0601045   -0.0231798     0.070492    0.0294054   -0.0756263   -0.0712163    0.0213439   -0.0147705   -0.0237516    0.0492173   -0.0637354    0.0844222   0.00291323    0.0325594   -0.0800855   -0.0752088    0.0535695   -0.0068711   -0.0673951  -0.00646379   -0.0719445   -0.0295995   -0.0718177  0.000368038  -0.00141223   -0.0742077   -0.0342292    0.0844974   -0.0571607    0.0382267   -0.0323489   -0.0723589   -0.0488657     0.080019   -0.0455138   -0.0212806   -0.0693729    0.0533488    0.0808163    0.0183506   -0.0759017   -0.0653879    0.0370708    0.0828346    0.0113183   -0.0379286    0.0116655  -0.00810099    0.0655898    0.0754469  -0.00462933    0.0409039   -0.0129721     0.073067      0.07525   -0.0323877    0.0314882   -0.0456755      0.07014   -0.0531024    0.0707013   -0.0536736   -0.0853856     0.021406     0.039282    -0.026737   -0.0292339    0.0801572    -0.068708    0.0633993  -0.00901737   -0.0156838   -0.0120363     0.082103    0.0084618   -0.0494387    -0.056271   -0.0400349   -0.0257683    0.0254487   -0.0754136   -0.0192186    0.0391387     0.053741    0.0626138    0.0290281  -0.00582685   -0.0113052    0.0200844    0.0608076   -0.0698243  -0.00639824   -0.0128483     0.065354   -0.0454653   -0.0684975    0.0863736    0.0632644     0.064466    -0.021501   -0.0427194   -0.0293029   -0.0664483   -0.0424387    0.0013674   -0.0189126      0.06137   -0.0833063   -0.0803939  -0.00162083    -0.084348   -0.0484605   -0.0159268    0.0039553   -0.0783698    0.0662443    0.0419572      -0.0617   -0.0369557   -0.0098043     0.064284    -0.032057    0.0252962    0.0389284   -0.0733508   -0.0627945   -0.0389872    0.0671833   -0.0295209    0.0819208    0.0419841    0.0345552    0.0701111   0.00288589    0.0556283   -0.0557592    0.0776348    0.0462061    0.0681439    0.0498051   -0.0030732   -0.0618336    0.0280525    0.0555025  -0.00998868   -0.0203734   -0.0159744   -0.0124404   -0.0338948    -0.003646    0.0127405    0.0234206   -0.0286983   -0.0445581   -0.0701449   -0.0536908   -0.0372541    0.0427412    0.0387892   -0.0424594   -0.0260776    0.0216415    0.0475649    0.0730399    0.0448865   -0.0610581  -0.00922487    0.0777221    0.0466808    0.0838958    0.0629061    0.0320679    -0.071079     0.046623  -0.00313901    0.0691724    0.0332627 -0.000696662   0.00845812   -0.0523889    0.0741516    0.0816269   -0.0320712    0.0371456   -0.0569256    0.0785605   -0.0595434  -0.00202904   -0.0500088   -0.0385257   -0.0263414    0.0532364   -0.0488259    0.0833725    0.0575721   -0.0690748    0.0805738    0.0536303   -0.0511886    0.0058389    -0.081993     0.079546  0.000637053    0.0187066   -0.0380453   -0.0612563     0.016836    0.0481572    0.0266075   -0.0576895   -0.0864479    0.0305812   -0.0470757   -0.0177207   -0.0634602    0.0269801    0.0682439     0.060252     0.063001   -0.0825347    0.0636946   -0.0309772    0.0737428   -0.0535686   -0.0398965    0.0554191   -0.0645631    0.0639464    0.0355504   -0.0285518   -0.0108232   -0.0723128   -0.0107452     0.057838    0.0422254   -0.0726525   -0.0744692    0.0772637    0.0161019    0.0649222   -0.0139247   -0.0179478   -0.0320248   -0.0457126    -0.029534    0.0535236   -0.0421973    0.0104459    0.0609439     -0.08609    0.0490035   -0.0407541    0.0407414    0.0822982   -0.0675704    0.0242201   -0.0607328    0.0831592    0.0822862    0.0756426    0.0851257   -0.0703229   -0.0413592    0.0322953    -0.016284   -0.0545358    0.0453507    0.0569182   -0.0859478  -0.00386144    0.0488568    0.0698023  -0.00088425    0.0575123   -0.0420627   -0.0551564  -0.00252324   -0.0136709   -0.0346099    0.0859315   -0.0337926    0.0447836   -0.0401852    0.0802577   -0.0140398   -0.0797689    0.0580782    0.0506779   0.00909579    0.0497722    0.0192276    0.0804912   -0.0298324    0.0570393    0.0335143   -0.0681783   -0.0590541     0.076743    0.0749398   -0.0590429   -0.0300517    0.0675278   -0.0711596   -0.0273473   -0.0857833   -0.0307954   -0.0369542    0.0177634    0.0789997   -0.0239647   -0.0047945    0.0356689    0.0252378    0.0407688  -0.00998386   -0.0215833   0.00911049   -0.0490665   -0.0642503    0.0788207   0.00207892    0.0617662   -0.0802598    0.0571668   -0.0291667   -0.0743919    0.0671907    0.0824007    0.0225979   -0.0239862   -0.0816603   -0.0670743    0.0488513   -0.0546667   -0.0555635   -0.0717043    0.0631278    0.0324538   -0.0512503   -0.0737422  -0.00979431    0.0474979   -0.0380301   -0.0750893    0.0322716    0.0501281   -0.0371654   -0.0713642    0.0764775      0.01235    0.0801533   -0.0395524   0.00239387    0.0428264    0.0191335    0.0522699    0.0415911    0.0332973     0.052064    0.0300832  0.000580338   0.00122674    0.0760385    0.0830881   -0.0167682    0.0495856    0.0079851    -0.055682   -0.0744985   -0.0759501    0.0528727   -0.0671577   -0.0536169    0.0179225    0.0814314   -0.0655444   -0.0846411   -0.0383458    0.0682266    0.0467626   -0.0296823   -0.0736418   -0.0646935   -0.0710659    -0.086511    0.0493592   -0.0456736   -0.0856233    0.0225696   -0.0236782    0.0614958    0.0632048   -0.0201007   -0.0569865    0.0316255    0.0242423    -0.070237    0.0212359   -0.0403911   -0.0763872    0.0612877   -0.0500137   -0.0443853   -0.0311638   -0.0719843    0.0783891    0.0067001    0.0605852    0.0698028    0.0732735   -0.0124964    0.0457023    0.0301192    0.0609615   0.00817531    0.0863681    0.0553736    -0.012153   -0.0663955   -0.0513403    0.0431948    0.0505953   -0.0517487    0.0805289   -0.0249955    0.0852807   -0.0391343    0.0669034   -0.0255931   -0.0830294    0.0742665   -0.0772187   -0.0781939     0.059657   -0.0688044   -0.0721259    0.0503801   -0.0525014  6.39353e-05    0.0687254   -0.0821603   -0.0659271    0.0491657   -0.0487802   -0.0754422    0.0803989    0.0811468    0.0341158  0.000301469    0.0281349    -0.022126  -0.00473916   -0.0330198    -0.024445   -0.0619761    0.0213011   -0.0332721    0.0557202     0.018934   -0.0315314  -0.00162471   -0.0727896    -0.047468    0.0036687   -0.0300296   -0.0157148  -0.00239562   -0.0843435   -0.0421621    0.0653384    0.0423902   -0.0194867   -0.0446829    0.0527641    0.0841851     0.067792   -0.0412343   0.00249728   -0.0841273   -0.0173955    0.0634159    0.0455139    0.0250061    0.0764659   -0.0412654    0.0215979   0.00735227   -0.0581931
   0.0259636   -0.0861761    0.0412651    0.0185244    0.0773565   -0.0198409    0.0790383   -0.0805299    -0.009353   -0.0260175    0.0589798    0.0435275   -0.0415384     -0.02999   -0.0288662    0.0368138   -0.0821058   0.00311423   -0.0791761   -0.0380038   -0.0724719   0.00997687   -0.0629103    0.0483588   -0.0865538   -0.0765734   -0.0778253   -0.0365401   -0.0593175   -0.0571189    0.0381341    0.0594048 -0.000920035    0.0856873   -0.0133385   -0.0438634    0.0252885    0.0443233    0.0820969    0.0477384   -0.0547234    0.0801702    0.0387012   -0.0577893   -0.0385891   -0.0322076   -0.0597959   -0.0292073   -0.0344875   -0.0383152   -0.0313877   -0.0630851    0.0528485    0.0128199    0.0191975   -0.0711482   -0.0649954     0.083521   -0.0704126    0.0318686   -0.0638653    0.0582809  -0.00938587    0.0646005   -0.0259762    0.0627134   -0.0160697   -0.0259887   -0.0582531   -0.0347473   -0.0703923     -0.06276   -0.0262411    -0.057417  0.000324798   -0.0382131    0.0830217    0.0806414 -0.000784393   -0.0760754   -0.0389552  -0.00191824   -0.0362548   -0.0434667    0.0108308    0.0529476 -0.000756104   -0.0222229   -0.0599802    0.0185775  -0.00269717    0.0456878    0.0537886   -0.0148869   -0.0338233    0.0433381   -0.0391788  -0.00766728    -0.018373   -0.0199481    0.0622724    0.0634863   -0.0409634    0.0791319   -0.0623681    0.0341293   0.00988726   -0.0490678   -0.0460218   -0.0673757    0.0683063    -0.057083    0.0194901    0.0833233   -0.0120441   0.00047039    0.0741409   -0.0189744   -0.0366612     0.070699    0.0135999    0.0414385   0.00956327    0.0151858    0.0685199   -0.0652442     0.071809    0.0747043    0.0245934    0.0203342     0.046842    0.0410373    0.0313878  -0.00843251   0.00757267    0.0510592   -0.0572926    0.0688115    0.0571412  -0.00567943  -0.00944092  -0.00517163    0.0684312   -0.0849487   -0.0687878    0.0712526   -0.0660425    0.0575743   -0.0458671    0.0759635   -0.0828469    0.0412214     0.050311    0.0409467    0.0272417   -0.0420731    0.0791518   -0.0596315  -0.00385055   -0.0666399   -0.0555389   -0.0572346   0.00300749    0.0445352     0.085014   -0.0374762  -0.00974945   -0.0657628   -0.0368752    0.0798757    0.0534413   -0.0637393   -0.0743909   -0.0388811    0.0579903   -0.0370656   -0.0678022    0.0512711   0.00417661   -0.0825941    0.0483775    0.0102263    0.0768688    0.0561948  -0.00750128    0.0199282   -0.0255943  -0.00450649   -0.0698779    0.0321723    0.0407905   -0.0576826  -0.00502889  -0.00458787    0.0646215   -0.0659955    0.0135818    0.0244099  -0.00657285    0.0433191  -0.00413519   -0.0861466   -0.0771338   -0.0265987  -0.00635749   0.00860041    0.0789233    0.0567611   -0.0440924    -0.059066   0.00875933   -0.0211761   -0.0866414   -0.0664025   -0.0646561   -0.0199455   0.00886321    0.0180011 -0.000281058   -0.0366452   -0.0130492  -0.00771916   -0.0287543   -0.0352924   -0.0368035   -0.0525321   -0.0429876    0.0709677   -0.0564939    0.0594521      0.06663   -0.0589029   -0.0546117   -0.0509257    0.0629661    0.0252837   0.00763446   -0.0557331    -0.041958   -0.0605457    0.0484101    0.0196126   -0.0830344   -0.0565825    0.0790679   -0.0571316  -0.00966173   -0.0451341   -0.0793272    0.0566852    0.0158982    0.0726905    0.0439544   -0.0232521   -0.0582306   -0.0209058    0.0560087   -0.0420689   -0.0862152   -0.0158696    0.0159809     0.037375   -0.0511696    0.0343468   0.00968283   -0.0481518    0.0306807   -0.0808183    0.0750152     -0.05546 -0.000632064    0.0800296    -0.040919   -0.0312884    0.0464058   -0.0867752    0.0170237   -0.0696901    0.0286139   -0.0441235   -0.0280418   -0.0381678   0.00113342 -0.000778918   -0.0442237   -0.0347265   -0.0698709   -0.0484567    0.0413287    0.0365451    0.0453891   -0.0609751   -0.0409458     0.048907    0.0847884    0.0434628  -0.00442222    0.0477365    0.0467213  -0.00941854   0.00672383    0.0825701     0.019846   -0.0753482    -0.015903     0.069363    0.0830311  -0.00616396   -0.0264793     0.075726   -0.0716662    0.0236593   -0.0700335    0.0556631   -0.0516868   -0.0177521    0.0273645    0.0539125   -0.0720195   -0.0572618   -0.0628538    -0.022398   0.00234546    -0.046579   -0.0417849    -0.034106    0.0742409  0.000480237    0.0175219    0.0261621    0.0521158    0.0338656  -0.00504237   0.00274529   -0.0206388   -0.0804788    0.0273132   -0.0121886  -0.00368928    0.0783707    0.0551524   -0.0330781   0.00149599    0.0804343   0.00792746    -0.036827    0.0137185   -0.0354483    0.0066939    0.0678718    0.0067876    0.0387974   -0.0243309   -0.0782871   -0.0474804   -0.0661888    0.0204527    0.0327826   -0.0259154   -0.0776974   -0.0547399   -0.0703047   0.00569361   -0.0532086    0.0306727    0.0394196   -0.0213069   -0.0691885    0.0502619   -0.0736018    0.0411307    0.0480844   -0.0424203   -0.0222878   -0.0283338   -0.0350289    0.0173375     0.017563    0.0289636   -0.0107483   -0.0233268    0.0273263    0.0637223   -0.0336344    -0.034983   -0.0825778     0.064606    0.0139753  -0.00465361   -0.0722168    0.0513559   -0.0318217   -0.0631789    0.0149314    0.0616125   -0.0436955   -0.0339331    0.0595186   -0.0651311    0.0627199   0.00212824    0.0593653    0.0517972   -0.0638438   -0.0408414   -0.0200261   -0.0400964   -0.0608661   -0.0176715    0.0834065   -0.0641738    0.0765959    0.0736118    0.0377042   -0.0225563    0.0734272    0.0299246    0.0780108     0.083971    0.0706368   -0.0456734    0.0224919   -0.0738459     0.016985    0.0113502   -0.0754728    0.0153859   -0.0351928   -0.0864814   -0.0429139   -0.0672659     -0.05913   -0.0418966   -0.0250434    0.0869127   -0.0804193    0.0685077    0.0690888    0.0660113    0.0169676    0.0222492   -0.0400646    0.0548456   -0.0337199    -0.069147   -0.0839886    0.0355005    -0.049635 -0.000330534   -0.0655922   -0.0466312   -0.0176973   -0.0210838    -0.054301    0.0599685    0.0449266   -0.0793822    0.0419789  -0.00372252    0.0688672     0.049646   -0.0362412   -0.0303699  -0.00861461    0.0232596    0.0501103    -0.063353    0.0669089   -0.0196616    0.0819836    -0.023734    0.0573229    0.0494561   -0.0598889    0.0593034    0.0130512   -0.0102152    0.0304701    0.0388808    -0.034327   -0.0158483    0.0371621    0.0602198   -0.0804987  -0.00207093   -0.0309427    0.0618911    0.0400565    0.0746374   -0.0749594   -0.0233141   -0.0534475    0.0578764    0.0617284    0.0692637   -0.0835856   -0.0368754   -0.0378615   0.00054683    0.0408109    0.0527642    0.0343752   -0.0805825    0.0451104   -0.0277134    0.0666148    0.0525593    0.0292465    0.0410818  -0.00421144   0.00982285    0.0529916   -0.0412205    0.0815985     0.084053    0.0121731   -0.0693648   0.00095261   -0.0730358   0.00961114    0.0128882   -0.0136446   0.00171732    0.0351923    0.0765952    0.0426682    0.0616787    -0.034079   -0.0551455   -0.0544744   -0.0494073   0.00238203    0.0296936   -0.0076729    0.0238041   -0.0829464   -0.0387809    0.0444198    0.0838009     0.066966    0.0169728   -0.0260078  0.000309813   -0.0350088    0.0624777  0.000350932  -0.00446323   -0.0571715   -0.0589842   -0.0708235    0.0218367   -0.0657854   -0.0551256    0.0547602    0.0217568   -0.0542231   -0.0709467   -0.0651313    0.0505733   -0.0730755   -0.0329882   -0.0228249    0.0693228   -0.0845306    0.0123814    0.0605393   -0.0463627   -0.0216725     0.082092    -0.071488   -0.0457689    0.0197881   -0.0642368    0.0101277   -0.0713576    0.0283384  -0.00321845    0.0765724 -0.000700137    0.0478368   -0.0220552   -0.0679036    0.0372704    0.0605268    0.0296647   -0.0665888   0.00285617    0.0145629   -0.0798836      -0.0402   -0.0245756   -0.0302476   -0.0651394   -0.0241441    0.0265186     0.067013   -0.0637079    0.0565105   -0.0487579    0.0225987    0.0343041   -0.0606229    0.0266351    0.0112611   -0.0765557   -0.0168558    0.0487725    0.0106837    0.0720704   -0.0839588  -0.00655386    0.0374715     0.024717   0.00960088   -0.0382486    -0.030162   -0.0320822   0.00364302   -0.0470243    0.0432474   -0.0155072    -0.083085   -0.0362045   0.00760159    0.0753712   -0.0817137     0.083172   -0.0103962   -0.0146471    0.0851328    0.0207167   -0.0429424    0.0650055   -0.0315876   -0.0023217    0.0016709   -0.0686104   -0.0582615    0.0714145   -0.0454888    0.0851924   -0.0660239    0.0521964    0.0362579   -0.0325368   -0.0788957   -0.0756762    0.0658228  -0.00302077    0.0796554     0.058308   -0.0112965   -0.0282541   -0.0135669  -0.00994116    0.0678741    0.0284575   -0.0415523   -0.0616112    0.0470009   -0.0865767    -0.059673   -0.0853855   -0.0747331    -0.066052    -0.058332    0.0204118   -0.0258971   -0.0486489   -0.0518257    0.0203567    0.0623416   -0.0350193    0.0570711    0.0194724    0.0463253   0.00482298   -0.0185871 -0.000648531     0.040888    0.0107078  -0.00228772    0.0710796   -0.0193861    0.0269949   -0.0129072  -0.00298144    0.0827346    0.0503424   -0.0284794   -0.0779206    -0.080168   -0.0375865    0.0245141   -0.0009337   -0.0412295    -0.037607    0.0831431    -0.067269  -0.00420218   -0.0749554   -0.0240632   -0.0497697    0.0581156    0.0442851  -0.00132861  -0.00697594   -0.0332759    0.0859314    0.0493911   -0.0253011    0.0197811   -0.0241914   -0.0634804    0.0150605     0.054629    0.0794321   -0.0485263   -0.0382984    0.0254608   -0.0159037   -0.0416471    0.0393906   0.00137113    0.0133087   0.00326791    0.0197049    0.0534119     0.047637    0.0632021   -0.0839085    0.0251693    0.0666333    -0.015034   -0.0588116   -0.0488173   -0.0576441   -0.0527278    0.0168317  -0.00175029    0.0352587    0.0401856   -0.0769057   -0.0360937   -0.0368161   -0.0246002    -0.054641    0.0566547   -0.0465793   -0.0743725    0.0567282     0.034537   -0.0599276    0.0347389   -0.0139164    0.0059126    0.0065252  -0.00874961   -0.0328832    0.0490004    0.0347325    0.0302909    0.0232669   -0.0486912   -0.0326805    0.0461965    0.0634323   -0.0801655    0.0541791   -0.0863424   -0.0425121    0.0580602    -0.073785   -0.0135788   -0.0484402    0.0291299    0.0682911   -0.0536681   -0.0864279    0.0281985    0.0548832     -0.05369   0.00501386    0.0507085
  -0.0235316    0.0372007    0.0218461     0.073743    0.0597744    0.0189849    0.0563932    0.0413816   -0.0221981      0.02462    0.0177276   0.00800083    0.0271781    0.0746181    0.0787534   -0.0527005    0.0294815   -0.0602707    0.0664753   -0.0358923    0.0343207   -0.0846618   -0.0512975   -0.0189916    -0.050852   -0.0554597   -0.0736935   -0.0296416   -0.0621547    0.0859868    0.0522583    0.0397352     0.082604   -0.0745887    0.0642179    0.0275332    0.0779245    0.0783265    0.0813741   -0.0740983    0.0662859    0.0817239   -0.0464574    0.0615612   -0.0796092    0.0703003    0.0512161   -0.0770855   -0.0581251    0.0636037   -0.0147648   -0.0685135    0.0730298    0.0621894    0.0154286  -0.00495399     0.071336   0.00937741   -0.0192001    0.0340182  -0.00844912   -0.0174117    -0.049177    0.0294774   -0.0413722   -0.0805806   -0.0563587    0.0194409    0.0283511    0.0776559    0.0300965    0.0468096   -0.0293292 -0.000391267   -0.0278831    0.0174598    0.0352399    0.0481531    0.0770984    -0.022278    0.0201945    0.0800138    0.0138708   -0.0223815    0.0733391    0.0262315   -0.0540298   -0.0676558    -0.048054   -0.0138301   -0.0379275   -0.0116156  -0.00939362    0.0213694   -0.0261938   -0.0101859    0.0463266   -0.0559386   -0.0376365    0.0843221   -0.0495452    0.0774733   -0.0768562    0.0105162   -0.0773643    0.0166674    0.0813034   0.00657738    0.0195619    0.0765951    0.0164205   -0.0567429    0.0570189    0.0164613   -0.0287967    0.0308469   -0.0756954   -0.0767618    0.0213833    0.0638492    0.0403802    0.0345454    0.0518854   -0.0745274    0.0292119    0.0753035   -0.0764218   -0.0373925    0.0236553  -0.00299517   -0.0566078   -0.0733534   -0.0375862   -0.0176161    0.0595767   -0.0237887     -0.07565    0.0213173     0.060048    0.0151104     0.075011   -0.0481453    0.0843913    0.0278631    0.0795342    0.0719498    0.0356107   -0.0463295  -0.00070887   -0.0231691   -0.0546815   -0.0228866   -0.0385862   -0.0681539   -0.0383511   -0.0229291    -0.014964   -0.0692235    0.0155742    0.0441581   -0.0455832     -0.01912    0.0509129    0.0479862    0.0030893    0.0435794    0.0627324   -0.0555029  -0.00716056    0.0272921    0.0372782   -0.0169884     -0.03225  -0.00509423    0.0641471   -0.0314551    0.0615474    0.0842559   -0.0185357   -0.0443468   -0.0289562   -0.0263697   -0.0558937   -0.0653813   -0.0524198   -0.0433119   0.00010195    0.0267127     0.045703   -0.0110143    -0.013495    0.0535728    0.0287947   -0.0288937   0.00945467    0.0438282    0.0438632    -0.078515  0.000462858   -0.0516548    0.0683275   -0.0230289     0.036269    0.0264642   -0.0760132   -0.0324657    -0.016839   -0.0320955   -0.0337378   -0.0227691   -0.0116585   -0.0577953    0.0283702   0.00853653   -0.0667791    0.0799404   -0.0488793   -0.0402013     0.063826   -0.0340535    0.0864711     0.004985    0.0176623    0.0137433    0.0355662   -0.0308738  -0.00858853   -0.0486009    0.0671026    0.0121703    0.0203458    0.0122433    -0.057819    0.0216098   0.00450158   -0.0434888    0.0735856   -0.0561057    0.0193626  -0.00338262    -0.067272   0.00937001    0.0279658   -0.0583955    0.0309904   -0.0089674    0.0491391    0.0697685   0.00721329     0.073769   -0.0177797   -0.0579277    0.0279656    0.0265561   -0.0108546   -0.0791561    0.0676276    0.0367173  -0.00590491   -0.0254676  -0.00995449    0.0245802   -0.0370111   -0.0684915   -0.0829544  4.55477e-05    0.0619384   -0.0126088   -0.0265218    -0.059436   -0.0215565   -0.0373169    0.0807364   -0.0379639    0.0333819    0.0575136   -0.0717307  -0.00992724   -0.0808416    0.0520927   -0.0233683    0.0121039  -0.00559336    0.0211782   -0.0451281   -0.0139582   -0.0322274    0.0853261   0.00722751   -0.0420893     0.060495    -0.063381   -0.0571272    -0.037494   -0.0637884   -0.0282385    0.0789019   -0.0239309    0.0676569    0.0573708   -0.0387175     0.062736    -0.024263     0.064378  -0.00462293   0.00561711    0.0179298    0.0166466    0.0408295   -0.0670925    0.0243236   -0.0762436    0.0339905    -0.006572   -0.0200399    0.0779942    0.0641739    0.0223306    -0.051196    0.0110181    0.0311937     0.068162   -0.0483292    0.0146216    0.0277937   0.00609942   -0.0602401   -0.0278782   -0.0333341   -0.0511532    0.0844845    0.0733411   -0.0815861  -0.00436484    0.0351315    0.0865464   -0.0605917   -0.0528283   -0.0375983   -0.0846425   -0.0172726   -0.0403559   -0.0544681   -0.0762486    -0.027931   -0.0230433   -0.0613512    0.0319297    0.0319111   -0.0646281    0.0488318   -0.0115297     0.080935   -0.0754209   0.00146476    0.0625714   -0.0375389    0.0665167    0.0768852   0.00680384    0.0780023   0.00637881   -0.0861824   -0.0640673     0.013788   -0.0352128    0.0481885   -0.0420443     -0.05849    0.0280009   -0.0209908   -0.0663301    0.0741468     0.012543    0.0546616   -0.0253396    0.0790064    0.0284656    0.0233828    0.0377176    0.0628337   -0.0286788   -0.0649009   -0.0703042    0.0240585    0.0831345     0.032026    0.0767844    0.0625834    0.0630805    0.0781972    0.0503755    0.0748683 -0.000572413   -0.0314922    0.0220487    0.0022927   -0.0313712    0.0191221   -0.0790406   -0.0099028   -0.0716727   -0.0199232   -0.0789973   -0.0646637   -0.0743499 -6.01067e-05   -0.0377845    0.0145157    0.0277893   0.00924465   -0.0171119    0.0762178   -0.0360226    0.0390451    0.0846635    0.0239536    0.0653168   -0.0156673   -0.0678144    0.0828871    0.0795631    0.0217323   -0.0844363   -0.0821885   -0.0768377  0.000977031     0.052673  -0.00478312   -0.0326119    0.0764555   -0.0863325    0.0476767     0.072482    0.0283349    0.0542498    0.0399826    0.0248471    0.0182486    -0.024396   -0.0442193    0.0810229    0.0484551    0.0239999    0.0475386    0.0698756   -0.0130957  -0.00721639     -0.00614    0.0650926   -0.0620344    0.0688783    0.0841872    0.0318349   -0.0415332   -0.0677723   -0.0651107    0.0103709    -0.037514    -0.041525    0.0497288    0.0537007  -0.00915013   0.00673071    0.0310894   -0.0721523   -0.0811585   -0.0598627    0.0295249    0.0298904   -0.0800511   -0.0071718   -0.0243005    0.0137463   -0.0426445    0.0567343   -0.0699284   -0.0649301   -0.0763004    0.0688729   -0.0431312   -0.0237807    0.0488942    0.0790225    0.0637594   -0.0615385     0.031791    0.0196832   -0.0330568   -0.0818358   -0.0850424    0.0358212   -0.0343143    0.0295683    0.0512738    0.0834676    0.0706844   -0.0566806   -0.0225618   -0.0199145    0.0384653   -0.0629711    0.0151414   -0.0114605   -0.0288856    0.0577549   -0.0204498   -0.0170062     0.045512    0.0117301   -0.0845818   -0.0857607    0.0627294   -0.0220219   -0.0632515    0.0145649    0.0204726    0.0214121   -0.0599733    0.0602251   0.00504185    0.0620149   -0.0117065    0.0245128   -0.0813408    -0.031403    0.0757825    0.0625944   -0.0301424    0.0566198    0.0261121    0.0239626    -0.075291   -0.0154032   -0.0163218    0.0211086    0.0660265    0.0502784   -0.0706272   -0.0104975    0.0184278    0.0723803    0.0409318    0.0408971    0.0449537   -0.0526079    0.0502977   -0.0115814   -0.0524662    0.0514162   -0.0147892   0.00405656    0.0306665   -0.0386974   0.00118749    0.0548606   -0.0704233    0.0643876   -0.0830412    0.0213003  -0.00591416   -0.0248096 -0.000930575      -0.0865    0.0692506   0.00756798   -0.0842229   -0.0623161    0.0185234     0.029147   -0.0686469    0.0592614    0.0491055    0.0509413    0.0502392    0.0339511    0.0179632   -0.0205428  -0.00683921  -0.00252532  -0.00492467    0.0845978    0.0701659    0.0499875   -0.0812181    0.0758009   -0.0577746   -0.0636413    0.0580657    0.0203247   -0.0860068   -0.0672042   0.00119328   -0.0301968    0.0380657   -0.0790884    0.0324513    0.0706672    0.0801451   -0.0602698   -0.0472038   -0.0208422   -0.0534836   -0.0707222   -0.0636765  -0.00601936   -0.0382717    0.0683122    0.0689516   -0.0331473   -0.0483959    -0.059359   -0.0453396   -0.0329529   -0.0484569   -0.0272371  -0.00222003   -0.0051999    0.0426974    0.0317944   -0.0343134    0.0486722    0.0307361   -0.0526272    -0.021964   -0.0486461   -0.0485499    0.0565651    0.0170747    0.0114878   -0.0335667   -0.0616116   -0.0849974    0.0450567     -0.07348    0.0415083    0.0640541   -0.0401773   0.00614845   -0.0266921   -0.0630762   -0.0197105    0.0462261   -0.0583771   0.00314185   -0.0629566    0.0702466   -0.0301096    0.0731201    0.0796422    -0.012585    0.0856475  -0.00817651   -0.0630923   -0.0675008    0.0442837    0.0572525    0.0461706   -0.0315014   -0.0126747   -0.0317871   -0.0437924   -0.0102083 -0.000418617   -0.0104972    -0.078081   -0.0421657   -0.0666361    0.0694868    0.0195326   -0.0469197    0.0486784    -0.032573   -0.0296576    0.0597546   -0.0544269   -0.0586758    0.0608324   -0.0106388    0.0191277    0.0529798   -0.0674194    0.0225694   -0.0801315   -0.0818268    0.0464393    0.0141044   -0.0391103   -0.0368804     0.050546   -0.0694153   -0.0568901    0.0612163    0.0506835    -0.042477   -0.0399532    0.0836841    0.0715169   -0.0844721    0.0855973    0.0552386   -0.0688657   -0.0802521   -0.0434177   0.00302948  -0.00691244    0.0651582   -0.0447712   -0.0843354     0.076509   -0.0500073    -0.061096   -0.0092665    0.0746487   -0.0155811   -0.0825373   -0.0551419    0.0505585   -0.0651036    0.0107667    0.0372148    0.0387087    0.0843524    0.0722751   -0.0831892   -0.0480987    0.0854855    -0.082092    0.0564087   -0.0868743    0.0350042    0.0484402   -0.0681335     -0.05059   -0.0513229    0.0263377   -0.0677801    0.0150952    0.0178131    0.0664086   -0.0403092   -0.0667836    0.0705325   -0.0364448    0.0809116    0.0446136   0.00176168   -0.0757494    0.0480318    0.0229717   -0.0735328    0.0457547   -0.0863771    -0.069745   -0.0476897     0.079098  -0.00744195   -0.0293996     0.043638   -0.0810772    0.0172851   -0.0250876    0.0470541   -0.0152173   -0.0137879   -0.0691409   -0.0483499    0.0333959    -0.072618    0.0474733   -0.0534265    0.0145308    0.0135392   -0.0777949    0.0487514    0.0674831   -0.0763589   0.00874091    0.0386316    0.0257644   0.00138618   -0.0286372     0.043256   -0.0304598
