   -0.031291    0.0500484    0.0396777    0.0332875    0.0502623     0.084207    0.0065045     0.062507    0.0358801    0.0183927    0.0452214   -0.0263332   -0.0788646     0.036255    0.0513726    0.0818573   -0.0378349    0.0111312   -0.0743612   -0.0238868     0.028029   -0.0454575    0.0864127  -0.00787816  -0.00311468    0.0596039   -0.0476834   -0.0399551     0.069576    0.0570554    0.0827063   -0.0561319    0.0708354   -0.0135254   -0.0516251    0.0171078   -0.0254422   -0.0359744    0.0801629   -0.0376426   0.00971825    0.0242362    0.0290172    0.0316263  -0.00278534    0.0220902   -0.0767874   -0.0228133    0.0248497   -0.0712672    0.0229593    0.0641787   -0.0756602    0.0196548   -0.0584657    0.0849486  -0.00936342   -0.0126879   -0.0217386    0.0491705    0.0229886  -0.00478775    0.0549125    0.0198618   -0.0298545    0.0733882    0.0653807  -0.00260399    0.0488601    0.0379927   0.00812661    0.0383911   -0.0561184   -0.0447903    0.0667666   -0.0150032    0.0597727   -0.0106958  -0.00907819    0.0842295    0.0190405    0.0834882    0.0662665   -0.0137801    0.0476935    0.0138878   -0.0118556      0.01801   -0.0768576    0.0293209  -0.00687168    0.0292858    0.0861769    0.0198768    0.0241632   0.00693113   -0.0542051   -0.0392403   -0.0866311    0.0310417   -0.0180319    0.0154493    0.0558717   -0.0643126   0.00313933    0.0421803    0.0789489    0.0549756   -0.0185162    0.0220569   -0.0407793   -0.0317297   -0.0539924    0.0387944    0.0474306   -0.0114724    0.0541356    0.0365827    0.0544933   -0.0131849   -0.0834888   -0.0201378     -0.02962   -0.0792543   -0.0605403    0.0565502   -0.0432353   -0.0221326   -0.0385782    0.0809017   -0.0831995    0.0132715    0.0142312   -0.0503446    0.0276248     0.043742   -0.0503264   -0.0821619   -0.0340277    0.0372236    0.0830548    0.0701617   -0.0293987   -0.0478517    0.0468522   0.00320734   -0.0163044  -0.00891439   -0.0198538    0.0624686    0.0353278     0.041776   -0.0275829  -0.00388899    0.0840848    0.0197601   -0.0131129    0.0649887    0.0382204    0.0812958  -0.00643448   -0.0626804   -0.0505439   -0.0412435    0.0195234    0.0483202    0.0755063    -0.048792   -0.0288912    0.0411823    -0.070037   -0.0371845    0.0452444   -0.0791032    0.0628676  0.000941447   -0.0121493     0.079502    0.0602314   -0.0308893    0.0862163   -0.0367184   -0.0833892   -0.0766656   -0.0817975  -0.00206909   -0.0488575   -0.0616582    0.0863285    0.0223156    0.0196202   0.00417607   -0.0868423     0.042944    0.0604078  -0.00595594   -0.0437336    0.0586897   -0.0634077   -0.0563734   -0.0521824    0.0394631   -0.0709462   -0.0630487   -0.0442644     0.039024    0.0297724   -0.0723871    -0.048434   -0.0833443   -0.0299748    0.0251759    0.0622204   -0.0721961   -0.0500703    0.0156953   -0.0592361   -0.0161478    0.0683892  -0.00169451    0.0741563    0.0290618   -0.0780121    0.0819886    0.0467427   -0.0710827   -0.0370363  -0.00296105    0.0294608   -0.0766147    0.0289472   -0.0410389    0.0766674  -0.00660776    0.0210009    0.0508597    0.0639391    -0.053309    -0.053457   -0.0126476   -0.0707047   -0.0712759  -0.00891866   -0.0339743    0.0772888    0.0219206    0.0861502   -0.0380127    0.0369925    0.0664392   -0.0474832    0.0335319    0.0726585    0.0632884    0.0447812    0.0482111    -0.074666    0.0288059  -0.00244882    0.0101627    0.0322023   -0.0542746  -0.00332979   -0.0370218   -0.0545606   -0.0366175  0.000768741   -0.0605319   -0.0197004   -0.0622885    0.0321795   -0.0413216    0.0535554   0.00464103    0.0244357   -0.0350422    0.0521124  -0.00330774   0.00513426   -0.0477852   -0.0749124   0.00378336   -0.0419878    0.0319155    0.0582201    0.0626704   -0.0685385    0.0233698   -0.0466518    0.0853909   -0.0282617    -0.014032    0.0189688   -0.0826778     0.074232    0.0527419   0.00907477   -0.0565224    0.0810644    0.0400405   -0.0859354    0.0757921   0.00208072    0.0118733   -0.0234728   -0.0717891    0.0277716  -0.00899793    -0.035536    -0.085682   -0.0719004   -0.0279117    0.0119791    0.0518701    -0.017445    0.0678681   0.00606826   -0.0659432    -0.035088   -0.0654227    0.0731532    0.0462105   -0.0443121    0.0213117   -0.0419458   -0.0419397   -0.0431073    0.0452818    0.0781827   -0.0229764   -0.0213016   -0.0219356    -0.049541   -0.0757005   -0.0654382   -0.0825441   0.00191365   -0.0407774    0.0635215   -0.0769705    0.0236459   -0.0820847   0.00462615    0.0399966   -0.0314549   -0.0562223   -0.0263944    0.0383359    0.0455574    0.0166759  -0.00159901   -0.0807859    0.0790282   0.00304584   -0.0290447   0.00855409    0.0464461    0.0301812    0.0291506   -0.0188785   0.00999121    0.0118628  -0.00825891  0.000561734    0.0860704    0.0393273    0.0640118   -0.0866648   0.00325975     0.032162   -0.0555895  -0.00123661   -0.0301866 -0.000354701   -0.0424555   0.00760476   -0.0801047    -0.023253    0.0237279   -0.0524557    -0.045913   -0.0714509    0.0126638    0.0825849    0.0555134    0.0627593   -0.0265583    0.0121798   -0.0345585   -0.0749299   -0.0103961   -0.0437822    0.0736305    0.0698199    0.0168068   -0.0803641    0.0305769    0.0822019   -0.0351414   -0.0398934   -0.0541673    -0.043197    0.0620802    0.0847683    0.0569842   -0.0191799   -0.0645194   -0.0361786   -0.0184407   -0.0343103   0.00839219   -0.0779979    0.0472774    0.0214974    0.0314347  -0.00840737   -0.0786934    0.0519711   -0.0530352   -0.0185462    0.0772838   -0.0403614     0.036457    0.0635831   -0.0607548   -0.0428033   -0.0362908    0.0543765   -0.0199579    0.0593991 -0.000650555   -0.0534928   -0.0309772    0.0277526   -0.0619047   -0.0629506   -0.0650122    0.0478239    0.0196437   -0.0628261    0.0352904   -0.0752088     0.024126    0.0398078   -0.0608227    0.0302368    0.0645543    0.0418724   0.00661986    0.0264013   -0.0457748   -0.0260306    0.0802083      0.06346   -0.0207715    0.0290234   -0.0720299   -0.0436061    0.0396056   -0.0279036   -0.0266068   0.00560466    0.0364176    -0.080951   0.00564041   -0.0124598    0.0649193    0.0183224    0.0801585  -0.00977768    0.0468219   -0.0394127    0.0523179   -0.0600013    0.0551332    -0.001182   -0.0205164    -0.022701   -0.0211442   -0.0120153    0.0599455   0.00598324    0.0822889    0.0638853    0.0373678    0.0458592   0.00322157   -0.0084302    0.0203694    0.0374606   -0.0625697    0.0294301   -0.0336399    0.0284089    0.0477732    0.0460319    -0.049776    0.0556765   -0.0584112   -0.0622082   0.00215713   -0.0800758    0.0560816   -0.0557196   -0.0717783   -0.0114005   -0.0245061    0.0749381    -0.051613   -0.0353831    0.0646994    0.0868307    0.0791024  0.000306137   -0.0778038     0.021251    0.0698609   -0.0207772    -0.059696    0.0326738  -0.00458151    0.0242897  -0.00393576    0.0577089  -0.00755238    -0.012233   -0.0556013    0.0680517   -0.0635302   -0.0803809    -0.055964   0.00199315    0.0695166    0.0503256    0.0117221   -0.0468058   -0.0225054    0.0641112    0.0679204   -0.0273089   -0.0521865    0.0450133    0.0220219    0.0747172    0.0305409   -0.0587057     0.077525    -0.065204    0.0270212   -0.0379767    -0.010364    0.0199067  -0.00464217    0.0839362  -0.00906193   -0.0789535   -0.0426464   -0.0406756   -0.0613998   -0.0554332   -0.0508645   -0.0535879   -0.0367948   -0.0799378   -0.0193045   -0.0865544   -0.0714514    0.0192647   -0.0128495    0.0194009   -0.0655475   -0.0455431   -0.0453519   0.00993735    0.0362646    0.0081231    0.0444448   -0.0303931   -0.0148247   -0.0219282    -0.040969    0.0087788   -0.0452205   -0.0376792   -0.0547366   -0.0811259    0.0787498    0.0728319    -0.074426   -0.0059957   -0.0636799    0.0496401   -0.0288515    0.0292144  -0.00451367    -0.081167    0.0504294    0.0777178    0.0622023    0.0626595    0.0437287   -0.0453693    0.0807279   -0.0471872    0.0338731   -0.0822007   -0.0513151    -0.043096   -0.0429853     0.046439   -0.0172685    0.0648599   -0.0333512    0.0329684    0.0174822   -0.0480216   -0.0100797    -0.013263    0.0541212    0.0195432    -0.071448   -0.0426244    0.0438039   -0.0572139    0.0647961   -0.0649114    0.0576255    0.0494944    0.0512773    -0.025002   -0.0123203   -0.0249425   0.00694019   -0.0333455   -0.0531897    0.0660425    0.0516316    0.0558112    0.0512429    0.0552472    -0.065364   -0.0523801   -0.0861805   -0.0472236      0.05485    0.0744903    0.0374761   -0.0792711   0.00553497   0.00841703   -0.0464391    0.0832806   -0.0428886  -0.00372679    0.0580994    0.0539054    0.0153764    0.0425135   -0.0649687    0.0198244   -0.0379573    0.0464558    0.0291125   -0.0219411    0.0750017    0.0868104    0.0741628   -0.0266782   -0.0711671    0.0386833   -0.0513213     -0.02497   -0.0192816   -0.0521756    -0.014006   0.00486846   -0.0427015   -0.0160314    0.0659613   -0.0409101    0.0619771   -0.0429267   -0.0430926    0.0199127   -0.0155486    0.0553623   -0.0629737    0.0448386   -0.0384248   -0.0775319    0.0117383   -0.0317848   0.00249358    0.0677733   -0.0750585   -0.0563292    0.0613467    0.0612517    0.0825048    0.0123678   -0.0534196   -0.0624018    -0.067428    0.0292867   -0.0866946   -0.0336398  0.000692678    0.0615617   -0.0529895   -0.0646725   -0.0474006   -0.0124203    0.0583193    0.0755337    0.0449338   -0.0261164   -0.0142635   -0.0314762     0.017531    0.0188029   -0.0787849    0.0255974    0.0845067    0.0769323    -0.045659    0.0110672  -0.00532287   -0.0696494    0.0198103  -0.00139124    0.0472987    0.0487102    0.0765662    0.0347673    0.0379478    0.0359739   -0.0391093   -0.0587148    0.0707206   -0.0026214   -0.0825606   -0.0243299    0.0269193    0.0714883   -0.0223057    0.0115601    0.0406008   -0.0102477    0.0488257    -0.074008    0.0839723    0.0592671   -0.0703576    0.0154425   -0.0297176   -0.0713417    0.0754336    0.0607896    0.0798384    0.0326981    0.0649197     0.079647   -0.0195414   -0.0686556   0.00958184   -0.0219051    0.0699477    0.0254087    0.0561527   -0.0801185    0.0483282   -0.0720914    0.0867734    0.0707431    0.0264742    0.0410572   -0.0211647    0.0494508    -0.007908  -0.00787136    0.0821358   -0.0594187    0.0277786  0.000367132
  -0.0617743    0.0531122   -0.0115157    0.0207493   -0.0738621   -0.0400809    0.0199109    0.0256852   -0.0384859    0.0289133    0.0694675    0.0789062    0.0582485   -0.0566284   -0.0578142    0.0066228   -0.0832582   -0.0189067    0.0367021   0.00660551    0.0602169   -0.0559295   0.00407744   -0.0687119   -0.0450812    0.0859839    0.0244642     -0.07828    -0.023545  -0.00515031     0.072387   -0.0611781    0.0847436    0.0404206   -0.0695933    0.0591303   -0.0859128   -0.0620976    0.0436052   -0.0169485  -0.00544758  -0.00530207   0.00102053     0.033748  -0.00125922   -0.0102344   -0.0263804    0.0786691    0.0396706   -0.0376063    0.0482092    0.0376636    0.0167996    -0.026262   -0.0227996   -0.0320802    0.0192199    0.0554851   -0.0769169   -0.0519863    0.0734724    0.0352687    0.0451748    -0.057987    0.0449511  -0.00481463    -0.026348    0.0277237   -0.0342277    0.0408198   -0.0477911    0.0277184  -0.00105917   -0.0649282   -0.0569404    0.0027283   -0.0760905   -0.0684775    -0.039784   -0.0446204   -0.0837854   -0.0376603    -0.072935    0.0651651    0.0474115    -0.043474   -0.0594551    0.0770585    0.0537992   -0.0511311    0.0380898   -0.0265718  -0.00588979  -0.00899016   -0.0744745  -0.00689095   -0.0212827    0.0575551    0.0762628   -0.0755908    0.0291513    0.0514083   -0.0630459    0.0231496    0.0240332    0.0281597    0.0125458   -0.0723703   -0.0574443   -0.0468309   0.00558994   -0.0671137   0.00272949   -0.0237539    0.0142899   -0.0374301    0.0274258   0.00759533     0.037754    0.0451272    0.0309034    0.0831869    0.0157857   -0.0838195    0.0406362   -0.0809403    0.0490112    -0.056364    -0.053687    0.0399822    0.0363045   0.00683381    0.0295856    0.0313593    0.0572603    0.0160587    0.0592465    0.0692917  -0.00402324   -0.0867239   -0.0501147  -0.00955975    0.0195582   -0.0305801    0.0534319   -0.0171759   -0.0521372    0.0593126   -0.0735826    0.0580097    0.0714125   -0.0535057   0.00632721     0.008343    0.0561782    0.0489892    0.0238753    0.0211855    0.0650467    0.0681294    0.0184686    0.0476027     0.015599   -0.0310508    0.0132069    0.0507771    0.0575956    0.0673482   -0.0718106    0.0473966   -0.0345753   -0.0718146   -0.0574123    -0.054327    0.0851032    0.0191934    0.0805409    0.0272197    0.0790119   -0.0755744    0.0507209   -0.0459981   -0.0034242   -0.0596832   0.00401518    0.0400339   -0.0301026   -0.0288853    0.0392801    0.0518368    0.0668223    0.0767144    0.0483382    0.0110786   -0.0100998   -0.0166547   -0.0767452    0.0799701   -0.0744333    0.0690251   -0.0315004   -0.0794295   0.00653511   -0.0164752    0.0353984    0.0778203   -0.0666171   0.00557722    0.0666042    0.0337029   -0.0559362    0.0510685   -0.0425922   -0.0743349   -0.0439569    0.0635331     0.046592   -0.0449983   -0.0326752   0.00374016    0.0865696   -0.0230867   -0.0109093   -0.0263518   -0.0859309    0.0458018   -0.0609129    0.0342207   0.00410785   -0.0488197   0.00768791    0.0159977    0.0146323   0.00493692   -0.0219763   -0.0412559   -0.0866253    0.0456726     0.041641    -0.065954   -0.0762353   -0.0443283    0.0301079   -0.0177017    0.0585732   -0.0803827   -0.0478836    0.0438079    0.0157741   -0.0766028    0.0504209 -0.000521735    0.0699533    0.0734447   -0.0821311   -0.0063636    0.0277897    0.0594111    -0.025973   -0.0577529     0.028463    0.0831846   -0.0723625     0.029365   -0.0174167    -0.085523   -0.0550406   -0.0388639   -0.0687627    0.0508735    0.0491495    0.0502917    0.0204644    0.0426724   0.00729061    -0.060103   -0.0739604   -0.0629902    -0.029958    -0.070001   -0.0734827    0.0435528   -0.0165899    0.0817091    0.0502221   0.00359794   -0.0698855   -0.0459814    0.0510404    0.0417706   -0.0300486   -0.0162455    0.0445262    0.0558538    0.0244275   -0.0619681    0.0697774    0.0811638   -0.0723179   -0.0341517  -0.00112437    0.0317277    0.0740786   -0.0832771    0.0226853   -0.0420109   -0.0261244    0.0179291    0.0396093  -0.00421685   -0.0784566    0.0727439    0.0813239   -0.0489496    0.0318986    0.0489056    0.0271318  0.000993624    0.0161897   -0.0522197   0.00333817   -0.0245606   -0.0628368    0.0238977    0.0477619    0.0825731    0.0226988   -0.0775758   -0.0832923   -0.0693312   -0.0457882   0.00880169    0.0748982   -0.0812936    0.0437603    0.0528752   -0.0301385    0.0821819    0.0710469   -0.0750356  -0.00514081     0.068775    0.0366103   -0.0279564    0.0269478   -0.0688922   0.00558366    0.0506395   -0.0333143   -0.0786738    0.0803977    0.0441092   0.00164494   -0.0237489    0.0696572    0.0157377    0.0387439    0.0472177   -0.0307682    0.0468554  -0.00178507   -0.0616819    0.0333897   -0.0863133    0.0297989    0.0316104   -0.0195516    0.0365102   -0.0332856  -0.00213596   -0.0823761    0.0127403    0.0746329    0.0401546   -0.0398123    0.0396243    0.0681951    -0.018385    0.0753102    0.0442905    0.0210792    0.0547915   0.00644042    0.0668869    0.0862733   -0.0854011   -0.0808653     0.030319    0.0496119   -0.0453383    0.0822315    0.0457699    0.0633797    0.0271824    0.0845508    0.0639025    0.0232766  -0.00150614   -0.0282744   -0.0530763    0.0150913   -0.0329817  -0.00330784    0.0237988    0.0827342   -0.0699496    0.0180069    0.0613636   -0.0824571   -0.0323913   -0.0126341    0.0574688   -0.0395443    0.0774958    0.0818697    0.0745169    -0.022108    0.0562497   -0.0166476    0.0600865   -0.0394005    0.0245862    0.0835656   -0.0738634 -0.000379837    0.0799396   -0.0861786   -0.0157649   -0.0302153   -0.0608781 -0.000320187    0.0183697    -0.020171    0.0461878   -0.0182513     0.024434    0.0373449      0.04752   0.00224231    0.0471357   -0.0797698    0.0371165   -0.0624588   -0.0862361    0.0120046   -0.0379708    0.0108681    -0.056123    -0.047109   -0.0312991   -0.0720619   -0.0867989    -0.047218    0.0391168   -0.0749152  -0.00200723  -0.00759063    0.0493864   -0.0193193   -0.0307881    -0.040321    0.0641825   -0.0619119    0.0702699    -0.013542  -0.00549245   -0.0431624    0.0429506    -0.014299   -0.0823484   -0.0814306    0.0482044    0.0263055   -0.0337549   -0.0657675   -0.0547197    0.0500838   -0.0126651   -0.0580126   -0.0530152   -0.0454384    0.0685913     0.031241   -0.0819427  0.000711899   -0.0599249    0.0560458     0.083294     0.032084   -0.0715291   -0.0215673  -0.00935523   0.00973452  -0.00136282   -0.0836792   -0.0200032    0.0116458    0.0244184    0.0177571   -0.0370649    0.0490436  -0.00858539   -0.0556372    0.0108808   -0.0784816   -0.0665459    0.0425361  -0.00556354  -0.00765263    0.0242024    0.0267466    0.0395647   -0.0204011   -0.0528105   -0.0363321   0.00379634   -0.0547056   0.00422084     0.011142   -0.0702578   -0.0636033   0.00304058   -0.0617976   -0.0252288    0.0185797   -0.0248541  -0.00476392   0.00478111    0.0587584   -0.0817171  -0.00215518     0.046619    0.0566693   -0.0822625    0.0815629   -0.0474651   -0.0738111   -0.0101183   -0.0174778 -0.000703097  -0.00765651    0.0384171    0.0511879   -0.0514505    0.0712422    0.0264813    0.0746359    0.0534265    0.0659209   -0.0414866   -0.0331135     0.040428    0.0609768  0.000710681   -0.0177458  -0.00120204    0.0637682   0.00290088   -0.0792383     0.044563    0.0416474    0.0301434    0.0227368    0.0332811    0.0313335   -0.0611342    0.0472225    0.0793458   -0.0394322   -0.0626955    0.0868672   -0.0790787  -0.00913058   -0.0646995   -0.0124526   -0.0449162   -0.0536992    0.0226315   -0.0279799    0.0451018  -0.00431825   -0.0657973     -0.07843     -0.07302    0.0179713    0.0316614   -0.0812566   -0.0710295   -0.0121799    0.0508051   -0.0743451   -0.0443726    0.0287884    -0.010456   -0.0127686   -0.0686396    0.0504219   -0.0216207     0.074561   -0.0105394    0.0574198   -0.0803545    0.0496315   -0.0573869    0.0327709    0.0824938   0.00190126   -0.0123557   -0.0036622   -0.0279068    0.0732168    0.0720639    0.0474202    0.0441747   -0.0485944    0.0864183   -0.0208487    0.0113535    0.0180227   -0.0509765  -0.00830675   -0.0494373    0.0786252   -0.0202122  -0.00253508    0.0771999   -0.0518256   -0.0478379    0.0325272   -0.0578616   -0.0521272   -0.0169686    0.0059039   -0.0276663    0.0654401   0.00834436   -0.0588135    0.0347435  -0.00835575    0.0315476    0.0338985    0.0434882    0.0532232    0.0451917   -0.0264134    -0.055657     0.051572    0.0442648   0.00882661    0.0537217    0.0585627    0.0033395   -0.0772858     0.065881    0.0566265   -0.0223729   -0.0704016    0.0275169   -0.0274617   -0.0643366   -0.0319592   -0.0546741   -0.0837789  0.000684724   0.00602706   -0.0673392    0.0795967    0.0582438   0.00422884   -0.0851969    -0.022891     0.082375    0.0724094   -0.0289303   -0.0410074   -0.0528899    0.0689554   -0.0599097    0.0493578    -0.064083    0.0068697   -0.0787532    0.0442321   0.00736041   -0.0146547   -0.0264294   -0.0523786   -0.0838512   -0.0711917   -0.0319285    0.0317404    0.0328983    0.0651435   0.00592651   -0.0149241    0.0180186     0.065622    0.0170157  -0.00186402    0.0673779   -0.0387344   -0.0792862   0.00230781    0.0147133   -0.0415712   -0.0697125   -0.0386085  -0.00461306    0.0555407 -0.000764256    0.0256511    0.0248247 -0.000727956   -0.0796828    0.0135544    0.0670418    0.0297325    0.0505237   -0.0731646    0.0761147    -0.071701   -0.0590799   -0.0657343    0.0822047    0.0162656    0.0519441   -0.0765787   0.00708811    0.0495363    0.0805044    0.0136732   -0.0305045   -0.0689455    0.0319594    0.0628776   -0.0287937  -0.00426961    0.0506787    0.0289814   -0.0339027     0.057784   -0.0326063    0.0467447    0.0043875    0.0499822   -0.0342977   -0.0635401    0.0723131    0.0283915    0.0492108    -0.072183    0.0567812    0.0206136   -0.0373154   -0.0488451    0.0460671   -0.0162731     0.018928    0.0595983    0.0608112    0.0160652   -0.0141753    0.0377135    0.0757027    0.0279003    0.0293581  -0.00190672  -0.00415812   -0.0855043    0.0275378    0.0772134   -0.0566185    0.0560983    0.0583481    0.0214573    0.0723455    0.0376285   -0.0155602  0.000556045    0.0562949    0.0308595   0.00193685     0.071822   -0.0466793
  -0.0553836  -0.00848835  -0.00211439   0.00162046  -0.00458315    0.0046435   -0.0203282    0.0411215    0.0320091   -0.0616895    0.0532688     0.018314   -0.0208233    0.0713855   -0.0595738    0.0566929    0.0531419   -0.0489559   -0.0651025    0.0378786   -0.0863027   -0.0754091  -0.00430286   -0.0776426   -0.0776361   -0.0221238    0.0815107    0.0129034   -0.0692882    0.0698251    -0.081041  -0.00154262   -0.0803616    0.0298255  -0.00309797    0.0641038   0.00760795    0.0281661   -0.0850309   -0.0793213   -0.0217498   -0.0532538    0.0591788   -0.0741196    0.0681766    0.0392945   -0.0605234    0.0240676    0.0210711    0.0344608   -0.0109442  -0.00374351  -0.00146673    -0.010833   -0.0274737   -0.0753174    0.0829514   -0.0259158   -0.0268657   -0.0593948    0.0584902   -0.0514419    0.0276844     -0.06264  -0.00978294   -0.0345436    0.0229581    0.0716905    0.0800272    0.0244098    0.0793482   -0.0172425   -0.0280555    0.0149189    0.0278131     0.050833    0.0803302   -0.0308047    0.0689105   -0.0415542     0.010129   0.00734759    0.0360479    0.0795709   -0.0115719    0.0382401    0.0399804    0.0361686    0.0293236    0.0787274    0.0496176   -0.0716011   -0.0216784    0.0569296   -0.0848369    0.0419389   -0.0681834   -0.0372063    0.0516099    0.0363156   0.00632786    0.0481854    0.0375889   -0.0160571    0.0103998    0.0120411   -0.0638924    0.0850358   -0.0414178    0.0466543   -0.0347296    0.0696093   -0.0619944    0.0089489    0.0284383    0.0371153  -0.00167898    0.0765466   -0.0206366    -0.038532   -0.0708592   -0.0750978   -0.0518872   -0.0455173   -0.0838837    0.0644319   -0.0742176   -0.0466486   -0.0763072    0.0786745   -0.0497872    0.0587557   -0.0577771    0.0502132   0.00634129   -0.0112151    -0.002693   -0.0348847    0.0284806   -0.0642183    0.0698904   -0.0406545   -0.0325342    0.0617765    0.0657783      0.05842    0.0622986     0.023245    0.0838152   -0.0628636   -0.0334185     0.083958    0.0490689  -0.00234615    0.0701453   -0.0424411   -0.0146859    0.0229861   -0.0273033    0.0523958   -0.0613313   -0.0683347  -0.00521928    0.0244609    0.0525418  -0.00369549    0.0720942    0.0860163   -0.0693659    0.0462487    0.0700973   -0.0544722   -0.0481599   -0.0372141  -0.00615193    0.0861267   -0.0836704    0.0787467  -0.00707075   -0.0271591    0.0118742   -0.0333759   -0.0786277   -0.0798003    0.0475723  -0.00885868   -0.0744029   -0.0230177   -0.0202578   0.00528935    0.0225112    0.0413462  -0.00769697   -0.0637487   -0.0622514   -0.0206625    0.0469164   -0.0761044    -0.024089   -0.0821571    0.0627662    0.0658595    0.0472496    0.0231727    0.0818205   -0.0511235   -0.0753077    0.0313831     0.086795     0.079206   -0.0235136   -0.0788805   -0.0427588   -0.0799435    0.0285913   -0.0151267    0.0796793   -0.0209752    0.0234094    0.0551039   0.00789033   -0.0290654    0.0389765    0.0455729  0.000571909  -0.00260164    0.0132682     0.078308    0.0678929   -0.0495576    0.0136683    0.0518174    -0.041497    0.0585122     -0.04978     0.012517   -0.0254395   -0.0117146    0.0385714    0.0589996  -0.00094948    0.0335606   -0.0446916    0.0645316    0.0143764   0.00258483   -0.0066971   -0.0840412    -0.074886     0.067503    0.0112595  -0.00995567   -0.0329594    0.0793815    0.0061765    0.0124127     0.081873     0.024736   0.00997569   -0.0714324   0.00627188    0.0259524    0.0743934    0.0101356   -0.0439513    0.0593575    -0.076707   -0.0758044    0.0284168    0.0215802    0.0392311     0.034258    0.0574283   -0.0764869    0.0653921   -0.0720666    0.0579688   -0.0497005   -0.0724689    0.0456833    0.0663489   -0.0507046    0.0084447   -0.0113439    0.0134249    0.0554619    0.0856191    0.0483384   -0.0295217   -0.0131481    0.0592873    0.0237206   -0.0391928   -0.0411523    0.0128233    0.0862219   -0.0842167    0.0805143    0.0767183    0.0528435   -0.0509371    0.0245846    0.0209067    0.0772277    0.0850692  -0.00377834    0.0196527   -0.0454559  -0.00154888   -0.0390035    0.0430106   -0.0714149    0.0406088   -0.0550368   -0.0636118    0.0547382    0.0179484    0.0691999   -0.0547584   -0.0303522    0.0327729    0.0298542   -0.0196181   -0.0818803      0.01382    -0.053563    0.0655639    0.0848303   -0.0749123   -0.0158196   -0.0133838     0.058747     0.020698    0.0579031  0.000157558   -0.0337048     0.075104    0.0102467    0.0311707    0.0789202   -0.0743502    0.0367466    0.0816348    0.0321035    0.0132048   0.00419255   -0.0368855  -0.00962458    0.0188558   -0.0273078   -0.0379332    0.0480519    0.0159178   -0.0332587   -0.0241541    0.0370989    0.0132138    0.0691516   0.00484358   -0.0547963   -0.0746621   -0.0305738    0.0705854   -0.0420296   -0.0534056     0.068194   -0.0323856    0.0848596    0.0585209   -0.0742543    0.0490487    0.0274548    0.0100953    0.0776412   -0.0664885   -0.0341784    0.0191909   -0.0338127   -0.0329677   -0.0654534    0.0457957   -0.0304464   -0.0526478    0.0140356   -0.0687051     0.017247    -0.039586    0.0078913    -0.033786  -0.00147103   -0.0795304    0.0479975    -0.075915     0.069199    0.0545237     -0.04834   -0.0150985   -0.0326832   0.00722117   -0.0327502    0.0610639    0.0279063    0.0148477   -0.0487961     0.039188    0.0420471   -0.0656569    0.0254403    0.0521438    0.0825557   -0.0483414    0.0450369    -0.012923   -0.0798947   -0.0602245    0.0553281    0.0310112   -0.0627083    0.0766233   -0.0097055    0.0858961   -0.0367423   -0.0714102    0.0636143    0.0851674    0.0578585    0.0565582   -0.0376493    0.0727523   -0.0828036   0.00148038   -0.0693526   -0.0717998   -0.0141914    0.0105105    0.0530807   -0.0759234    0.0373942    0.0062966   -0.0212215    0.0591418   -0.0625304    0.0346123    0.0519225   -0.0542362    0.0407779    0.0668715     0.020492  -0.00620787    0.0622129   -0.0364551    0.0269572   0.00356168    0.0524953   -0.0699431     0.044935    0.0337243    0.0540641    0.0459585    0.0416226    0.0480178     0.068378   -0.0610712    0.0865835  -0.00772105    0.0489537    0.0657948   0.00490912    0.0371459    0.0320339   -0.0449449    0.0128225    0.0398835   -0.0647786   -0.0676613     0.027568   0.00986396   -0.0704808    0.0862129   -0.0819247   -0.0315416   -0.0611042    0.0297055   -0.0800385   -0.0804522    0.0284905    0.0785024     0.025996    0.0536703    0.0631817    -0.016981   -0.0452259   -0.0293208   -0.0311822   -0.0592012   -0.0862259    0.0139524   -0.0750728   -0.0214355   0.00358826   -0.0744318   0.00788137   -0.0611752    0.0211548    -0.012877    0.0513958   -0.0368433    0.0155348  -0.00118216   -0.0670463    0.0259789    0.0441156   -0.0765121   -0.0328044    0.0237442   -0.0535929     0.041149  -0.00788623    0.0340152    0.0453595    0.0506474   -0.0697042   -0.0513411   -0.0672686   0.00445541   -0.0660761   -0.0134929     0.050028   -0.0363902   -0.0635797   -0.0555611    0.0230497   -0.0387514   0.00543601    0.0820887    0.0819239    0.0554188   -0.0564123   -0.0340634    0.0698295   -0.0153167    0.0592238   -0.0500896  -0.00227633    -0.067166   -0.0204304   -0.0765684   -0.0756235   -0.0447849    0.0766655    0.0458057    0.0519208    0.0401338   -0.0513438    0.0258266  -0.00582701     0.035687   -0.0627567     -0.02955    0.0176521   -0.0452908    0.0467652   -0.0151023    0.0652022   -0.0794831   -0.0145641   -0.0545765 -0.000289436   -0.0484141   9.5715e-05    0.0447903    0.0417983    0.0298068   -0.0303261   -0.0718387   -0.0138693   -0.0387085   -0.0868894   -0.0372216   -0.0360389  -0.00115588   -0.0560093   -0.0615281   -0.0381549   -0.0390697   -0.0198673    0.0101234    0.0239631     0.052245    0.0615267    0.0428853   -0.0626018   -0.0416532   -0.0350177    0.0386203    0.0595538   -0.0724917   -0.0309796    0.0708939    0.0131093    0.0244529   -0.0658611    0.0175514   -0.0503966   0.00936161   -0.0552525    0.0794429    0.0311304   -0.0625964    0.0826638   -0.0271915   -0.0867447   -0.0287221   -0.0116068    0.0689928     0.068605    0.0304945   -0.0630139    0.0111444     -0.06126   -0.0399689    0.0571933   -0.0721065    0.0724889   0.00130384   -0.0208572    0.0173333   -0.0827576   -0.0476524    0.0433758   -0.0371071    0.0225749    0.0564649    0.0369282   -0.0155086   -0.0795768   -0.0505639   -0.0642814   -0.0738764   -0.0313049    0.0277665   -0.0681954     0.076939   -0.0201207    0.0304573   -0.0596986     0.026109    0.0472975    -0.033003    0.0820494    0.0265608  -0.00106659   0.00930398    0.0144497   -0.0672005   -0.0751654   -0.0227619    0.0194436    -0.074561    0.0823934    0.0830318    0.0381901     0.031583    0.0445475    -0.042136   -0.0491837  -0.00366779   -0.0604874    0.0282049   -0.0198454     0.046007    0.0717328   -0.0722968  -0.00651193  -0.00785927   -0.0867442   -0.0817869    0.0853957    0.0220343   -0.0290044   -0.0173355    0.0347695    0.0269017   -0.0824054    0.0101355   0.00276217   -0.0562888   -0.0659883   -0.0592022   -0.0272257    0.0471733   -0.0458049    0.0273717   -0.0481044    0.0296051   -0.0563414   0.00320695    -0.079011    0.0472293    0.0413701   0.00543529    0.0569294    0.0739374    0.0108028    0.0840939    -0.056872   -0.0533851   -0.0220485    0.0510397  -0.00816048  -0.00906604    -0.027416   0.00466868    0.0616529   -0.0134457     0.011227    0.0534151    0.0286958    0.0166835   -0.0332474   -0.0557525    0.0457598  -0.00277208   -0.0629694   -0.0385542     0.084147   -0.0535153    0.0133465   0.00760742   -0.0227423    0.0501513  -0.00714882     0.012802    0.0421015    0.0136997   -0.0371132   0.00150941    0.0758474    0.0839483   -0.0684673     0.085921   -0.0397048    0.0633665    0.0637281   0.00644073    0.0109849   -0.0502931    0.0326002    0.0227547   -0.0121552   -0.0519075   -0.0757946    0.0839943   -0.0442492   -0.0394192    0.0563083    0.0362654   -0.0100639   -0.0585264   -0.0123985   -0.0129688   -0.0122127   -0.0571743    0.0572513     0.055153   -0.0446901   -0.0338543    0.0786715    0.0165012    0.0719944   -0.0176338    0.0200465   0.00455319   -0.0856843     0.017501   -0.0775832    0.0220364  -0.00861703   -0.0070439    0.0224006   -0.0664686  -0.00896646   -0.0500632    0.0442236
   0.0442113    0.0610246   -0.0403388   -0.0827127    0.0408781   -0.0823343    0.0251025    -0.045269   -0.0799519   -0.0568077   -0.0590678   -0.0485346    0.0713848   0.00829526   -0.0083712    -0.014261   -0.0261615   -0.0111516   -0.0778745   -0.0396275    -0.080925    0.0167009     0.085185   -0.0289892     0.018986     0.052191   -0.0450452    0.0150401   -0.0486059    0.0397807    0.0655336    0.0537966  -0.00540101   0.00863481    0.0671839    0.0379742   -0.0292862   -0.0324984     0.069834    0.0472884    0.0191262     0.074067   -0.0645183   -0.0380609   -0.0227882   -0.0506484    -0.048786     0.039183  -0.00340583    0.0765661    0.0483069    0.0210048   0.00718436    0.0854697   -0.0796049    0.0843428   0.00021005   -0.0759425    0.0617671    0.0501722   -0.0249233    0.0701769   -0.0453632    -0.047983    0.0102429   -0.0262212    0.0802708   -0.0803041    0.0814931   -0.0191405    0.0729868   -0.0631356    0.0785357   -0.0421073   -0.0576192   -0.0684575    0.0244405    -0.036511    0.0454355    0.0232293    0.0823292   0.00494928   -0.0258473     -0.01128   -0.0484289   -0.0232461    0.0451533   0.00822659   -0.0220411    0.0632584   -0.0311732   -0.0591561   -0.0751534    -0.013988   -0.0762288   -0.0504348    0.0438818    0.0155108   -0.0266484    0.0690524    0.0279072    0.0135366   -0.0764337   -0.0558071    0.0793974   -0.0672997   -0.0708294  -0.00290367    -0.080546   -0.0465713   -0.0713097    0.0633488   -0.0421703   0.00651965   -0.0146031    0.0080482   -0.0222885    0.0557013    0.0723896     0.050078   -0.0266443   -0.0372629   -0.0083202   -0.0604568    0.0849055   -0.0183035    0.0505877   -0.0167645    0.0309605    0.0575746   -0.0764532    0.0467297   -0.0819847    0.0593922   0.00972973   -0.0469121  -0.00400073    0.0866298    0.0110345    0.0168656   -0.0575662   -0.0736772   -0.0492337   -0.0027308  -0.00692773   -0.0350851    0.0787289   -0.0694358    0.0672263    -0.055568    0.0316997   -0.0718078    0.0738157   -0.0742269    0.0362628   -0.0322162     0.019164   -0.0225407    0.0819125   -0.0106072   -0.0548487    0.0536546   0.00507334    0.0335101    0.0137338    0.0324207    -0.054889   -0.0533974   -0.0278292   -0.0308705   -0.0613518    0.0274966    0.0288084    0.0545405   -0.0425486    0.0333931    0.0814255    0.0652611  -0.00775914   -0.0838142    0.0789502    0.0706262    0.0111609   -0.0142356    0.0241242   -0.0365769   -0.0232592    0.0100011   -0.0118378    0.0483832     0.084109    0.0664119    0.0592695    0.0338447   0.00429716   -0.0120216    0.0166797   0.00571212   -0.0223018   -0.0343343  -0.00617155    -0.042452    0.0864808  -0.00122546    0.0182435   -0.0417314   -0.0822962     0.018446   -0.0796412    0.0773351    0.0514393    0.0291302     0.011329   -0.0517535    0.0186174    0.0188575    0.0389902   -0.0335883   -0.0605597  0.000842393    -0.044749    0.0404104    0.0450539    0.0526356    0.0331128   -0.0227597     0.049089   -0.0671923   -0.0712252   -0.0379895    0.0417718   -0.0344743    0.0279475   -0.0400213    0.0196231   -0.0128308   -0.0394452  -0.00329743   -0.0334323    -0.074348     0.072362   -0.0676823    0.0456995   -0.0793582    0.0791634    0.0276327    0.0277163     0.060947   -0.0502598    0.0323119    0.0459214   -0.0685042      0.02311    0.0447792    0.0370422    0.0472852    0.0666398    0.0088921   -0.0446155   -0.0827544   -0.0330549   -0.0679304    0.0604029    0.0488978    -0.015734 -4.47463e-05   -0.0208601     0.085897   -0.0818478    0.0545721     0.031275    0.0141007    0.0576224   -0.0709105    0.0592861   -0.0716165    0.0373073   -0.0389564    0.0472898   -0.0859783   -0.0843064    0.0398716   -0.0714678   -0.0708231  -0.00277572   -0.0033658  -0.00106566   -0.0848778    0.0283841   -0.0608479   -0.0394888   -0.0565657    0.0178381    0.0468313    0.0679895    0.0718009    0.0251846    0.0766736   -0.0709917      0.03628   -0.0680834    0.0628195    0.0187776    0.0249912    0.0283402  -0.00598402    0.0752446   -0.0105604    0.0204993   -0.0494355   -0.0208239   -0.0417908    0.0311304   -0.0260328    0.0263887    0.0126386    0.0540776   -0.0153918  -0.00867725    -0.039574    0.0752704    0.0019564   -0.0811345     0.074537    0.0132687   -0.0270009   -0.0554204   -0.0804308   0.00737138    0.0753349    -0.071432   -0.0621952   -0.0473659   -0.0266923   -0.0425176    0.0383059    0.0313604    0.0128386     0.022978    0.0262447   -0.0755145    0.0614109   0.00206947    0.0706828   -0.0281444   -0.0766584     0.080992    -0.062215    -0.057772   -0.0243054    0.0607369    0.0242612     0.043277   0.00254411   -0.0338027   -0.0510299    -0.080437   -0.0816627    0.0138475  -0.00625574   -0.0161084    0.0133844    0.0517369    0.0118154    0.0538579    0.0336405   -0.0227716   -0.0170279    0.0714951   0.00587314   -0.0681648    0.0323128     0.053734   -0.0625213   -0.0754486    0.0270489   -0.0569948   -0.0118617   -0.0751511    0.0773354    0.0529915    0.0592356   -0.0387851   -0.0121422   -0.0640855   -0.0220777   -0.0599013   -0.0256241   -0.0207637  -0.00553556   -0.0411004    0.0262607    0.0701745   -0.0473813    0.0396122   -0.0560775   -0.0172431   -0.0327696   -0.0330315  -0.00560017   -0.0829898   -0.0799938   -0.0774206   0.00568674   -0.0798094    0.0861522   -0.0628084    0.0183428    0.0388183    0.0427799    0.0510145   -0.0267955   -0.0145922    0.0777404   -0.0176644   -0.0314748    0.0149897   -0.0531161   -0.0174809   -0.0548372  -0.00275517    0.0024955    0.0518705    0.0622629    0.0230366    0.0306788   -0.0761065   -0.0563799   -0.0596574   -0.0610438    0.0231681   -0.0818079   0.00896049   -0.0570039    0.0602065    0.0287632   -0.0399065    0.0197189    -0.066704    0.0699226   -0.0693922    0.0762794    0.0147884   -0.0834042   -0.0425887   -0.0676674    0.0730679    0.0467514    0.0329723   -0.0355485    0.0203102       0.0142    0.0713361    0.0210334    0.0123398    0.0771081    0.0693063   -0.0848328   -0.0203749   -0.0143146    0.0701148    0.0293974   -0.0621679    0.0260913   -0.0191798     0.060645   0.00992264    0.0809109    0.0482008      0.01265    0.0330362    0.0620622    0.0232256    -0.036368     0.046038    0.0236359    -0.023753    0.0858641   0.00832362   -0.0206603    0.0324192    0.0767987    0.0680694    0.0254897   -0.0791942     0.075277    -0.021839    0.0120841    0.0262847    0.0479337   -0.0164617   0.00862557   -0.0144243   -0.0387872   -0.0112964   -0.0446471   -0.0797788    -0.016317    0.0357987   -0.0685288   -0.0163453     0.076448   -0.0219338    0.0652244  -0.00115964    0.0780657    0.0789383   -0.0482574   -0.0553389    0.0438102   -0.0819125   -0.0267399     0.043975    0.0794155    0.0528665    0.0711431    0.0777465   -0.0644898   -0.0527696    0.0285184   -0.0700583   0.00240117   0.00652397   -0.0843928   -0.0586813   -0.0658969   -0.0525088   -0.0813011  -0.00317371    0.0192921   -0.0137951    0.0245932   -0.0484924   -0.0557194    0.0605106     0.025122   -0.0130564   0.00174716      0.04283  -0.00173698    0.0383809    0.0210971    0.0031297    0.0446882    0.0286295    0.0758074    0.0155799    0.0604028   -0.0797027  -0.00582704     0.029476    -0.018057     0.035683   -0.0409766    -0.013682    0.0104313    0.0576706  -0.00799638    0.0551365   -0.0637334    0.0280009    0.0326727   -0.0469844   -0.0363018    0.0508518    0.0447449   -0.0173905    0.0393695    0.0510587    0.0805958   -0.0775636   -0.0603288   -0.0145986    -0.030554      0.03552    0.0389755    0.0338681   -0.0700539   -0.0788274    0.0833694   -0.0664578    0.0823043  -0.00541865     0.007556   -0.0519358    0.0211723   -0.0214343    0.0833559  -0.00450871    0.0869188   -0.0147978  -0.00288865  -0.00707334   -0.0773739   -0.0345904   -0.0629044    0.0165377    0.0199351   -0.0701076    -0.019189    0.0260942    0.0222202  -0.00295832     0.084791  0.000887503   0.00733423    0.0335428   -0.0515444    0.0229453    0.0285267    -0.026343     0.077109    0.0217402    0.0240596    0.0234924   0.00756232    0.0665825    -0.054788   -0.0340357   -0.0179445   -0.0362341    0.0274496   -0.0263018    0.0229661    0.0248768    0.0385367   -0.0352597    0.0833831    0.0366074  -0.00836981   -0.0837124   0.00255267    0.0793353   -0.0823792    0.0557812   -0.0303505   -0.0313238    0.0703606    0.0758628    0.0261131    0.0660777   -0.0479267   -0.0776016   -0.0116286   0.00426097   -0.0829601    0.0359803     0.083272   -0.0551338    0.0812719   -0.0565049    0.0233181   -0.0452883    0.0526814    0.0519281    0.0360921   -0.0767312     0.081559    0.0320401   0.00719286    0.0099877    0.0168827   -0.0400644    0.0178423    0.0354303    0.0148571   -0.0390528    0.0688626  -0.00644781     0.034629    0.0741902    0.0635303    0.0706583    0.0341395   0.00135564   -0.0536103   -0.0464702    0.0858515    0.0355349    0.0393463    0.0537869   0.00128289    0.0747714  -0.00238898    0.0628047   -0.0749223    0.0292541    0.0373254    0.0133931    0.0146305   -0.0523427    0.0344492   -0.0298767    0.0311866   -0.0410223   -0.0627025   0.00753434    0.0591692   -0.0534249   -0.0772032    0.0452546   -0.0120605    0.0784057     0.025821    0.0837118    0.0120458    0.0073512    -0.031867   -0.0328109   -0.0787609    0.0485942   -0.0221154    0.0565775    0.0583304   -0.0440331   -0.0437934    0.0665127   -0.0313001   -0.0340981   -0.0239248   -0.0552856   -0.0533923    0.0837826    0.0704841    0.0727524   -0.0368364    0.0649684   -0.0353025    0.0741228    0.0447786  -0.00482459    0.0617366    0.0277546    0.0156988   -0.0446822  -0.00243783    0.0701469    -0.048197    0.0730947    0.0290048    0.0812834   -0.0388958   -0.0795265    0.0725858   -0.0160779      0.04096   -0.0790878   -0.0109328    0.0400836    -0.063233    0.0459346    0.0347003    0.0339775   -0.0707699   -0.0171702   -0.0719517   -0.0407747   0.00489637    0.0485101      0.08281   -0.0550576    -0.029162    0.0719165   0.00643293   -0.0277108   -0.0483507   -0.0747113    0.0482472    0.0842741    0.0532015    0.0571521   -0.0443524   -0.0601195   -0.0742467   -0.0351468    0.0246556    0.0563253   0.00325409    0.0381678   -0.0480727   0.00762764    0.0298835    0.0818764    -0.033429
  -0.0184578  -0.00257072   -0.0399248    0.0214506    0.0806523   -0.0677261   -0.0740842    0.0410392    0.0739899     0.066713    0.0553285  -0.00642989   -0.0179837   -0.0295732   -0.0814027  -0.00719502   -0.0324554    0.0556878    0.0700065   -0.0476296  -0.00217707    0.0868801    0.0312152    0.0788164    -0.032961    0.0849822  -0.00319945   -0.0067915   -0.0133896    0.0108537    0.0267102    0.0228471    0.0776666    0.0234332   -0.0266433     -0.05208   -0.0164595   0.00173159    0.0533058   -0.0469235   -0.0111274    0.0140255   0.00839501    0.0583521    0.0166593   -0.0488584  -0.00207685    0.0834991    0.0533864    0.0274657    0.0558066   -0.0406611    0.0641741   -0.0399437    0.0831914    0.0184248   -0.0402377  -0.00240416    0.0460894    0.0575194    0.0215827   -0.0276836   -0.0124637   0.00950394    0.0204723   -0.0154104    0.0105436    0.0820582    -0.043492   -0.0521462  -0.00613384    0.0719227    0.0631507   -0.0435165    -0.011023    0.0427072   -0.0132822    0.0653959    0.0491231   -0.0794491   -0.0849003    0.0669161   -0.0849844   -0.0490871    0.0810743    0.0143163    0.0520476    0.0741167   -0.0527707   -0.0106513   -0.0817154   -0.0715727   -0.0865484     -0.03643    -0.043248   -0.0651419    0.0597107    0.0860944   -0.0284826    0.0735177    0.0214452    0.0300535   -0.0177346   -0.0267349   -0.0848453    0.0408448   -0.0222458    0.0669867   -0.0719592   -0.0444327     0.066243   -0.0124306    0.0505243    0.0329611     0.020751   -0.0763547    0.0281501   -0.0681392    0.0696456  -0.00989921    0.0775311    0.0507743    0.0607285    0.0674019   -0.0787465    0.0775802   -0.0251327   -0.0322605   -0.0117887   -0.0335448    0.0120088    -0.018878   0.00550242   -0.0721846   -0.0401429   -0.0739687  -0.00247279   -0.0756638   -0.0841533   0.00341197   -0.0313607    0.0436307    0.0529793  -0.00682217   -0.0291357    0.0698943    0.0137458    0.0739684   -0.0453544    0.0406765   -0.0627734   -0.0162176      0.02091    0.0591465    0.0314342    0.0504729    -0.013997    0.0428452   -0.0836303   -0.0377428    0.0606747   -0.0126317    0.0652368     0.066229    0.0314532    -0.070082    0.0347399    0.0784835   -0.0475583   -0.0544899   -0.0508324   -0.0334857   -0.0221655  0.000382294    0.0536157    0.0721899    0.0329111   -0.0574293    0.0259165   0.00527885    0.0507726    -0.041003  0.000497533    0.0290055  -0.00330072   -0.0191672    0.0408866    0.0855867   -0.0788402   0.00741547    0.0452639 -0.000717242   -0.0105159    0.0229403     0.028661    0.0837573    0.0064958    0.0336946    0.0303177   -0.0108256   -0.0710093   -0.0641595    0.0456629   0.00867177    0.0342908   -0.0867671    0.0589737     0.043722    0.0565034     0.063593   -0.0421448   0.00425963   -0.0400051   -0.0703805   -0.0570086   -0.0542119    0.0755609   -0.0035904   -0.0794278    0.0559518    0.0024819   -0.0391349   -0.0537389    0.0317656    -0.062939   -0.0791334    0.0266533    0.0203679   -0.0227239   -0.0666032     0.038654    0.0422023   -0.0275673   -0.0776474   -0.0113273    -0.027348   -0.0380245    0.0677166   -0.0224009  -0.00820882    -0.017008    0.0156765   -0.0189859  -0.00655313    0.0290026    0.0526191    0.0426641     0.010955   -0.0813452   -0.0540415    0.0515829    0.0838145    0.0314831    0.0439961    0.0655839   -0.0399951    0.0483464  -0.00264175   -0.0545489    0.0297722    0.0793282    0.0357012   0.00465848    0.0346859   0.00984918    -0.068533    0.0178842     0.044052   -0.0085175   -0.0633685    0.0651009   -0.0617556   -0.0425802    0.0586135   -0.0530045   -0.0641596   -0.0568209    -0.027725    0.0544697   -0.0296843    0.0173435   -0.0768459   -0.0542751    -0.077681   -0.0372009     0.033543    0.0751394  -0.00325421   -0.0564297   -0.0691457    0.0376945   0.00145211   -0.0137294    -0.011604    0.0433342    0.0832798    0.0326822    0.0539854   -0.0836777   -0.0113351   -0.0866534    0.0538778    0.0163782    0.0185386   -0.0240591    0.0493917    -0.059603    -0.022303    0.0502303  -0.00980688    0.0204661    0.0577135    0.0266276    0.0585339   -0.0177143   -0.0515849    0.0486621    0.0158298    0.0629795   -0.0218859   -0.0683227   -0.0715364   -0.0370269   -0.0138547  -0.00322637   -0.0105962    0.0462383    -0.017166   -0.0168394   -0.0860815   -0.0845828   -0.0406267   -0.0480936   -0.0199745   -0.0598625    0.0244057    0.0645321   -0.0224621    0.0326089    0.0418486    0.0695957   -0.0369905    0.0415456    -0.039345    0.0182195   -0.0682364   -0.0394999    0.0514765   -0.0416034   -0.0584789   -0.0146861    0.0121151   -0.0118266   -0.0323135   -0.0324136   -0.0543571   -0.0116025  -0.00630027   -0.0147116    0.0523529    0.0294796    0.0431076   -0.0860027   -0.0672863   -0.0831246   -0.0851387    0.0852216   -0.0515903    0.0148474    0.0140973   -0.0838541    0.0188973    0.0427012   -0.0422171    0.0465367   -0.0205728   -0.0580625    0.0800697   -0.0522123   -0.0804846  -0.00369331      0.06747    0.0633136  -0.00258793   -0.0644553  -0.00808308    0.0695054    -0.027892   -0.0367828    0.0398168  -0.00790764    0.0544003  -0.00666299   -0.0158522   -0.0401574   -0.0612044   -0.0636552    0.0831068    0.0707314   -0.0349481    0.0798904    0.0682369   -0.0475382    0.0507677   -0.0184385    0.0721703   -0.0671323   -0.0448671    0.0254083   -0.0668689   -0.0667845   -0.0158175   -0.0776142     0.018847   -0.0843501    0.0424434    0.0164759    0.0563932   -0.0452077   -0.0600841   0.00707892    0.0395125    0.0694787   -0.0819355   -0.0618152    0.0418132    0.0861664    -0.026344   -0.0505351     0.032686      0.06245    0.0726424   -0.0652594   -0.0518819    0.0461606    0.0363147   -0.0246837   -0.0721142    0.0250093   -0.0353432    0.0723326    0.0232723    -0.038898  -0.00177039   -0.0762688    0.0402207   0.00422606   -0.0436843   -0.0289028    0.0403275   -0.0708683   -0.0228539    0.0626843   -0.0292655    0.0566237  -0.00203892   -0.0738242   -0.0390739    0.0527725    0.0494036    0.0208512     0.071358    0.0379857   -0.0106766  -0.00955314   -0.0255995    -0.022728    0.0493809   -0.0580061    0.0552808    -0.015677    0.0461749    0.0496372    0.0833556   -0.0139455   -0.0820881    0.0358913   -0.0681595    0.0120917  -0.00424199   -0.0514853 -0.000637064   0.00848875   -0.0175159   -0.0528645   -0.0395559   -0.0136309  -0.00970578   -0.0434929    0.0377298   -0.0638837   -0.0517716   -0.0367795   -0.0204283  -0.00898996    0.0408652   -0.0613453   -0.0409302   -0.0608988    0.0765294   -0.0695605   -0.0417162   0.00642229    0.0730079    0.0809336    0.0146853   -0.0816904   -0.0251688   -0.0202945     0.068033    0.0177013     -0.07091    0.0133744    -0.063017    0.0283685   -0.0332104     0.022508    -0.069604  5.80925e-05   -0.0143218    0.0608228  -0.00232742    0.0371085    0.0381265   -0.0567246   -0.0800444   -0.0126853   -0.0247935    -0.054519    0.0428951   -0.0740192   -0.0474907  -0.00141931    0.0705604    0.0238605    0.0362563  -0.00677036   -0.0284868    0.0683077   -0.0482759   -0.0320593   -0.0233921    0.0160947    -0.043619    0.0101611     0.076058   -0.0723658    0.0241031    -0.051677    0.0795805   -0.0744431   -0.0524554    0.0270076    0.0547843   -0.0128481  -0.00915092   -0.0159408    0.0393411   -0.0770266    0.0468772     0.022763   -0.0685136   -0.0820956    0.0482541   -0.0732006  0.000365509    0.0346749    0.0174798   -0.0429714    0.0850222   -0.0763727    0.0483486    0.0476943  -0.00342843   -0.0649017    -0.044264    0.0143889    0.0315569   -0.0325653   -0.0372263    0.0542096   -0.0719632 -0.000131185   -0.0467757    0.0474753    0.0435666   -0.0517867    0.0628761   -0.0464947   -0.0770579   -0.0769135    0.0631593    0.0435914   0.00589514   0.00171763   -0.0723528   -0.0765757  -0.00130712    0.0242433   -0.0243835   -0.0575342    0.0227369  0.000418141   -0.0571995    -0.047005     0.013378   -0.0126523   -0.0663029   -0.0582339   -0.0110371    0.0557415   0.00399603   0.00293812    0.0625686    0.0425588   -0.0414928   -0.0865248    0.0459326   -0.0848533    0.0522131    0.0122389    0.0856279    -0.075434   -0.0340096    0.0501998    0.0337612    0.0346219   -0.0757577   -0.0117935    0.0187004    0.0297847   -0.0390323    0.0572562   -0.0862768   -0.0478236   -0.0142219    0.0741113  0.000151625   -0.0589077   -0.0595105   -0.0607839    0.0403501    0.0402571   -0.0506473    0.0451426   -0.0150595     0.053095   -0.0117759   -0.0718968    0.0261206    0.0421879  -0.00407742   -0.0812581   -0.0761503    0.0434047   -0.0822282   -0.0273572   -0.0144614    0.0767859   -0.0436397    0.0678938   -0.0804533     0.079827   0.00719123   0.00482253   -0.0817023   -0.0719851    0.0838014   -0.0204785    0.0171102  -0.00785802    -0.059892   -0.0378237   -0.0199697    0.0612366   -0.0386282    0.0521351    0.0544144   -0.0762621   -0.0314462   -0.0600205    0.0418384  -0.00932385    -0.049288    0.0779946    0.0815304    0.0364273   -0.0151431   0.00791271   -0.0468762   -0.0164005    0.0612338   -0.0581613   -0.0552159   -0.0750613   -0.0163539   -0.0575234    0.0366825   -0.0554603    -0.007501   -0.0768818    0.0683382   -0.0717039   -0.0268922    -0.054155    0.0150369    0.0776792    0.0594453   -0.0648792    0.0283234    0.0362606   -0.0714796     0.060208    0.0839762      0.08277   -0.0168782   -0.0804308   -0.0704809   -0.0797057    0.0613679  -0.00166442    0.0502393   -0.0840099    0.0225102   -0.0492001    0.0390971   -0.0766738    0.0407227   -0.0226161    0.0385355   0.00197514    0.0867458    0.0212912    0.0503844  -0.00182906   -0.0380289   0.00234566    0.0847102   -0.0554306   0.00746581   -0.0867883     0.075942    0.0593086   -0.0326806     0.084643    0.0514564   -0.0734945   -0.0761094    0.0322713    0.0673219   -0.0455553    0.0034486  -0.00355557   -0.0674455    -0.077046   -0.0811724   -0.0633634    0.0196763   -0.0686812   -0.0271221  -0.00138566   -0.0408878   0.00896078    0.0356065    0.0390272   -0.0524064    0.0849395    0.0772835   -0.0464606    0.0777283   -0.0146908   -0.0256037    0.0578567    0.0291855   0.00932381    0.0201643    0.0467924   -0.0472469  -0.00966621   -0.0355424    0.0288787   -0.0678672   -0.0333733   -0.0746296
   0.0829382   -0.0291603   -0.0621507   -0.0329885    0.0818933     0.020095   -0.0727919   -0.0466426   -0.0201412   -0.0158516    0.0145397    0.0463194   -0.0465457    0.0214019   0.00746598  -0.00189567   -0.0277914   -0.0705936    0.0283365    0.0715387    -0.038364   -0.0750269   -0.0654847    0.0496144   -0.0228349    0.0741606 -0.000409705    0.0260088   -0.0370996   -0.0686556  -0.00524485   -0.0754276    0.0136059    0.0522986   -0.0290414    -0.064582   -0.0255815   -0.0466684    0.0071162    0.0561467      0.01256   -0.0416239    0.0730731    0.0650143    0.0364735    0.0357978    -0.079373     0.071427   -0.0265613    0.0288393   -0.0673517   -0.0464931   -0.0782907  -0.00322845    0.0753326   -0.0375453  -0.00300142    0.0477839    0.0527878    0.0696781   -0.0744218    0.0493302   -0.0528759    0.0829715    -0.063665    0.0325395   -0.0104696   -0.0125276    0.0624895   -0.0869017    0.0754652   -0.0155898   -0.0512066    0.0499445    0.0616144    0.0132835    0.0698964    0.0290961    0.0748653   -0.0334524    0.0361466   -0.0682009    0.0693536     0.060263     0.065249    0.0861492   -0.0357745    0.0862803   -0.0171008   -0.0715113     0.023882   -0.0596484     0.082632  -0.00294188   -0.0501545   -0.0165965    0.0795174   -0.0129441    0.0436331   -0.0710484    0.0596459   -0.0303106   -0.0528069   -0.0255468    0.0317056   -0.0674253   -0.0803372   -0.0450002    0.0827692    -0.040878    0.0270213    0.0411798    -0.067935   -0.0492604    -0.013731   -0.0865583   -0.0514517     0.037335   -0.0197167     0.071008   -0.0377601    0.0774694    -0.082864   -0.0848228    0.0486304    0.0488761   -0.0542529     0.054854   0.00666067    0.0767943   -0.0631381   0.00332895    0.0552459    0.0395525    0.0419265   -0.0740497    0.0858769  -0.00268611    0.0445612    0.0660969   -0.0587545   -0.0236927    0.0598056    0.0642891    0.0523575    0.0606306    0.0423993      0.04771   -0.0501032    0.0822332   -0.0811664    0.0269335    0.0575774    0.0354796    0.0824075  -0.00766984    0.0783144   -0.0205734    0.0368619   -0.0167054    0.0606075    0.0356228    -0.044631    0.0369394     0.040003   0.00164843    0.0357967    0.0867707    0.0106599    0.0298776    0.0692977    0.0555847    0.0463439    0.0141402    0.0238975   -0.0647305   -0.0100803    0.0708839    0.0635738   -0.0405623    -0.041136    0.0375472   -0.0390359   0.00339247    0.0693903   -0.0718588    0.0297346    0.0479598   -0.0410685     0.085518    0.0558482   -0.0622204   -0.0228757   -0.0375207   -0.0861518  0.000953733    0.0549011   -0.0245477   -0.0093186    0.0249959   -0.0484722     0.065883   -0.0361743    0.0223578    0.0622112    0.0321767    0.0420447    0.0802496    0.0263759    -0.068952    0.0470343   -0.0548144    0.0769954   -0.0565775    0.0131922    0.0809214    0.0285353  -0.00722352   0.00658481   -0.0752263   0.00923818   -0.0420147    0.0244586    0.0258176    0.0515495    0.0205732   -0.0285287    0.0168759   -0.0314849    0.0611138   -0.0484402   -0.0268168    0.0228792   -0.0191181   -0.0741458    0.0538086   -0.0497283  -0.00430413   -0.0156989   0.00912471   -0.0540736   -0.0776628    0.0104043    0.0401161   -0.0840036    0.0608501   -0.0779175    0.0684656    -0.045107    0.0605243   -0.0783565   0.00140374    0.0520989   0.00882929   -0.0673652    0.0668476    0.0790883    0.0139498    0.0793557    0.0799986   -0.0628044    -0.079913   -0.0258979    0.0845045    0.0206859   -0.0598679    0.0605011    0.0851433   -0.0266823   -0.0481363   -0.0420632    0.0777262   0.00668685   -0.0428197   -0.0169388   -0.0728445   -0.0350132  -0.00429777   -0.0679122    0.0279387    0.0694256    0.0801086    0.0162701    0.0474715   -0.0671028    0.0422554   -0.0101562   0.00575168   -0.0409897    0.0386882 -0.000489209   -0.0585866    -0.025379    -0.010192 -0.000949159    0.0586596    0.0104277    0.0368823   -0.0728468   -0.0201304  -0.00156654   -0.0382958   -0.0800257   -0.0822104   -0.0627191   -0.0300098    0.0509315    -0.039868   -0.0500498    0.0562053   -0.0160473    0.0157707   0.00876337   0.00546622    0.0414547   -0.0026473   -0.0684762   -0.0245753    0.0341626  -0.00819221    0.0106627   -0.0781107    -0.042204   0.00468768    0.0816282    0.0285725    0.0822771    0.0650755    0.0865625   0.00452454  0.000207151    0.0227294    0.0222137   -0.0706683    0.0376887     0.075983    0.0455338    0.0818733  -0.00584259   -0.0156312    0.0853293    0.0446412   -0.0708342    0.0474789     0.068643   -0.0196511    0.0726002    0.0731707   -0.0616233     0.080945   -0.0443569     0.013053    0.0121773    0.0347275   -0.0384473   -0.0396026    0.0654357   -0.0345842   -0.0246812    0.0578542    0.0675631  -0.00969085   -0.0433576   -0.0341083   -0.0853463     0.042434    0.0833883   -0.0496046  -0.00971447    0.0250189     0.056144    0.0561919    0.0563192   -0.0417315    0.0755096   0.00777123    0.0552021   -0.0566772   -0.0832121    -0.035093   -0.0737891   0.00983212    0.0859796   -0.0220712   -0.0258979   -0.0221028   -0.0550898    0.0266403   -0.0121505    -0.010022   -0.0458844    0.0622901   -0.0813548   -0.0558711   -0.0252446    0.0136364    0.0182554   -0.0467202   -0.0199913   -0.0268442  -0.00108192    0.0769789   -0.0376114   -0.0293718    0.0412472   -0.0105309    0.0072979    0.0503905    0.0383995    0.0280914     0.081325      -0.0338   -0.0366131   -0.0597046    0.0805942    0.0865715    0.0750299    -0.083035   -0.0238762    0.0324115   -0.0517876   -0.0851551  -0.00630567   -0.0838815   -0.0219095    0.0746347   -0.0512567   -0.0403021     0.056562   -0.0299388    0.0671685    0.0842847    0.0517358   0.00211641    0.0777073    0.0289773   -0.0513169   -0.0595897   -0.0323615   -0.0702138    0.0295545   -0.0313043   -0.0690126   -0.0106099   -0.0643886    0.0387518   -0.0340185   -0.0230845   -0.0181775   -0.0188096   -0.0119259    0.0464967    0.0594987    0.0223333  -0.00760989   -0.0310399    -0.076149   -0.0493463   -0.0542599    0.0459014   -0.0167814    0.0686373   0.00272383    0.0722897   0.00170423    0.0187421     0.017832    0.0450373   -0.0609565    0.0820317    0.0823188   -0.0406387   0.00181546   -0.0136708    0.0847084    0.0500028    0.0665674   -0.0715039    -0.019909    0.0329141   0.00871716   0.00240809    0.0176126    0.0167426    0.0215705   -0.0173602    0.0415479   -0.0070245    0.0316958   -0.0653289   -0.0624533    0.0290938   -0.0609615    0.0656047   -0.0108384    0.0801447   -0.0488823   -0.0723728   -0.0439013   -0.0555914    0.0190283   -0.0801853   -0.0498671    0.0781947   -0.0125456    0.0755856   -0.0186687   -0.0423569   0.00807155   -0.0258101    -0.051536    0.0685386   0.00176134   -0.0869263  -0.00255484  -0.00794227    0.0714755     0.079713   -0.0169783   -0.0636532    0.0835833   -0.0120394   -0.0555256   -0.0455589   -0.0177754    0.0827488    0.0396028   -0.0610887    0.0527172   -0.0308047   -0.0460797   0.00832141   -0.0464216    0.0632113    0.0529197   -0.0523948   -0.0848298   -0.0343442   -0.0259909    0.0441113   -0.0499979    0.0265701   -0.0445133    0.0218315    0.0633928  -0.00127283   -0.0714547   -0.0860881   -0.0361415    0.0433719   0.00334836   -0.0844629   -0.0468246  -0.00847119   -0.0246822   -0.0721268    0.0249006    0.0789678   -0.0695818   -0.0364306   -0.0548344   -0.0304808    0.0576834   -0.0509504    0.0309666   -0.0116354    0.0404939     0.069248   -0.0701376   -0.0576965   0.00150105  -0.00823564    0.0685026    0.0573911   -0.0803401   -0.0791407    0.0748703    0.0658098   -0.0230661   -0.0642237    0.0627352 -0.000381165   0.00275077    0.0812694   -0.0604977    0.0817574   -0.0427106   -0.0416754   -0.0333822   -0.0314133    0.0405267   -0.0856378  -0.00576148    0.0392289   -0.0147541   -0.0391329   -0.0808026    0.0516737   0.00175301  -0.00543821  -0.00777548  -0.00740822    0.0486341   -0.0805608    0.0694727   -0.0641514    0.0754107    0.0854003    0.0702634   -0.0593818     0.084977   -0.0396993     0.047093   0.00498506   -0.0519962    -0.080686   -0.0274931    -0.048487   0.00882157   -0.0841414   -0.0798904    0.0630739    0.0222325    0.0457808   -0.0547602    0.0539896    0.0462169     0.073337   -0.0246886   -0.0131115   -0.0566698   -0.0209029   0.00232971   -0.0345651    0.0309554    0.0734846   0.00700509   -0.0483538   -0.0795035   -0.0451009  -0.00224771    0.0417906    0.0634354   0.00257122   0.00492094   -0.0652988     -0.02784    0.0114508   -0.0524589    0.0752117   -0.0317944    0.0609366    0.0402407    0.0583068   -0.0805121    0.0173721  -0.00796341   -0.0335595    -0.017864   -0.0307562   -0.0212212   -0.0861362   -0.0298272    0.0280247   -0.0176728  -0.00325867  -0.00451311    0.0780565    0.0434006  -0.00952011   0.00021935    0.0837415   -0.0674422    0.0210714    0.0426037    0.0516344    -0.067877    0.0775747     0.056864      0.05841    0.0480801    -0.032864    0.0148296   -0.0582431   -0.0264565    0.0107482    0.0629732   -0.0240817    0.0621405   -0.0216764   -0.0518923   -0.0090654   -0.0532152  -0.00509947   -0.0249058    0.0756842   -0.0105274   -0.0549338   -0.0651738    0.0196129   -0.0251163   -0.0678745   -0.0754781    0.0503698     0.046337   -0.0704232   0.00653982   -0.0248309   0.00891702    0.0530968    0.0217361    0.0122313    0.0333619   -0.0456891   -0.0176032   -0.0502359   -0.0452607    0.0323744   -0.0809763    -0.072571     0.071983    0.0417545   -0.0178885   -0.0620062    -0.012603   -0.0432172   -0.0489141    0.0500812    0.0742193    0.0318758     0.003049   -0.0106835    -0.072791   -0.0729533   -0.0153423    0.0699415    0.0126382   -0.0825621    0.0348401   -0.0147186   -0.0631998    0.0100282    0.0293115    0.0297738 -0.000531948    0.0128608   -0.0405696   0.00567612    0.0567538    0.0373462    -0.044017   -0.0178392    0.0802048    -0.030256    0.0138554    0.0443226   -0.0289528    0.0854491    0.0589022   -0.0455913   -0.0306666   -0.0498574    0.0695367    0.0668234 -0.000400733   -0.0361758    0.0362474   -0.0409779    0.0775636     -0.01297    0.0592815    0.0704372   -0.0611015   -0.0306934    0.0670853   -0.0438702    0.0552546   -0.0441311   -0.0477029    0.0289355   -0.0313337   -0.0154781    0.0405306   -0.0797548
   0.0810603   0.00478902    0.0209978   -0.0213532    0.0835444   -0.0582102    0.0579024   -0.0180423    0.0172732    0.0215255    0.0431653    0.0768435   -0.0767296   -0.0391922  -0.00998161    0.0824288   0.00124473    0.0148664   -0.0798227   -0.0370287    0.0672105    0.0124674   -0.0694795   -0.0782765    0.0337439   -0.0573733   0.00686915    0.0296995   -0.0325847   -0.0813046    -0.006029    0.0360989   -0.0304847   -0.0783426   -0.0326304    0.0289099    0.0301709    0.0222464   0.00312166   0.00494127   -0.0690073    0.0321026    -0.037785    0.0739309   -0.0481675    0.0392983   -0.0255675   -0.0336937    0.0374758   0.00936657   -0.0604722   -0.0526915    0.0783859     0.019816    0.0526565      0.05648   -0.0707083    -0.021077   -0.0548777   -0.0742627    0.0404808   -0.0724285    0.0248967   -0.0679472    0.0718094    0.0476782    0.0457893  0.000857644    -0.068025    0.0734639   -0.0465349    0.0518573   -0.0328205   -0.0279487    0.0602885    0.0382213    0.0540315   -0.0658499    0.0534518    0.0755614   -0.0754956   -0.0706645   -0.0815841      0.01418   -0.0678929  -0.00182686   -0.0341077   -0.0458776   -0.0327895   -0.0083911   0.00522614    0.0596114   -0.0762615    0.0389263   -0.0207271   -0.0646537    0.0491086   -0.0484707    0.0442036  -0.00733155   -0.0688635      0.06941   -0.0466388    0.0329788   0.00133554    0.0470256    0.0860545   -0.0459042    0.0545807  -0.00881789   -0.0645299   -0.0651133    0.0722432    0.0146221    0.0404308   -0.0296004    0.0380774  -0.00322954   -0.0390307    0.0738142  -0.00972795   -0.0630068    0.0298498   -0.0758572    -0.030416   -0.0313128    0.0833454  -0.00902952   -0.0435957    0.0657545    -0.030813   -0.0280949    0.0317235   -0.0724856    0.0529574   -0.0308706   -0.0768054    0.0778691  -0.00654209    0.0579362    0.0492101   -0.0249125   -0.0213421   -0.0395449 -0.000479989    0.0179405   -0.0527443   -0.0407113   -0.0315105   -0.0478929   -0.0141364    0.0664332   -0.0425724   -0.0163045    0.0374075   -0.0782376   -0.0220774    0.0551967    0.0747267   -0.0847791   -0.0117113   0.00810218   -0.0118005    0.0609719    0.0390706   -0.0709757    0.0304112   -0.0641188      0.04325   -0.0381413    0.0694847   -0.0225276   -0.0759336    0.0713641   -0.0432188   -0.0451591   -0.0274718     0.013962   -0.0055175    0.0524322   -0.0232653   -0.0270109   -0.0187352    0.0861491    -0.021471    0.0850451   -0.0654185   -0.0018412    0.0164024    0.0297255   -0.0525429     0.083536  -0.00297469   -0.0815285    0.0236608    -0.022084    0.0802004   -0.0454531   -0.0506641    0.0339896    0.0640258    0.0315074  -0.00326457   -0.0347808   0.00231327    0.0204023   -0.0392279   -0.0183971    0.0683341   -0.0367331   -0.0346473     0.066631    0.0468325   -0.0467654    0.0289052   -0.0748498   -0.0205741    0.0566461    0.0489197    -0.046073   -0.0379932   0.00889703   -0.0556988  -0.00165577    0.0351749    0.0247378    0.0863432    0.0819942   -0.0249488  -0.00145367   -0.0680912     0.053763   -0.0598168    0.0119825   -0.0210223    0.0668792   -0.0296382   -0.0712917    0.0556192   -0.0112325   -0.0429004   -0.0316342   -0.0531246   -0.0663336   -0.0436036  -0.00752583   -0.0290913    0.0785445   -0.0606746   -0.0623223   -0.0398796   -0.0864038   -0.0230181    0.0694335    0.0675616   -0.0134578    0.0328112    0.0144226    0.0576864   -0.0347475    0.0562466  -0.00741351     0.045098   -0.0646131   -0.0512268    0.0200009   -0.0382486     0.057533    0.0712354   -0.0596758    0.0119686    0.0718148    0.0605947    0.0279675   -0.0510885    0.0127133    -0.056152   -0.0225614    0.0594565     -0.07534    0.0753024   -0.0421309    0.0715772   -0.0622481    0.0529487  0.000632955   -0.0866441   -0.0507175    0.0572277    0.0168496     0.059381    0.0811678    0.0764069      0.08408    0.0775413   -0.0287616  -0.00215732    0.0691545 -0.000363059   -0.0226083    0.0309561   -0.0299824    -0.037628   -0.0660092    -0.042456    -0.065205   -0.0265526    0.0434452    0.0583436    0.0795522   0.00634673   -0.0115156   -0.0128307   -0.0448593    0.0253201   0.00969143   -0.0390362   -0.0812477    0.0849831      0.05253   -0.0412281   -0.0183711   -0.0710467    -0.082612   -0.0186518   0.00719835    0.0122302   -0.0277033    0.0839638   -0.0855047    0.0565807   -0.0104411     0.062368   -0.0778921   -0.0117494    -0.080831    0.0367157    0.0208532   -0.0222521    0.0262273    0.0657407    0.0299536   -0.0174885    0.0816683   -0.0581136     0.026788   -0.0329677   -0.0787942    0.0494125   -0.0177429   -0.0224846    0.0118434   -0.0142722    0.0653532    0.0602695    0.0269202    0.0399459    0.0463089   -0.0758252    0.0767065   -0.0126413  -0.00936457      0.04333   -0.0202659   -0.0444451    0.0651885   0.00455559   -0.0190833    0.0391968   -0.0719714    0.0192281   -0.0689339   -0.0439542    0.0506168     0.033163    0.0475842    0.0222468   -0.0320203  -0.00305123   -0.0200105   0.00992375    0.0222832   -0.0869065   -0.0555569   0.00620278   -0.0254273    0.0701253    0.0289879    0.0264159    0.0361876  -0.00415242   0.00453478  0.000428144    0.0796133    0.0667883    0.0744125    0.0633074    -0.050201 -0.000175877    0.0232085   -0.0363712    0.0632825   0.00314876    0.0840699   -0.0846482    0.0438765    0.0235854   -0.0584294   -0.0722683   -0.0373723   -0.0763749   -0.0250138   -0.0360956    0.0195648    0.0198706  -0.00989431    0.0616847    -0.052523    0.0390996   -0.0773757      -0.0275   -0.0812984    0.0786892   -0.0408163   -0.0642807   -0.0128536   -0.0752034   -0.0337689    0.0111693  0.000161757   -0.0455798    0.0809838    0.0621365    0.0618646   -0.0527824    0.0665153    0.0516288    0.0437329   -0.0453601    0.0308968    0.0248162   -0.0246888   -0.0544342   -0.0529614    0.0746453    0.0861547   -0.0776778    0.0182364   -0.0382227    0.0663446    -0.012711   0.00872158    0.0220829   -0.0561475   -0.0136026   0.00449037    0.0218054  0.000274696   -0.0858494    -0.085139    0.0224237    0.0696615    0.0417167    0.0476434   -0.0415787   -0.0462064   -0.0522456   0.00405281   -0.0361307    -0.017334    0.0530848   -0.0390839   -0.0699645    0.0288196    0.0473482   -0.0676624   -0.0436398    0.0438344   -0.0445646   -0.0850822   -0.0863205    0.0705189    0.0811349   -0.0765593    0.0467539    0.0184251    0.0283455  -0.00947142   -0.0218272    0.0319177   -0.0492707    0.0417504   -0.0431154    0.0366093    0.0613153    0.0376121   -0.0766337   -0.0760426   -0.0416618    0.0155116    0.0696755   -0.0540399    0.0143519   0.00834671    0.0689526   0.00506775  -0.00550583   -0.0834298    -0.020625    0.0453779   -0.0182437   -0.0210357    0.0720459     0.020652    0.0622305    0.0342516   -0.0272173    0.0593567    0.0195031    0.0350663  -0.00480941    -0.063145    0.0836236    0.0350144   -0.0632561    -0.023197   -0.0638384    0.0414759   -0.0592577   -0.0742151    0.0731475   -0.0491338    0.0283913     0.058396    0.0406165    0.0371402   -0.0393336    0.0534163   -0.0538262   -0.0130282   -0.0792893   -0.0131813    0.0581397    0.0117431   -0.0537308    0.0269787    0.0702985    -0.041254    0.0332627    0.0606319   -0.0707355   -0.0405158    -0.033503    0.0615563   -0.0203658    0.0129165   -0.0086502    0.0755961  -0.00136775    0.0843112    0.0410872   0.00587678   -0.0127853    0.0209808   -0.0173792    0.0433069   -0.0297166    0.0380575     -0.06765    -0.079602   -0.0852965    0.0836301   -0.0294119   -0.0412914   -0.0589118  -0.00218435    0.0462452     0.055892    0.0452719    0.0729608  -0.00250734    0.0646352    0.0281996    0.0536642   -0.0267054   -0.0404359   -0.0737966    0.0137289   -0.0142739   -0.0503129    0.0189454   -0.0292538   -0.0760403   -0.0728718   -0.0193479   0.00634783    0.0646096    0.0182412 -0.000563438    0.0631774   -0.0750868    0.0592789    0.0755535    0.0458363   -0.0684822     0.059926   -0.0612718    0.0333218    0.0507912    0.0860534   0.00414026    -0.043923    0.0620706    0.0556794   -0.0651554    0.0612581   -0.0145067   -0.0248806    0.0197001    0.0784442   0.00382999   -0.0835266    0.0147144     0.016323    0.0246965    -0.074917    0.0681291   -0.0565841     0.078795   -0.0721479    0.0812556   -0.0526739    0.0654177  -0.00374265    0.0319361    0.0442186    0.0277314    -0.059683    0.0577503   -0.0221738   -0.0742957   -0.0582982   -0.0809908    -0.046922    0.0654083   -0.0580889   -0.0562306    0.0370827   -0.0699005    0.0208388    0.0677305   -0.0719165    0.0847847   -0.0119518    0.0620137   -0.0591562   -0.0750815    0.0300522   -0.0286537   -0.0223155    0.0173267   -0.0443381   -0.0121141  -0.00346392    0.0566962   -0.0392848    0.0448669   -0.0382324   -0.0190909    0.0102377    0.0605789    0.0549653    0.0475525   -0.0127984   -0.0462548   -0.0600812     0.037501   -0.0191341    0.0465355   -0.0304701     0.078738     0.020053   0.00560775    0.0814379   -0.0616946    0.0681193    0.0575888  -0.00562948  -0.00295962   -0.0345951    -0.007459    0.0543284    0.0141664  -0.00738356    0.0326781   0.00886847    0.0634538   -0.0714283    0.0178826   -0.0597026   -0.0469137   0.00539546   -0.0754032   -0.0124265   -0.0814132    0.0403431    0.0659311   -0.0729191   -0.0587853   -0.0339195    0.0751167   -0.0275165    0.0576812   -0.0336335    0.0494578   0.00888914   -0.0369769    0.0580845    0.0467435    0.0708622    0.0166676   -0.0493599   -0.0670636    0.0838102   -0.0477803     0.030058    0.0458624     0.035362    0.0713526   -0.0736925   -0.0493881   -0.0232136    0.0183879   0.00714918    0.0731811   -0.0164738   -0.0380316    0.0792468   -0.0730564    0.0370942    0.0293486    0.0602123   0.00620372    0.0760146   -0.0399958   -0.0488865   -0.0354873   -0.0472823   -0.0848822   -0.0794764   -0.0412884    0.0868033    0.0448904    0.0334829   -0.0730896   -0.0407618   -0.0862809   0.00634979    0.0617696   -0.0244249    0.0688612    0.0529388   -0.0688983    0.0345507    0.0815916    -0.012838  0.000448015   -0.0727612   0.00668263   -0.0575922    0.0781951   -0.0230954    0.0447565   0.00354889   -0.0731241   -0.0364746    0.0201074    0.0157252    0.0586361  -0.00140139    0.0495839    0.0748265    0.0692962    0.0105643
  -0.0307439    0.0102061   0.00782045    0.0729604   0.00481483   -0.0712888   -0.0435896    0.0472522   -0.0278449    0.0124251    0.0523855   -0.0479568   -0.0518348        0.026    0.0185593    0.0761415     -0.02997   -0.0137016   -0.0241695   0.00611387    0.0762628   -0.0310993   -0.0414185   -0.0200267   -0.0260874   -0.0469929    0.0806855   -0.0621533    0.0085504   -0.0523451    0.0290943   -0.0680606    0.0136891    0.0634017   -0.0771779     0.085014   0.00684935    -0.070096    0.0628552    0.0206574  0.000637884    0.0839512    0.0454019   -0.0490466    -0.070766   -0.0855573    0.0428481   0.00199109     0.027804    0.0243694   -0.0263558  -0.00472202   0.00208123    0.0755327    -0.057665   -0.0578355    0.0485237   -0.0259969    0.0867816    0.0638792    0.0670093    -0.016961    0.0764775    -0.075844    0.0316754    0.0276045   -0.0290815   -0.0377574    0.0427165   -0.0538496  -0.00968362  -0.00465476    0.0622186   -0.0105437   -0.0263236   -0.0444739    -0.075348   -0.0501132    0.0622789   -0.0825943     0.054213    0.0576394   -0.0360798    0.0451086   -0.0488129    0.0581681   -0.0758914   -0.0457422    0.0049167    0.0161696    0.0641247   0.00644648 -0.000284946   -0.0309592   -0.0610093    0.0145626    0.0158496    0.0488171   -0.0596419     0.014512    0.0855501   -0.0594279   -0.0195141    0.0598104   -0.0444914    0.0216042      0.05111  -0.00453501    0.0117977    0.0289766    0.0186418    -0.036022   -0.0566979  -0.00543247   -0.0740183   -0.0386361     0.046601    0.0475215    0.0869228    0.0443202   -0.0468376    0.0773026   -0.0553416    0.0202151    0.0343415    0.0777583    0.0482166    -0.047204    0.0108312    0.0848826    0.0294409   -0.0220256   -0.0365331   0.00544676  -0.00590797    -0.053784   -0.0291424   -0.0307934   -0.0150061    0.0199319    0.0195561    0.0514048    -0.019577   -0.0311969    0.0605522    0.0727559   -0.0554921  -0.00831455    0.0572258   -0.0843931    0.0431639   -0.0432959    0.0662246    0.0790941    0.0364036   -0.0167998   -0.0755154   -0.0480923   -0.0295412  -0.00809823    0.0353043   0.00647244   -0.0283985    0.0746869   -0.0329379   -0.0507791    -0.080552   -0.0197685   -0.0433156   -0.0650949   -0.0305203    0.0277491   -0.0324661  -0.00159934    0.0414001    0.0587177   -0.0185184    0.0416021   -0.0651798    0.0218291    -0.012315   -0.0757375   -0.0323982     0.080544    0.0168555    0.0735296    0.0807137   -0.0381586   -0.0133662   -0.0682549    0.0692692   -0.0548207    0.0605379    0.0218113    0.0618376    0.0128439    0.0865802   -0.0139362   -0.0736605   -0.0522684    0.0526589   -0.0387394    0.0108616   -0.0145592    0.0860556   -0.0154387   -0.0784667     0.062615    0.0467815    0.0515769    0.0361516    0.0184215   -0.0726625    0.0573825   -0.0773456   -0.0707505   -0.0061988   -0.0650716    0.0563203   -0.0616259  -0.00294542    0.0669584    0.0759685   -0.0239826   -0.0121395   -0.0266431    0.0420954   -0.0546922    0.0310446    0.0477306    0.0216725   -0.0512129   -0.0230694   -0.0328136   -0.0452612    0.0792785   -0.0340366    0.0539633    0.0704921    0.0650185   -0.0360989   -0.0217543    0.0178899   -0.0840829   -0.0674314    0.0520845    0.0202801   -0.0678451    0.0221565  -0.00973449   -0.0314858   0.00417176   -0.0598752   -0.0130163    0.0472374   -0.0329503   0.00858272   -0.0634538    0.0789281    0.0205345   -0.0859073    0.0791827    0.0422854   -0.0479513    0.0509033   -0.0345386  -0.00672821    0.0211539   -0.0384441    0.0279923   0.00555125   -0.0299523     0.025674    0.0437085   0.00525081     -0.04156   -0.0592014    0.0110329    -0.060421  -0.00284068    0.0420173    0.0508903    0.0421366  -0.00292472   -0.0674692    0.0541135   -0.0791781     0.064167   -0.0783175   -0.0822511   0.00118654    0.0128494   -0.0136902   -0.0207378   -0.0368201    0.0105854    0.0277644   -0.0438849   -0.0410278     0.014251    0.0591883    0.0726938    -0.067486   -0.0354265   -0.0313798   -0.0106423   -0.0859744   0.00410835    -0.037371    -0.065717    0.0495413  -0.00796113    0.0778397   0.00536203   -0.0538451   -0.0473787   -0.0793982    0.0247269     0.012255     0.051943   0.00134256   0.00202759    0.0603024   -0.0634517    0.0410833   -0.0128604     0.052786    0.0278953   -0.0170896   -0.0619001     0.052047    0.0755468   -0.0157158   -0.0699369   -0.0854926   -0.0803635  -0.00200179    0.0705489   0.00582244   -0.0329659   -0.0572369   -0.0186742  -0.00751092    0.0208499    0.0443078    0.0663805    0.0739019   -0.0579172    0.0113577    0.0199238    0.0481605   -0.0422466    0.0743994   -0.0041256 -0.000589858  -0.00324721    0.0562083   -0.0128216     0.086879    0.0674887   -0.0695381    -0.044056    0.0535755   -0.0382786    0.0248902    0.0667588    0.0226279   -0.0236358   -0.0421785    0.0265487   -0.0201824    0.0682853    0.0818434   0.00239689    0.0375975   -0.0298648   -0.0401075   -0.0635825   -0.0803322    0.0238628   -0.0278912   -0.0342026   -0.0189847   -0.0267205    0.0426105   -0.0844822    0.0236607    0.0617786    0.0775626   -0.0304538   -0.0457113   -0.0115279    0.0776443    0.0360241   -0.0436362    0.0714466   -0.0254626   -0.0106198    0.0113332   0.00734803    0.0207302    0.0274485   -0.0299204    0.0858851    -0.041987   -0.0368432   -0.0464258       0.0766   -0.0323588    0.0576502     0.034422    0.0785633     0.071414    0.0561316    0.0571636    0.0222615    0.0287757   -0.0442931    0.0199113   -0.0452669     0.083287    0.0623102      0.07427   -0.0231276    0.0185628  0.000438589    0.0160704   -0.0850352      0.03415   0.00581536    0.0573521    0.0723796   -0.0165039   -0.0820949    0.0629822   -0.0282675     0.079217    0.0731444    0.0293984    0.0155408   -0.0625959   -0.0730932    0.0613946    -0.079933   -0.0246532    0.0193881    0.0015025  -0.00597939    0.0141323 -2.46574e-05   -0.0530366   0.00852317  -0.00132413   -0.0423731   -0.0519481   -0.0598817    0.0726322    0.0530111    0.0295928   -0.0257982  -0.00497739    0.0644189    0.0143327     -0.04527  -0.00518599    -0.032346    0.0589002   -0.0602235   -0.0831087    0.0654106    0.0745307    0.0479599   -0.0660452    0.0777503   -0.0493807    0.0262381    0.0796123   -0.0550314    0.0150634    0.0202948    0.0519954   -0.0368774    0.0256106    0.0105954   -0.0832413     0.040741   -0.0387417    0.0847994   -0.0203035   -0.0338068    0.0206381   -0.0827937    -0.048404   0.00817536   -0.0856476    0.0820556    0.0553327   0.00884051    0.0756253    -0.042413   -0.0529328    0.0616021    0.0411036    0.0406247    0.0722791   -0.0219133   -0.0697104    0.0862542    0.0498592   -0.0328411   -0.0478152  -0.00724097   -0.0114938   -0.0259261   -0.0836399     0.027551    0.0366568  -0.00790612   -0.0494713    0.0521257   -0.0854997   -0.0660901    0.0701099    0.0183356    -0.077357   -0.0829511   -0.0206277   -0.0705034   -0.0647821    0.0832768  -0.00510486   -0.0220272    0.0217516    0.0140618  -0.00348749    0.0745175    0.0419903     0.085394    0.0411851   -0.0360156    0.0703243    0.0635324    0.0765611   -0.0779351    0.0487845   -0.0738571   -0.0543563    -0.084009    0.0568465   -0.0842587    -0.018372    0.0544283    0.0355266   -0.0142755    0.0498111    0.0480396    0.0316674  -0.00191014    0.0252038   -0.0265285    -0.039702    0.0792798  0.000961069    -0.077688   -0.0843273  -0.00737468    0.0359787   -0.0271578   -0.0590216   -0.0244758    0.0190662    0.0337686   -0.0616374   -0.0443014    0.0840633    0.0119279   0.00193672    0.0830729   -0.0388164    0.0165367   -0.0702649    0.0219572   -0.0355277   -0.0326278    0.0787403     0.062594   -0.0370367    0.0724644    0.0662843    0.0444504    0.0614937   -0.0376373     0.074744   0.00936659   -0.0344029   -0.0736587   -0.0595614    0.0163742   0.00519555    0.0789916    0.0174813    0.0741364     0.030659    0.0364213    0.0442055   -0.0268381   -0.0696973   -0.0685988    0.0404075  0.000810231   -0.0619235    0.0467855    0.0616439    0.0842154   -0.0496571   -0.0140787    0.0143797   -0.0248176   -0.0660705   -0.0261404    0.0748763    0.0859142    -0.077534   -0.0784903   -0.0344326    0.0210953    -0.035467     0.077654   -0.0456626     0.037532  -0.00204816    0.0679343    0.0747504    0.0780085   -0.0205598    0.0693135    0.0558202   -0.0538712    0.0850796    0.0492391   -0.0546559    0.0313107     0.084695    0.0214984   -0.0369804    0.0582492    0.0650592    0.0146791   -0.0055296   -0.0297419    0.0385664    -0.065653   -0.0364971    0.0613133   0.00712532   -0.0286925    0.0251639    0.0228916    0.0480375    0.0200433   -0.0793722    0.0361758    0.0236215    0.0206159    0.0442777    0.0451504   -0.0449049     0.054018    0.0571238    0.0688645   -0.0446529    0.0471944    0.0245565    0.0825261   -0.0299441    0.0398045    0.0699219    0.0564137   -0.0559633   0.00758887    0.0577968    0.0413537    0.0388259    0.0437644  -0.00907449   -0.0767004     0.011363   -0.0851158   0.00531944   -0.0730442    -0.044153    0.0527205   -0.0218452    0.0402362   -0.0325808    0.0181309    0.0687742   0.00686347    -0.014206   -0.0342754   -0.0350859     0.069872   -0.0290322  0.000836574    0.0596956   -0.0781072  0.000823741    0.0158817   -0.0237176   -0.0314106   -0.0516466   -0.0397118   0.00375594   -0.0541046    0.0373675  -0.00982451    0.0420165    0.0549572   -0.0112638   -0.0595305    0.0362933     0.083033    -0.067106    0.0783754   -0.0456811   -0.0767277   -0.0444074   0.00396522   0.00957568   -0.0666863    0.0637917    -0.055082   -0.0833122   -0.0573194   0.00886667   -0.0841272    0.0755523   -0.0191493   -0.0273622   -0.0821567   -0.0768331    0.0521902   -0.0320517   -0.0408002  -0.00342471   -0.0838756   -0.0769008   -0.0857923 -0.000696866   -0.0731806      0.01569   -0.0841243     0.027665    -0.021648    0.0181755    0.0344568    0.0735666    0.0838796   -0.0282734   -0.0607485    -0.019193  -0.00861529   -0.0523476    0.0428694  -0.00315782   -0.0799167   -0.0184058    0.0107557    0.0735935    0.0772769  -0.00330504   -0.0184224  -0.00355895     0.010455  -0.00992326    0.0700776    0.0781746    0.0680231   -0.0210779    -0.081113   -0.0185364   -0.0373565    0.0106754    0.0121619
  -0.0500343    0.0392579   -0.0185276    0.0759635    0.0237807   -0.0769408   -0.0544975    0.0549725    0.0383285   -0.0402672   0.00871265    0.0563695    0.0688212   -0.0311744   -0.0293035    0.0177897     -0.04425    0.0714521    0.0349312    0.0626335    0.0221053     0.081404    0.0234728   -0.0351175   -0.0176436   -0.0155357    0.0534615   -0.0215389   -0.0421443   -0.0201561    0.0536637    0.0639581    0.0064292    0.0653345    0.0373798   -0.0134349  -0.00930361    0.0392031   -0.0649745    0.0717675    0.0458661    0.0386043   0.00655196   0.00918148   -0.0317405    0.0600405   -0.0181409    0.0141623    0.0796511   -0.0162088   -0.0854555     0.063119   -0.0190295  -0.00420595    0.0134327    0.0605953    0.0777709   -0.0690289   -0.0293531   -0.0277976    0.0240008    0.0575456  -0.00671575   -0.0473004    0.0710738   -0.0293988   -0.0172199   -0.0482521    0.0482662    0.0334099   -0.0520305    -0.064034    0.0580681   -0.0679908   -0.0593837   -0.0386809   -0.0224572   -0.0318279   -0.0512518   -0.0763783   -0.0779364    0.0666929    0.0613005    -0.010716   -0.0698733    0.0124963   -0.0671253  -0.00494621      0.04556    0.0483538  -0.00423702   -0.0669123   -0.0800837    -0.055149     0.018757   -0.0655227   -0.0439057    -0.077828    0.0520013    0.0655611   -0.0825065  -0.00643839   -0.0832687     0.050271    0.0667484   -0.0316028    0.0847008    0.0532439    0.0790509   -0.0337813    0.0139918    0.0188192    0.0354387    0.0372502   -0.0236679    0.0116266   -0.0346995    -0.001599   -0.0813219   -0.0171217   0.00525516    0.0642833    0.0302058    0.0566156   -0.0327339   -0.0524658  -0.00090169   -0.0804262   -0.0692534   -0.0676172    0.0626137    0.0250468    0.0578463    0.0168039   -0.0833903   -0.0685074    0.0301424   0.00470801   -0.0199921   -0.0735593    0.0298947   -0.0459295   -0.0449508   -0.0137721   -0.0204021    0.0243745    -0.016894   -0.0759727    0.0503002    0.0565936     0.025975  -0.00219427   -0.0698621    0.0766596    0.0590781    0.0629484    0.0180806    0.0392806   -0.0381096    0.0107785    0.0088988    0.0659209    0.0536011   -0.0305531    0.0441822    0.0188433    0.0810694     0.067367    0.0181614    0.0599149   -0.0825113   -0.0298862   -0.0860118  -0.00808014   -0.0736404   -0.0138495    0.0778234    0.0145773    0.0680887   -0.0479595   -0.0324319    0.0168837   -0.0387056    0.0642265    0.0343665     0.014426   -0.0268848  -0.00190595   -0.0805521    0.0737053   0.00610664    -0.040752    0.0861561    0.0773766   -0.0662926    0.0323939  -0.00666672   -0.0659731     0.048514   0.00266766   -0.0552903    -0.031945    0.0574255   0.00229898   -0.0723056   0.00801631   -0.0761722    0.0143658     0.030323   -0.0299714    0.0336659   0.00751278  -0.00409789     0.030276   -0.0743718    0.0705888  -0.00267331    0.0193391    0.0228193    0.0560895    0.0414911    0.0532914   -0.0627024    0.0562239  -0.00317089   -0.0437072    0.0683477    0.0715425    0.0282697    0.0176309      0.03184    0.0734617  -0.00310888     0.013023   -0.0590324   -0.0822682   0.00735599    0.0457679   -0.0280838   -0.0570923   -0.0391279    0.0638419    0.0179124   -0.0712047    0.0714452   -0.0609527    -0.043772   -0.0200168    0.0590614    0.0589377   -0.0427849    0.0515477    0.0183329    0.0835173    0.0064838      0.08268    0.0780391      0.03523   -0.0016201   -0.0400774   -0.0135715   -0.0171489    0.0843534   -0.0323971    0.0136777    0.0235664    0.0693277   -0.0651256    0.0466115   -0.0614184    0.0478985   -0.0773197   0.00895043     0.035612    -0.034777   -0.0411883   0.00155092    -0.066106   0.00510059    0.0545042   -0.0685652   -0.0638084   -0.0638251    0.0343291   -0.0613759    0.0253393   -0.0720705  -0.00353848   -0.0758518    0.0534782    0.0187513    0.0842073   -0.0633544   -0.0156156    0.0719301    0.0615428    0.0428862   0.00959595    0.0572846    0.0455726  -0.00587094    0.0215897    0.0143919    0.0258417    0.0608536    0.0221972   -0.0620538    0.0462769    0.0209545  -0.00727301    0.0264785    0.0751723   -0.0777587   -0.0341427  -0.00297023   -0.0158257    0.0297804   -0.0571922   -0.0848881    0.0302026   -0.0661134     0.043604   0.00329396   -0.0492248    0.0175462    0.0852768    0.0741505   -0.0628566   -0.0225182    -0.044494  -0.00781492    0.0229799     -0.03822     0.058697    0.0825039    0.0830193   -0.0464261       -0.073    0.0450343     0.061491   -0.0268006    0.0469786    0.0133617   -0.0540603   -0.0583069    0.0750499   -0.0392429    0.0789185    0.0364938    0.0300716   -0.0353255   0.00771022    0.0259425   -0.0151704   -0.0763767   -0.0486567    0.0136251    0.0230678   -0.0227717    0.0151474     0.025151   -0.0207659   -0.0456442   -0.0562464    0.0492899     0.063102   -0.0140151    0.0490284    0.0547431    0.0195878    0.0699078    0.0266032   -0.0857088    0.0604322     0.016587    -0.051396    -0.035496    0.0643214    0.0276191   -0.0557252   -0.0346685     0.035334    0.0268429    0.0606716   -0.0857015    0.0848957    0.0145273   0.00291456   -0.0206672    0.0158092   -0.0508977    0.0695071  0.000419095   0.00454825   -0.0706689   -0.0115916   -0.0785057   -0.0420257   -0.0679583    0.0623308  -0.00383931   -0.0710697   -0.0192493    0.0552432   -0.0474032    0.0296666   -0.0738761    0.0234401   -0.0171161   -0.0666561   0.00818391    0.0849362   -0.0106866    0.0450855   0.00912689   -0.0442265    0.0818816    0.0225333    0.0196331    0.0401191   -0.0834851  -0.00174754    0.0622124   -0.0396518    0.0624398    0.0386956   0.00793579  -0.00603687    0.0802176   0.00785458   -0.0741851    0.0680767   -0.0357186   -0.0174734    0.0582627    0.0422397   -0.0848104  -0.00621576    0.0334891    0.0400433   -0.0324635   -0.0197529   -0.0861249   -0.0634941    0.0389299   -0.0335175   -0.0712622    0.0218136   -0.0400661    0.0481847   -0.0658281    0.0811066   -0.0173636   -0.0769093  -0.00532605   -0.0822981   -0.0201043   -0.0753035   -0.0411876    0.0301872   -0.0397453    0.0650238   0.00747978    0.0217076   -0.0274734    0.0859658  -0.00196069    0.0608046    0.0533877    0.0697973   -0.0370004    0.0471093   -0.0177156   -0.0392022   -0.0660377   -0.0529108   0.00732929   -0.0273411   0.00936893   -0.0187653    0.0699395    0.0216931    0.0155576    0.0279052     0.026118   -0.0682865   -0.0137488  -0.00607542   -0.0693506   -0.0795393   -0.0745877    -0.019853   -0.0439735   -0.0020165    0.0343616    0.0842407     0.049623  -0.00548054     0.071517   -0.0181806    0.0534212   -0.0558067   -0.0620817  -0.00873786    0.0695932   -0.0786912   -0.0358605   -0.0755611   -0.0124491    0.0345089   -0.0151459    0.0562576   -0.0206444   -0.0634821   -0.0214703   -0.0554247    0.0253951  -0.00403544     0.036775   -0.0769924     0.072062   -0.0114858    0.0450871   -0.0704913  -0.00110103   -0.0606504    0.0346076   -0.0215169    0.0222328    -0.027119    0.0364551  -0.00416572  -0.00404276   0.00710048    0.0826696   0.00424061   -0.0237906    0.0233653   -0.0783105    0.0348633   0.00381163    0.0681594    0.0411387   -0.0125108   -0.0382335  -0.00419836    0.0865859    0.0141617   -0.0652664   -0.0553516   -0.0563732    0.0335737    -0.028383   -0.0844672    0.0792117    0.0277833    0.0630481    0.0381742    0.0775983   -0.0577655    0.0353045   -0.0652901   -0.0866144   -0.0557879    0.0140175   0.00125237    -0.075568   -0.0468376    0.0735127    0.0698851   -0.0859396   0.00542719    0.0850248   -0.0309117   -0.0514779   -0.0316395   -0.0536415  -0.00376125   -0.0594315    -0.069915   -0.0183586   -0.0345208   -0.0389566  -0.00377816    0.0640088   0.00785319   0.00484061    -0.076013   -0.0834978    0.0349529    0.0150131   -0.0475018    0.0680991   -0.0261581   -0.0849089   -0.0492116   -0.0309317   -0.0650742    0.0102937    0.0601981   -0.0619886    -0.029782   -0.0825854   -0.0822946    0.0330259    0.0730518    0.0200211   -0.0605531   -0.0478445   -0.0132064    0.0637871    -0.052382   -0.0738676  -0.00790308   -0.0796916   -0.0502351   0.00522302   -0.0414679    0.0623343   -0.0498162  -0.00200157   0.00150809    0.0399135   -0.0417566   -0.0400504   0.00675008 -1.49436e-05   0.00663663   -0.0564194    0.0550743    0.0060625    0.0814645   -0.0716885    0.0264483   -0.0595137    0.0177689     0.017276   -0.0742974    0.0404778    0.0480114   0.00202673    0.0676393    0.0522326   -0.0348797    -0.041687   -0.0212897    -0.086385   -0.0348928   -0.0124886   -0.0287413   0.00601864    0.0653673   -0.0819327   -0.0745396   -0.0489078   -0.0841371   -0.0621664   -0.0605382    0.0731672   -0.0178939    0.0186826    0.0341849   -0.0834867   -0.0471882    0.0104115   0.00857176   -0.0839248   -0.0785817    0.0193513   -0.0129697   -0.0233461    0.0587885   -0.0205278    -0.053521   -0.0241902   -0.0638414    0.0287582    0.0302804    0.0576587   -0.0570376    0.0245045    0.0275247    0.0240844    0.0232206   -0.0767981    0.0613468    0.0857607   0.00428648 -0.000788835   -0.0726513    0.0633703   -0.0266797    0.0742319    0.0834038   -0.0767548   -0.0401537   -0.0453661    0.0150486   -0.0600367  -0.00495786   -0.0197767    0.0727121    0.0463153   -0.0035566    0.0498262    0.0486325    0.0716326   -0.0602002    0.0353553   -0.0663342   -0.0799283    -0.058147   0.00989512    -0.081899    0.0556443   -0.0692582   -0.0772734    0.0217299   -0.0766069   0.00675197  -0.00269035    0.0863389   -0.0745278    0.0576811    0.0786745    0.0819373  -0.00929252    0.0803972    0.0447536   -0.0645826    0.0430911   0.00745298    -0.018613    0.0200078   -0.0828882   -0.0722184    0.0650249  -0.00811061   -0.0612374   -0.0436818   -0.0558209   -0.0333896    0.0473804   -0.0108259  -0.00952062    0.0482723   -0.0400126    0.0647497    0.0609728    0.0203783   -0.0355748    0.0713414     0.024108  -0.00149622    0.0645894   -0.0274366    0.0384295    0.0721221    0.0843699    0.0278144   -0.0468662     0.022897    0.0489214    0.0242754   -0.0345938   -0.0335973   -0.0851226   -0.0856176    0.0291097   -0.0262983   -0.0209308   -0.0636744   -0.0426023    0.0206341   -0.0776779    0.0493378   -0.0595607    0.0692896   -0.0392789    -0.012638     0.063763    0.0739322    0.0148191    -0.021101
